elements: [In, P] 
E0: [-2.775151, 0.732387] 
deltaSplineBins: 0.001000 
embeddings:
  0: {ndensity: 1, FS_parameters: [1.0, 1.0], npoti: FinnisSinclair, rho_core_cutoff: 100000, drho_core_cutoff: 250}
  1: {ndensity: 1, FS_parameters: [1.0, 1.0], npoti: FinnisSinclair, rho_core_cutoff: 100000, drho_core_cutoff: 250}
bonds:
  [0, 0]: {nradmax: 16, lmax: 4, nradbasemax: 16, radbasename: ChebExpCos, radparameters: [1.737], radcoefficients: [[[1, 0, 0, 0, 0, 0, 0, 0, 0, 0, 0, 0, 0, 0, 0, 0], [1, 0, 0, 0, 0, 0, 0, 0, 0, 0, 0, 0, 0, 0, 0, 0], [1, 0, 0, 0, 0, 0, 0, 0, 0, 0, 0, 0, 0, 0, 0, 0], [1, 0, 0, 0, 0, 0, 0, 0, 0, 0, 0, 0, 0, 0, 0, 0], [1, 0, 0, 0, 0, 0, 0, 0, 0, 0, 0, 0, 0, 0, 0, 0]], [[0, 1, 0, 0, 0, 0, 0, 0, 0, 0, 0, 0, 0, 0, 0, 0], [0, 1, 0, 0, 0, 0, 0, 0, 0, 0, 0, 0, 0, 0, 0, 0], [0, 1, 0, 0, 0, 0, 0, 0, 0, 0, 0, 0, 0, 0, 0, 0], [0, 1, 0, 0, 0, 0, 0, 0, 0, 0, 0, 0, 0, 0, 0, 0], [0, 1, 0, 0, 0, 0, 0, 0, 0, 0, 0, 0, 0, 0, 0, 0]], [[0, 0, 1, 0, 0, 0, 0, 0, 0, 0, 0, 0, 0, 0, 0, 0], [0, 0, 1, 0, 0, 0, 0, 0, 0, 0, 0, 0, 0, 0, 0, 0], [0, 0, 1, 0, 0, 0, 0, 0, 0, 0, 0, 0, 0, 0, 0, 0], [0, 0, 1, 0, 0, 0, 0, 0, 0, 0, 0, 0, 0, 0, 0, 0], [0, 0, 1, 0, 0, 0, 0, 0, 0, 0, 0, 0, 0, 0, 0, 0]], [[0, 0, 0, 1, 0, 0, 0, 0, 0, 0, 0, 0, 0, 0, 0, 0], [0, 0, 0, 1, 0, 0, 0, 0, 0, 0, 0, 0, 0, 0, 0, 0], [0, 0, 0, 1, 0, 0, 0, 0, 0, 0, 0, 0, 0, 0, 0, 0], [0, 0, 0, 1, 0, 0, 0, 0, 0, 0, 0, 0, 0, 0, 0, 0], [0, 0, 0, 1, 0, 0, 0, 0, 0, 0, 0, 0, 0, 0, 0, 0]], [[0, 0, 0, 0, 1, 0, 0, 0, 0, 0, 0, 0, 0, 0, 0, 0], [0, 0, 0, 0, 1, 0, 0, 0, 0, 0, 0, 0, 0, 0, 0, 0], [0, 0, 0, 0, 1, 0, 0, 0, 0, 0, 0, 0, 0, 0, 0, 0], [0, 0, 0, 0, 1, 0, 0, 0, 0, 0, 0, 0, 0, 0, 0, 0], [0, 0, 0, 0, 1, 0, 0, 0, 0, 0, 0, 0, 0, 0, 0, 0]], [[0, 0, 0, 0, 0, 1, 0, 0, 0, 0, 0, 0, 0, 0, 0, 0], [0, 0, 0, 0, 0, 1, 0, 0, 0, 0, 0, 0, 0, 0, 0, 0], [0, 0, 0, 0, 0, 1, 0, 0, 0, 0, 0, 0, 0, 0, 0, 0], [0, 0, 0, 0, 0, 1, 0, 0, 0, 0, 0, 0, 0, 0, 0, 0], [0, 0, 0, 0, 0, 1, 0, 0, 0, 0, 0, 0, 0, 0, 0, 0]], [[0, 0, 0, 0, 0, 0, 1, 0, 0, 0, 0, 0, 0, 0, 0, 0], [0, 0, 0, 0, 0, 0, 1, 0, 0, 0, 0, 0, 0, 0, 0, 0], [0, 0, 0, 0, 0, 0, 1, 0, 0, 0, 0, 0, 0, 0, 0, 0], [0, 0, 0, 0, 0, 0, 1, 0, 0, 0, 0, 0, 0, 0, 0, 0], [0, 0, 0, 0, 0, 0, 1, 0, 0, 0, 0, 0, 0, 0, 0, 0]], [[0, 0, 0, 0, 0, 0, 0, 1, 0, 0, 0, 0, 0, 0, 0, 0], [0, 0, 0, 0, 0, 0, 0, 1, 0, 0, 0, 0, 0, 0, 0, 0], [0, 0, 0, 0, 0, 0, 0, 1, 0, 0, 0, 0, 0, 0, 0, 0], [0, 0, 0, 0, 0, 0, 0, 1, 0, 0, 0, 0, 0, 0, 0, 0], [0, 0, 0, 0, 0, 0, 0, 1, 0, 0, 0, 0, 0, 0, 0, 0]], [[0, 0, 0, 0, 0, 0, 0, 0, 1, 0, 0, 0, 0, 0, 0, 0], [0, 0, 0, 0, 0, 0, 0, 0, 1, 0, 0, 0, 0, 0, 0, 0], [0, 0, 0, 0, 0, 0, 0, 0, 1, 0, 0, 0, 0, 0, 0, 0], [0, 0, 0, 0, 0, 0, 0, 0, 1, 0, 0, 0, 0, 0, 0, 0], [0, 0, 0, 0, 0, 0, 0, 0, 1, 0, 0, 0, 0, 0, 0, 0]], [[0, 0, 0, 0, 0, 0, 0, 0, 0, 1, 0, 0, 0, 0, 0, 0], [0, 0, 0, 0, 0, 0, 0, 0, 0, 1, 0, 0, 0, 0, 0, 0], [0, 0, 0, 0, 0, 0, 0, 0, 0, 1, 0, 0, 0, 0, 0, 0], [0, 0, 0, 0, 0, 0, 0, 0, 0, 1, 0, 0, 0, 0, 0, 0], [0, 0, 0, 0, 0, 0, 0, 0, 0, 1, 0, 0, 0, 0, 0, 0]], [[0, 0, 0, 0, 0, 0, 0, 0, 0, 0, 1, 0, 0, 0, 0, 0], [0, 0, 0, 0, 0, 0, 0, 0, 0, 0, 1, 0, 0, 0, 0, 0], [0, 0, 0, 0, 0, 0, 0, 0, 0, 0, 1, 0, 0, 0, 0, 0], [0, 0, 0, 0, 0, 0, 0, 0, 0, 0, 1, 0, 0, 0, 0, 0], [0, 0, 0, 0, 0, 0, 0, 0, 0, 0, 1, 0, 0, 0, 0, 0]], [[0, 0, 0, 0, 0, 0, 0, 0, 0, 0, 0, 1, 0, 0, 0, 0], [0, 0, 0, 0, 0, 0, 0, 0, 0, 0, 0, 1, 0, 0, 0, 0], [0, 0, 0, 0, 0, 0, 0, 0, 0, 0, 0, 1, 0, 0, 0, 0], [0, 0, 0, 0, 0, 0, 0, 0, 0, 0, 0, 1, 0, 0, 0, 0], [0, 0, 0, 0, 0, 0, 0, 0, 0, 0, 0, 1, 0, 0, 0, 0]], [[0, 0, 0, 0, 0, 0, 0, 0, 0, 0, 0, 0, 1, 0, 0, 0], [0, 0, 0, 0, 0, 0, 0, 0, 0, 0, 0, 0, 1, 0, 0, 0], [0, 0, 0, 0, 0, 0, 0, 0, 0, 0, 0, 0, 1, 0, 0, 0], [0, 0, 0, 0, 0, 0, 0, 0, 0, 0, 0, 0, 1, 0, 0, 0], [0, 0, 0, 0, 0, 0, 0, 0, 0, 0, 0, 0, 1, 0, 0, 0]], [[0, 0, 0, 0, 0, 0, 0, 0, 0, 0, 0, 0, 0, 1, 0, 0], [0, 0, 0, 0, 0, 0, 0, 0, 0, 0, 0, 0, 0, 1, 0, 0], [0, 0, 0, 0, 0, 0, 0, 0, 0, 0, 0, 0, 0, 1, 0, 0], [0, 0, 0, 0, 0, 0, 0, 0, 0, 0, 0, 0, 0, 1, 0, 0], [0, 0, 0, 0, 0, 0, 0, 0, 0, 0, 0, 0, 0, 1, 0, 0]], [[0, 0, 0, 0, 0, 0, 0, 0, 0, 0, 0, 0, 0, 0, 1, 0], [0, 0, 0, 0, 0, 0, 0, 0, 0, 0, 0, 0, 0, 0, 1, 0], [0, 0, 0, 0, 0, 0, 0, 0, 0, 0, 0, 0, 0, 0, 1, 0], [0, 0, 0, 0, 0, 0, 0, 0, 0, 0, 0, 0, 0, 0, 1, 0], [0, 0, 0, 0, 0, 0, 0, 0, 0, 0, 0, 0, 0, 0, 1, 0]], [[0, 0, 0, 0, 0, 0, 0, 0, 0, 0, 0, 0, 0, 0, 0, 1], [0, 0, 0, 0, 0, 0, 0, 0, 0, 0, 0, 0, 0, 0, 0, 1], [0, 0, 0, 0, 0, 0, 0, 0, 0, 0, 0, 0, 0, 0, 0, 1], [0, 0, 0, 0, 0, 0, 0, 0, 0, 0, 0, 0, 0, 0, 0, 1], [0, 0, 0, 0, 0, 0, 0, 0, 0, 0, 0, 0, 0, 0, 0, 1]]], prehc: 0, lambdahc: 1.737, rcut: 5.790, dcut: 0.01, rcut_in: 1.705, dcut_in: 0.01, inner_cutoff_type: distance}
  [0, 1]: {nradmax: 16, lmax: 4, nradbasemax: 16, radbasename: ChebExpCos, radparameters: [1.502], radcoefficients: [[[1, 0, 0, 0, 0, 0, 0, 0, 0, 0, 0, 0, 0, 0, 0, 0], [1, 0, 0, 0, 0, 0, 0, 0, 0, 0, 0, 0, 0, 0, 0, 0], [1, 0, 0, 0, 0, 0, 0, 0, 0, 0, 0, 0, 0, 0, 0, 0], [1, 0, 0, 0, 0, 0, 0, 0, 0, 0, 0, 0, 0, 0, 0, 0], [1, 0, 0, 0, 0, 0, 0, 0, 0, 0, 0, 0, 0, 0, 0, 0]], [[0, 1, 0, 0, 0, 0, 0, 0, 0, 0, 0, 0, 0, 0, 0, 0], [0, 1, 0, 0, 0, 0, 0, 0, 0, 0, 0, 0, 0, 0, 0, 0], [0, 1, 0, 0, 0, 0, 0, 0, 0, 0, 0, 0, 0, 0, 0, 0], [0, 1, 0, 0, 0, 0, 0, 0, 0, 0, 0, 0, 0, 0, 0, 0], [0, 1, 0, 0, 0, 0, 0, 0, 0, 0, 0, 0, 0, 0, 0, 0]], [[0, 0, 1, 0, 0, 0, 0, 0, 0, 0, 0, 0, 0, 0, 0, 0], [0, 0, 1, 0, 0, 0, 0, 0, 0, 0, 0, 0, 0, 0, 0, 0], [0, 0, 1, 0, 0, 0, 0, 0, 0, 0, 0, 0, 0, 0, 0, 0], [0, 0, 1, 0, 0, 0, 0, 0, 0, 0, 0, 0, 0, 0, 0, 0], [0, 0, 1, 0, 0, 0, 0, 0, 0, 0, 0, 0, 0, 0, 0, 0]], [[0, 0, 0, 1, 0, 0, 0, 0, 0, 0, 0, 0, 0, 0, 0, 0], [0, 0, 0, 1, 0, 0, 0, 0, 0, 0, 0, 0, 0, 0, 0, 0], [0, 0, 0, 1, 0, 0, 0, 0, 0, 0, 0, 0, 0, 0, 0, 0], [0, 0, 0, 1, 0, 0, 0, 0, 0, 0, 0, 0, 0, 0, 0, 0], [0, 0, 0, 1, 0, 0, 0, 0, 0, 0, 0, 0, 0, 0, 0, 0]], [[0, 0, 0, 0, 1, 0, 0, 0, 0, 0, 0, 0, 0, 0, 0, 0], [0, 0, 0, 0, 1, 0, 0, 0, 0, 0, 0, 0, 0, 0, 0, 0], [0, 0, 0, 0, 1, 0, 0, 0, 0, 0, 0, 0, 0, 0, 0, 0], [0, 0, 0, 0, 1, 0, 0, 0, 0, 0, 0, 0, 0, 0, 0, 0], [0, 0, 0, 0, 1, 0, 0, 0, 0, 0, 0, 0, 0, 0, 0, 0]], [[0, 0, 0, 0, 0, 1, 0, 0, 0, 0, 0, 0, 0, 0, 0, 0], [0, 0, 0, 0, 0, 1, 0, 0, 0, 0, 0, 0, 0, 0, 0, 0], [0, 0, 0, 0, 0, 1, 0, 0, 0, 0, 0, 0, 0, 0, 0, 0], [0, 0, 0, 0, 0, 1, 0, 0, 0, 0, 0, 0, 0, 0, 0, 0], [0, 0, 0, 0, 0, 1, 0, 0, 0, 0, 0, 0, 0, 0, 0, 0]], [[0, 0, 0, 0, 0, 0, 1, 0, 0, 0, 0, 0, 0, 0, 0, 0], [0, 0, 0, 0, 0, 0, 1, 0, 0, 0, 0, 0, 0, 0, 0, 0], [0, 0, 0, 0, 0, 0, 1, 0, 0, 0, 0, 0, 0, 0, 0, 0], [0, 0, 0, 0, 0, 0, 1, 0, 0, 0, 0, 0, 0, 0, 0, 0], [0, 0, 0, 0, 0, 0, 1, 0, 0, 0, 0, 0, 0, 0, 0, 0]], [[0, 0, 0, 0, 0, 0, 0, 1, 0, 0, 0, 0, 0, 0, 0, 0], [0, 0, 0, 0, 0, 0, 0, 1, 0, 0, 0, 0, 0, 0, 0, 0], [0, 0, 0, 0, 0, 0, 0, 1, 0, 0, 0, 0, 0, 0, 0, 0], [0, 0, 0, 0, 0, 0, 0, 1, 0, 0, 0, 0, 0, 0, 0, 0], [0, 0, 0, 0, 0, 0, 0, 1, 0, 0, 0, 0, 0, 0, 0, 0]], [[0, 0, 0, 0, 0, 0, 0, 0, 1, 0, 0, 0, 0, 0, 0, 0], [0, 0, 0, 0, 0, 0, 0, 0, 1, 0, 0, 0, 0, 0, 0, 0], [0, 0, 0, 0, 0, 0, 0, 0, 1, 0, 0, 0, 0, 0, 0, 0], [0, 0, 0, 0, 0, 0, 0, 0, 1, 0, 0, 0, 0, 0, 0, 0], [0, 0, 0, 0, 0, 0, 0, 0, 1, 0, 0, 0, 0, 0, 0, 0]], [[0, 0, 0, 0, 0, 0, 0, 0, 0, 1, 0, 0, 0, 0, 0, 0], [0, 0, 0, 0, 0, 0, 0, 0, 0, 1, 0, 0, 0, 0, 0, 0], [0, 0, 0, 0, 0, 0, 0, 0, 0, 1, 0, 0, 0, 0, 0, 0], [0, 0, 0, 0, 0, 0, 0, 0, 0, 1, 0, 0, 0, 0, 0, 0], [0, 0, 0, 0, 0, 0, 0, 0, 0, 1, 0, 0, 0, 0, 0, 0]], [[0, 0, 0, 0, 0, 0, 0, 0, 0, 0, 1, 0, 0, 0, 0, 0], [0, 0, 0, 0, 0, 0, 0, 0, 0, 0, 1, 0, 0, 0, 0, 0], [0, 0, 0, 0, 0, 0, 0, 0, 0, 0, 1, 0, 0, 0, 0, 0], [0, 0, 0, 0, 0, 0, 0, 0, 0, 0, 1, 0, 0, 0, 0, 0], [0, 0, 0, 0, 0, 0, 0, 0, 0, 0, 1, 0, 0, 0, 0, 0]], [[0, 0, 0, 0, 0, 0, 0, 0, 0, 0, 0, 1, 0, 0, 0, 0], [0, 0, 0, 0, 0, 0, 0, 0, 0, 0, 0, 1, 0, 0, 0, 0], [0, 0, 0, 0, 0, 0, 0, 0, 0, 0, 0, 1, 0, 0, 0, 0], [0, 0, 0, 0, 0, 0, 0, 0, 0, 0, 0, 1, 0, 0, 0, 0], [0, 0, 0, 0, 0, 0, 0, 0, 0, 0, 0, 1, 0, 0, 0, 0]], [[0, 0, 0, 0, 0, 0, 0, 0, 0, 0, 0, 0, 1, 0, 0, 0], [0, 0, 0, 0, 0, 0, 0, 0, 0, 0, 0, 0, 1, 0, 0, 0], [0, 0, 0, 0, 0, 0, 0, 0, 0, 0, 0, 0, 1, 0, 0, 0], [0, 0, 0, 0, 0, 0, 0, 0, 0, 0, 0, 0, 1, 0, 0, 0], [0, 0, 0, 0, 0, 0, 0, 0, 0, 0, 0, 0, 1, 0, 0, 0]], [[0, 0, 0, 0, 0, 0, 0, 0, 0, 0, 0, 0, 0, 1, 0, 0], [0, 0, 0, 0, 0, 0, 0, 0, 0, 0, 0, 0, 0, 1, 0, 0], [0, 0, 0, 0, 0, 0, 0, 0, 0, 0, 0, 0, 0, 1, 0, 0], [0, 0, 0, 0, 0, 0, 0, 0, 0, 0, 0, 0, 0, 1, 0, 0], [0, 0, 0, 0, 0, 0, 0, 0, 0, 0, 0, 0, 0, 1, 0, 0]], [[0, 0, 0, 0, 0, 0, 0, 0, 0, 0, 0, 0, 0, 0, 1, 0], [0, 0, 0, 0, 0, 0, 0, 0, 0, 0, 0, 0, 0, 0, 1, 0], [0, 0, 0, 0, 0, 0, 0, 0, 0, 0, 0, 0, 0, 0, 1, 0], [0, 0, 0, 0, 0, 0, 0, 0, 0, 0, 0, 0, 0, 0, 1, 0], [0, 0, 0, 0, 0, 0, 0, 0, 0, 0, 0, 0, 0, 0, 1, 0]], [[0, 0, 0, 0, 0, 0, 0, 0, 0, 0, 0, 0, 0, 0, 0, 1], [0, 0, 0, 0, 0, 0, 0, 0, 0, 0, 0, 0, 0, 0, 0, 1], [0, 0, 0, 0, 0, 0, 0, 0, 0, 0, 0, 0, 0, 0, 0, 1], [0, 0, 0, 0, 0, 0, 0, 0, 0, 0, 0, 0, 0, 0, 0, 1], [0, 0, 0, 0, 0, 0, 0, 0, 0, 0, 0, 0, 0, 0, 0, 1]]], prehc: 0, lambdahc: 1.502, rcut: 5.007, dcut: 0.01, rcut_in: 1.403, dcut_in: 0.01, inner_cutoff_type: distance}
  [1, 0]: {nradmax: 16, lmax: 4, nradbasemax: 16, radbasename: ChebExpCos, radparameters: [1.502], radcoefficients: [[[1, 0, 0, 0, 0, 0, 0, 0, 0, 0, 0, 0, 0, 0, 0, 0], [1, 0, 0, 0, 0, 0, 0, 0, 0, 0, 0, 0, 0, 0, 0, 0], [1, 0, 0, 0, 0, 0, 0, 0, 0, 0, 0, 0, 0, 0, 0, 0], [1, 0, 0, 0, 0, 0, 0, 0, 0, 0, 0, 0, 0, 0, 0, 0], [1, 0, 0, 0, 0, 0, 0, 0, 0, 0, 0, 0, 0, 0, 0, 0]], [[0, 1, 0, 0, 0, 0, 0, 0, 0, 0, 0, 0, 0, 0, 0, 0], [0, 1, 0, 0, 0, 0, 0, 0, 0, 0, 0, 0, 0, 0, 0, 0], [0, 1, 0, 0, 0, 0, 0, 0, 0, 0, 0, 0, 0, 0, 0, 0], [0, 1, 0, 0, 0, 0, 0, 0, 0, 0, 0, 0, 0, 0, 0, 0], [0, 1, 0, 0, 0, 0, 0, 0, 0, 0, 0, 0, 0, 0, 0, 0]], [[0, 0, 1, 0, 0, 0, 0, 0, 0, 0, 0, 0, 0, 0, 0, 0], [0, 0, 1, 0, 0, 0, 0, 0, 0, 0, 0, 0, 0, 0, 0, 0], [0, 0, 1, 0, 0, 0, 0, 0, 0, 0, 0, 0, 0, 0, 0, 0], [0, 0, 1, 0, 0, 0, 0, 0, 0, 0, 0, 0, 0, 0, 0, 0], [0, 0, 1, 0, 0, 0, 0, 0, 0, 0, 0, 0, 0, 0, 0, 0]], [[0, 0, 0, 1, 0, 0, 0, 0, 0, 0, 0, 0, 0, 0, 0, 0], [0, 0, 0, 1, 0, 0, 0, 0, 0, 0, 0, 0, 0, 0, 0, 0], [0, 0, 0, 1, 0, 0, 0, 0, 0, 0, 0, 0, 0, 0, 0, 0], [0, 0, 0, 1, 0, 0, 0, 0, 0, 0, 0, 0, 0, 0, 0, 0], [0, 0, 0, 1, 0, 0, 0, 0, 0, 0, 0, 0, 0, 0, 0, 0]], [[0, 0, 0, 0, 1, 0, 0, 0, 0, 0, 0, 0, 0, 0, 0, 0], [0, 0, 0, 0, 1, 0, 0, 0, 0, 0, 0, 0, 0, 0, 0, 0], [0, 0, 0, 0, 1, 0, 0, 0, 0, 0, 0, 0, 0, 0, 0, 0], [0, 0, 0, 0, 1, 0, 0, 0, 0, 0, 0, 0, 0, 0, 0, 0], [0, 0, 0, 0, 1, 0, 0, 0, 0, 0, 0, 0, 0, 0, 0, 0]], [[0, 0, 0, 0, 0, 1, 0, 0, 0, 0, 0, 0, 0, 0, 0, 0], [0, 0, 0, 0, 0, 1, 0, 0, 0, 0, 0, 0, 0, 0, 0, 0], [0, 0, 0, 0, 0, 1, 0, 0, 0, 0, 0, 0, 0, 0, 0, 0], [0, 0, 0, 0, 0, 1, 0, 0, 0, 0, 0, 0, 0, 0, 0, 0], [0, 0, 0, 0, 0, 1, 0, 0, 0, 0, 0, 0, 0, 0, 0, 0]], [[0, 0, 0, 0, 0, 0, 1, 0, 0, 0, 0, 0, 0, 0, 0, 0], [0, 0, 0, 0, 0, 0, 1, 0, 0, 0, 0, 0, 0, 0, 0, 0], [0, 0, 0, 0, 0, 0, 1, 0, 0, 0, 0, 0, 0, 0, 0, 0], [0, 0, 0, 0, 0, 0, 1, 0, 0, 0, 0, 0, 0, 0, 0, 0], [0, 0, 0, 0, 0, 0, 1, 0, 0, 0, 0, 0, 0, 0, 0, 0]], [[0, 0, 0, 0, 0, 0, 0, 1, 0, 0, 0, 0, 0, 0, 0, 0], [0, 0, 0, 0, 0, 0, 0, 1, 0, 0, 0, 0, 0, 0, 0, 0], [0, 0, 0, 0, 0, 0, 0, 1, 0, 0, 0, 0, 0, 0, 0, 0], [0, 0, 0, 0, 0, 0, 0, 1, 0, 0, 0, 0, 0, 0, 0, 0], [0, 0, 0, 0, 0, 0, 0, 1, 0, 0, 0, 0, 0, 0, 0, 0]], [[0, 0, 0, 0, 0, 0, 0, 0, 1, 0, 0, 0, 0, 0, 0, 0], [0, 0, 0, 0, 0, 0, 0, 0, 1, 0, 0, 0, 0, 0, 0, 0], [0, 0, 0, 0, 0, 0, 0, 0, 1, 0, 0, 0, 0, 0, 0, 0], [0, 0, 0, 0, 0, 0, 0, 0, 1, 0, 0, 0, 0, 0, 0, 0], [0, 0, 0, 0, 0, 0, 0, 0, 1, 0, 0, 0, 0, 0, 0, 0]], [[0, 0, 0, 0, 0, 0, 0, 0, 0, 1, 0, 0, 0, 0, 0, 0], [0, 0, 0, 0, 0, 0, 0, 0, 0, 1, 0, 0, 0, 0, 0, 0], [0, 0, 0, 0, 0, 0, 0, 0, 0, 1, 0, 0, 0, 0, 0, 0], [0, 0, 0, 0, 0, 0, 0, 0, 0, 1, 0, 0, 0, 0, 0, 0], [0, 0, 0, 0, 0, 0, 0, 0, 0, 1, 0, 0, 0, 0, 0, 0]], [[0, 0, 0, 0, 0, 0, 0, 0, 0, 0, 1, 0, 0, 0, 0, 0], [0, 0, 0, 0, 0, 0, 0, 0, 0, 0, 1, 0, 0, 0, 0, 0], [0, 0, 0, 0, 0, 0, 0, 0, 0, 0, 1, 0, 0, 0, 0, 0], [0, 0, 0, 0, 0, 0, 0, 0, 0, 0, 1, 0, 0, 0, 0, 0], [0, 0, 0, 0, 0, 0, 0, 0, 0, 0, 1, 0, 0, 0, 0, 0]], [[0, 0, 0, 0, 0, 0, 0, 0, 0, 0, 0, 1, 0, 0, 0, 0], [0, 0, 0, 0, 0, 0, 0, 0, 0, 0, 0, 1, 0, 0, 0, 0], [0, 0, 0, 0, 0, 0, 0, 0, 0, 0, 0, 1, 0, 0, 0, 0], [0, 0, 0, 0, 0, 0, 0, 0, 0, 0, 0, 1, 0, 0, 0, 0], [0, 0, 0, 0, 0, 0, 0, 0, 0, 0, 0, 1, 0, 0, 0, 0]], [[0, 0, 0, 0, 0, 0, 0, 0, 0, 0, 0, 0, 1, 0, 0, 0], [0, 0, 0, 0, 0, 0, 0, 0, 0, 0, 0, 0, 1, 0, 0, 0], [0, 0, 0, 0, 0, 0, 0, 0, 0, 0, 0, 0, 1, 0, 0, 0], [0, 0, 0, 0, 0, 0, 0, 0, 0, 0, 0, 0, 1, 0, 0, 0], [0, 0, 0, 0, 0, 0, 0, 0, 0, 0, 0, 0, 1, 0, 0, 0]], [[0, 0, 0, 0, 0, 0, 0, 0, 0, 0, 0, 0, 0, 1, 0, 0], [0, 0, 0, 0, 0, 0, 0, 0, 0, 0, 0, 0, 0, 1, 0, 0], [0, 0, 0, 0, 0, 0, 0, 0, 0, 0, 0, 0, 0, 1, 0, 0], [0, 0, 0, 0, 0, 0, 0, 0, 0, 0, 0, 0, 0, 1, 0, 0], [0, 0, 0, 0, 0, 0, 0, 0, 0, 0, 0, 0, 0, 1, 0, 0]], [[0, 0, 0, 0, 0, 0, 0, 0, 0, 0, 0, 0, 0, 0, 1, 0], [0, 0, 0, 0, 0, 0, 0, 0, 0, 0, 0, 0, 0, 0, 1, 0], [0, 0, 0, 0, 0, 0, 0, 0, 0, 0, 0, 0, 0, 0, 1, 0], [0, 0, 0, 0, 0, 0, 0, 0, 0, 0, 0, 0, 0, 0, 1, 0], [0, 0, 0, 0, 0, 0, 0, 0, 0, 0, 0, 0, 0, 0, 1, 0]], [[0, 0, 0, 0, 0, 0, 0, 0, 0, 0, 0, 0, 0, 0, 0, 1], [0, 0, 0, 0, 0, 0, 0, 0, 0, 0, 0, 0, 0, 0, 0, 1], [0, 0, 0, 0, 0, 0, 0, 0, 0, 0, 0, 0, 0, 0, 0, 1], [0, 0, 0, 0, 0, 0, 0, 0, 0, 0, 0, 0, 0, 0, 0, 1], [0, 0, 0, 0, 0, 0, 0, 0, 0, 0, 0, 0, 0, 0, 0, 1]]], prehc: 0, lambdahc: 1.502, rcut: 5.007, dcut: 0.01, rcut_in: 1.403, dcut_in: 0.01, inner_cutoff_type: distance}
  [1, 1]: {nradmax: 16, lmax: 4, nradbasemax: 16, radbasename: ChebExpCos, radparameters: [1.267], radcoefficients: [[[1, 0, 0, 0, 0, 0, 0, 0, 0, 0, 0, 0, 0, 0, 0, 0], [1, 0, 0, 0, 0, 0, 0, 0, 0, 0, 0, 0, 0, 0, 0, 0], [1, 0, 0, 0, 0, 0, 0, 0, 0, 0, 0, 0, 0, 0, 0, 0], [1, 0, 0, 0, 0, 0, 0, 0, 0, 0, 0, 0, 0, 0, 0, 0], [1, 0, 0, 0, 0, 0, 0, 0, 0, 0, 0, 0, 0, 0, 0, 0]], [[0, 1, 0, 0, 0, 0, 0, 0, 0, 0, 0, 0, 0, 0, 0, 0], [0, 1, 0, 0, 0, 0, 0, 0, 0, 0, 0, 0, 0, 0, 0, 0], [0, 1, 0, 0, 0, 0, 0, 0, 0, 0, 0, 0, 0, 0, 0, 0], [0, 1, 0, 0, 0, 0, 0, 0, 0, 0, 0, 0, 0, 0, 0, 0], [0, 1, 0, 0, 0, 0, 0, 0, 0, 0, 0, 0, 0, 0, 0, 0]], [[0, 0, 1, 0, 0, 0, 0, 0, 0, 0, 0, 0, 0, 0, 0, 0], [0, 0, 1, 0, 0, 0, 0, 0, 0, 0, 0, 0, 0, 0, 0, 0], [0, 0, 1, 0, 0, 0, 0, 0, 0, 0, 0, 0, 0, 0, 0, 0], [0, 0, 1, 0, 0, 0, 0, 0, 0, 0, 0, 0, 0, 0, 0, 0], [0, 0, 1, 0, 0, 0, 0, 0, 0, 0, 0, 0, 0, 0, 0, 0]], [[0, 0, 0, 1, 0, 0, 0, 0, 0, 0, 0, 0, 0, 0, 0, 0], [0, 0, 0, 1, 0, 0, 0, 0, 0, 0, 0, 0, 0, 0, 0, 0], [0, 0, 0, 1, 0, 0, 0, 0, 0, 0, 0, 0, 0, 0, 0, 0], [0, 0, 0, 1, 0, 0, 0, 0, 0, 0, 0, 0, 0, 0, 0, 0], [0, 0, 0, 1, 0, 0, 0, 0, 0, 0, 0, 0, 0, 0, 0, 0]], [[0, 0, 0, 0, 1, 0, 0, 0, 0, 0, 0, 0, 0, 0, 0, 0], [0, 0, 0, 0, 1, 0, 0, 0, 0, 0, 0, 0, 0, 0, 0, 0], [0, 0, 0, 0, 1, 0, 0, 0, 0, 0, 0, 0, 0, 0, 0, 0], [0, 0, 0, 0, 1, 0, 0, 0, 0, 0, 0, 0, 0, 0, 0, 0], [0, 0, 0, 0, 1, 0, 0, 0, 0, 0, 0, 0, 0, 0, 0, 0]], [[0, 0, 0, 0, 0, 1, 0, 0, 0, 0, 0, 0, 0, 0, 0, 0], [0, 0, 0, 0, 0, 1, 0, 0, 0, 0, 0, 0, 0, 0, 0, 0], [0, 0, 0, 0, 0, 1, 0, 0, 0, 0, 0, 0, 0, 0, 0, 0], [0, 0, 0, 0, 0, 1, 0, 0, 0, 0, 0, 0, 0, 0, 0, 0], [0, 0, 0, 0, 0, 1, 0, 0, 0, 0, 0, 0, 0, 0, 0, 0]], [[0, 0, 0, 0, 0, 0, 1, 0, 0, 0, 0, 0, 0, 0, 0, 0], [0, 0, 0, 0, 0, 0, 1, 0, 0, 0, 0, 0, 0, 0, 0, 0], [0, 0, 0, 0, 0, 0, 1, 0, 0, 0, 0, 0, 0, 0, 0, 0], [0, 0, 0, 0, 0, 0, 1, 0, 0, 0, 0, 0, 0, 0, 0, 0], [0, 0, 0, 0, 0, 0, 1, 0, 0, 0, 0, 0, 0, 0, 0, 0]], [[0, 0, 0, 0, 0, 0, 0, 1, 0, 0, 0, 0, 0, 0, 0, 0], [0, 0, 0, 0, 0, 0, 0, 1, 0, 0, 0, 0, 0, 0, 0, 0], [0, 0, 0, 0, 0, 0, 0, 1, 0, 0, 0, 0, 0, 0, 0, 0], [0, 0, 0, 0, 0, 0, 0, 1, 0, 0, 0, 0, 0, 0, 0, 0], [0, 0, 0, 0, 0, 0, 0, 1, 0, 0, 0, 0, 0, 0, 0, 0]], [[0, 0, 0, 0, 0, 0, 0, 0, 1, 0, 0, 0, 0, 0, 0, 0], [0, 0, 0, 0, 0, 0, 0, 0, 1, 0, 0, 0, 0, 0, 0, 0], [0, 0, 0, 0, 0, 0, 0, 0, 1, 0, 0, 0, 0, 0, 0, 0], [0, 0, 0, 0, 0, 0, 0, 0, 1, 0, 0, 0, 0, 0, 0, 0], [0, 0, 0, 0, 0, 0, 0, 0, 1, 0, 0, 0, 0, 0, 0, 0]], [[0, 0, 0, 0, 0, 0, 0, 0, 0, 1, 0, 0, 0, 0, 0, 0], [0, 0, 0, 0, 0, 0, 0, 0, 0, 1, 0, 0, 0, 0, 0, 0], [0, 0, 0, 0, 0, 0, 0, 0, 0, 1, 0, 0, 0, 0, 0, 0], [0, 0, 0, 0, 0, 0, 0, 0, 0, 1, 0, 0, 0, 0, 0, 0], [0, 0, 0, 0, 0, 0, 0, 0, 0, 1, 0, 0, 0, 0, 0, 0]], [[0, 0, 0, 0, 0, 0, 0, 0, 0, 0, 1, 0, 0, 0, 0, 0], [0, 0, 0, 0, 0, 0, 0, 0, 0, 0, 1, 0, 0, 0, 0, 0], [0, 0, 0, 0, 0, 0, 0, 0, 0, 0, 1, 0, 0, 0, 0, 0], [0, 0, 0, 0, 0, 0, 0, 0, 0, 0, 1, 0, 0, 0, 0, 0], [0, 0, 0, 0, 0, 0, 0, 0, 0, 0, 1, 0, 0, 0, 0, 0]], [[0, 0, 0, 0, 0, 0, 0, 0, 0, 0, 0, 1, 0, 0, 0, 0], [0, 0, 0, 0, 0, 0, 0, 0, 0, 0, 0, 1, 0, 0, 0, 0], [0, 0, 0, 0, 0, 0, 0, 0, 0, 0, 0, 1, 0, 0, 0, 0], [0, 0, 0, 0, 0, 0, 0, 0, 0, 0, 0, 1, 0, 0, 0, 0], [0, 0, 0, 0, 0, 0, 0, 0, 0, 0, 0, 1, 0, 0, 0, 0]], [[0, 0, 0, 0, 0, 0, 0, 0, 0, 0, 0, 0, 1, 0, 0, 0], [0, 0, 0, 0, 0, 0, 0, 0, 0, 0, 0, 0, 1, 0, 0, 0], [0, 0, 0, 0, 0, 0, 0, 0, 0, 0, 0, 0, 1, 0, 0, 0], [0, 0, 0, 0, 0, 0, 0, 0, 0, 0, 0, 0, 1, 0, 0, 0], [0, 0, 0, 0, 0, 0, 0, 0, 0, 0, 0, 0, 1, 0, 0, 0]], [[0, 0, 0, 0, 0, 0, 0, 0, 0, 0, 0, 0, 0, 1, 0, 0], [0, 0, 0, 0, 0, 0, 0, 0, 0, 0, 0, 0, 0, 1, 0, 0], [0, 0, 0, 0, 0, 0, 0, 0, 0, 0, 0, 0, 0, 1, 0, 0], [0, 0, 0, 0, 0, 0, 0, 0, 0, 0, 0, 0, 0, 1, 0, 0], [0, 0, 0, 0, 0, 0, 0, 0, 0, 0, 0, 0, 0, 1, 0, 0]], [[0, 0, 0, 0, 0, 0, 0, 0, 0, 0, 0, 0, 0, 0, 1, 0], [0, 0, 0, 0, 0, 0, 0, 0, 0, 0, 0, 0, 0, 0, 1, 0], [0, 0, 0, 0, 0, 0, 0, 0, 0, 0, 0, 0, 0, 0, 1, 0], [0, 0, 0, 0, 0, 0, 0, 0, 0, 0, 0, 0, 0, 0, 1, 0], [0, 0, 0, 0, 0, 0, 0, 0, 0, 0, 0, 0, 0, 0, 1, 0]], [[0, 0, 0, 0, 0, 0, 0, 0, 0, 0, 0, 0, 0, 0, 0, 1], [0, 0, 0, 0, 0, 0, 0, 0, 0, 0, 0, 0, 0, 0, 0, 1], [0, 0, 0, 0, 0, 0, 0, 0, 0, 0, 0, 0, 0, 0, 0, 1], [0, 0, 0, 0, 0, 0, 0, 0, 0, 0, 0, 0, 0, 0, 0, 1], [0, 0, 0, 0, 0, 0, 0, 0, 0, 0, 0, 0, 0, 0, 0, 1]]], prehc: 0, lambdahc: 1.267, rcut: 4.224, dcut: 0.01, rcut_in: 1.100, dcut_in: 0.01, inner_cutoff_type: distance}
functions:
  0:
    - {mu0: 0, rank: 1, ndensity: 1, num_ms_combs: 1, mus: [0], ns: [1], ls: [0], ms_combs: [0], ctildes: [-2.384804985970277]}
    - {mu0: 0, rank: 1, ndensity: 1, num_ms_combs: 1, mus: [1], ns: [1], ls: [0], ms_combs: [0], ctildes: [0.9207835222223366]}
    - {mu0: 0, rank: 1, ndensity: 1, num_ms_combs: 1, mus: [0], ns: [2], ls: [0], ms_combs: [0], ctildes: [4.381973081786782]}
    - {mu0: 0, rank: 1, ndensity: 1, num_ms_combs: 1, mus: [1], ns: [2], ls: [0], ms_combs: [0], ctildes: [0.14224859425712566]}
    - {mu0: 0, rank: 1, ndensity: 1, num_ms_combs: 1, mus: [0], ns: [3], ls: [0], ms_combs: [0], ctildes: [-0.9174440273927758]}
    - {mu0: 0, rank: 1, ndensity: 1, num_ms_combs: 1, mus: [1], ns: [3], ls: [0], ms_combs: [0], ctildes: [1.5385670669256797]}
    - {mu0: 0, rank: 1, ndensity: 1, num_ms_combs: 1, mus: [0], ns: [4], ls: [0], ms_combs: [0], ctildes: [2.47003103330826]}
    - {mu0: 0, rank: 1, ndensity: 1, num_ms_combs: 1, mus: [1], ns: [4], ls: [0], ms_combs: [0], ctildes: [-3.514801376772084]}
    - {mu0: 0, rank: 1, ndensity: 1, num_ms_combs: 1, mus: [0], ns: [5], ls: [0], ms_combs: [0], ctildes: [1.0734474932141893]}
    - {mu0: 0, rank: 1, ndensity: 1, num_ms_combs: 1, mus: [1], ns: [5], ls: [0], ms_combs: [0], ctildes: [1.5607664011135967]}
    - {mu0: 0, rank: 1, ndensity: 1, num_ms_combs: 1, mus: [0], ns: [6], ls: [0], ms_combs: [0], ctildes: [-0.6961879904715715]}
    - {mu0: 0, rank: 1, ndensity: 1, num_ms_combs: 1, mus: [1], ns: [6], ls: [0], ms_combs: [0], ctildes: [-0.30389103495508607]}
    - {mu0: 0, rank: 1, ndensity: 1, num_ms_combs: 1, mus: [0], ns: [7], ls: [0], ms_combs: [0], ctildes: [0.4512504417089076]}
    - {mu0: 0, rank: 1, ndensity: 1, num_ms_combs: 1, mus: [1], ns: [7], ls: [0], ms_combs: [0], ctildes: [0.35238893487849055]}
    - {mu0: 0, rank: 1, ndensity: 1, num_ms_combs: 1, mus: [0], ns: [8], ls: [0], ms_combs: [0], ctildes: [-0.3634601882235984]}
    - {mu0: 0, rank: 1, ndensity: 1, num_ms_combs: 1, mus: [1], ns: [8], ls: [0], ms_combs: [0], ctildes: [0.2344172172912522]}
    - {mu0: 0, rank: 1, ndensity: 1, num_ms_combs: 1, mus: [0], ns: [9], ls: [0], ms_combs: [0], ctildes: [-1.2298642577858345]}
    - {mu0: 0, rank: 1, ndensity: 1, num_ms_combs: 1, mus: [1], ns: [9], ls: [0], ms_combs: [0], ctildes: [-1.5728173331722246]}
    - {mu0: 0, rank: 1, ndensity: 1, num_ms_combs: 1, mus: [0], ns: [10], ls: [0], ms_combs: [0], ctildes: [0.4034153992715801]}
    - {mu0: 0, rank: 1, ndensity: 1, num_ms_combs: 1, mus: [1], ns: [10], ls: [0], ms_combs: [0], ctildes: [0.4858053937873592]}
    - {mu0: 0, rank: 1, ndensity: 1, num_ms_combs: 1, mus: [0], ns: [11], ls: [0], ms_combs: [0], ctildes: [0.6815669865304699]}
    - {mu0: 0, rank: 1, ndensity: 1, num_ms_combs: 1, mus: [1], ns: [11], ls: [0], ms_combs: [0], ctildes: [0.8644428653490195]}
    - {mu0: 0, rank: 1, ndensity: 1, num_ms_combs: 1, mus: [0], ns: [12], ls: [0], ms_combs: [0], ctildes: [-0.37237304329437393]}
    - {mu0: 0, rank: 1, ndensity: 1, num_ms_combs: 1, mus: [1], ns: [12], ls: [0], ms_combs: [0], ctildes: [-0.6528964797425942]}
    - {mu0: 0, rank: 1, ndensity: 1, num_ms_combs: 1, mus: [0], ns: [13], ls: [0], ms_combs: [0], ctildes: [-0.8125027479945857]}
    - {mu0: 0, rank: 1, ndensity: 1, num_ms_combs: 1, mus: [1], ns: [13], ls: [0], ms_combs: [0], ctildes: [-0.41486656890447193]}
    - {mu0: 0, rank: 1, ndensity: 1, num_ms_combs: 1, mus: [0], ns: [14], ls: [0], ms_combs: [0], ctildes: [0.0007850266076729895]}
    - {mu0: 0, rank: 1, ndensity: 1, num_ms_combs: 1, mus: [1], ns: [14], ls: [0], ms_combs: [0], ctildes: [0.8344073331844086]}
    - {mu0: 0, rank: 1, ndensity: 1, num_ms_combs: 1, mus: [0], ns: [15], ls: [0], ms_combs: [0], ctildes: [0.47062045258098806]}
    - {mu0: 0, rank: 1, ndensity: 1, num_ms_combs: 1, mus: [1], ns: [15], ls: [0], ms_combs: [0], ctildes: [-0.4809026936236478]}
    - {mu0: 0, rank: 1, ndensity: 1, num_ms_combs: 1, mus: [0], ns: [16], ls: [0], ms_combs: [0], ctildes: [-0.4411805780164286]}
    - {mu0: 0, rank: 1, ndensity: 1, num_ms_combs: 1, mus: [1], ns: [16], ls: [0], ms_combs: [0], ctildes: [0.06585425655566723]}
    - {mu0: 0, rank: 2, ndensity: 1, num_ms_combs: 1, mus: [0, 0], ns: [1, 1], ls: [0, 0], ms_combs: [0, 0], ctildes: [0.3738376069395599]}
    - {mu0: 0, rank: 2, ndensity: 1, num_ms_combs: 1, mus: [0, 1], ns: [1, 1], ls: [0, 0], ms_combs: [0, 0], ctildes: [0.3075147425515752]}
    - {mu0: 0, rank: 2, ndensity: 1, num_ms_combs: 1, mus: [1, 1], ns: [1, 1], ls: [0, 0], ms_combs: [0, 0], ctildes: [-1.2439536096105712]}
    - {mu0: 0, rank: 2, ndensity: 1, num_ms_combs: 1, mus: [0, 0], ns: [1, 2], ls: [0, 0], ms_combs: [0, 0], ctildes: [1.6680431265540392]}
    - {mu0: 0, rank: 2, ndensity: 1, num_ms_combs: 1, mus: [0, 1], ns: [1, 2], ls: [0, 0], ms_combs: [0, 0], ctildes: [1.4485748345377942]}
    - {mu0: 0, rank: 2, ndensity: 1, num_ms_combs: 1, mus: [1, 1], ns: [1, 2], ls: [0, 0], ms_combs: [0, 0], ctildes: [0.29121500263363487]}
    - {mu0: 0, rank: 2, ndensity: 1, num_ms_combs: 1, mus: [0, 0], ns: [1, 3], ls: [0, 0], ms_combs: [0, 0], ctildes: [-0.5735730448850518]}
    - {mu0: 0, rank: 2, ndensity: 1, num_ms_combs: 1, mus: [0, 1], ns: [1, 3], ls: [0, 0], ms_combs: [0, 0], ctildes: [-2.086122640556823]}
    - {mu0: 0, rank: 2, ndensity: 1, num_ms_combs: 1, mus: [1, 1], ns: [1, 3], ls: [0, 0], ms_combs: [0, 0], ctildes: [-1.100696294915906]}
    - {mu0: 0, rank: 2, ndensity: 1, num_ms_combs: 1, mus: [0, 0], ns: [1, 4], ls: [0, 0], ms_combs: [0, 0], ctildes: [-0.98784502169201]}
    - {mu0: 0, rank: 2, ndensity: 1, num_ms_combs: 1, mus: [0, 1], ns: [1, 4], ls: [0, 0], ms_combs: [0, 0], ctildes: [1.3879822090921152]}
    - {mu0: 0, rank: 2, ndensity: 1, num_ms_combs: 1, mus: [1, 1], ns: [1, 4], ls: [0, 0], ms_combs: [0, 0], ctildes: [1.2318048306042328]}
    - {mu0: 0, rank: 2, ndensity: 1, num_ms_combs: 1, mus: [0, 1], ns: [2, 1], ls: [0, 0], ms_combs: [0, 0], ctildes: [0.11852112333303921]}
    - {mu0: 0, rank: 2, ndensity: 1, num_ms_combs: 1, mus: [0, 0], ns: [2, 2], ls: [0, 0], ms_combs: [0, 0], ctildes: [-0.5628273556146723]}
    - {mu0: 0, rank: 2, ndensity: 1, num_ms_combs: 1, mus: [0, 1], ns: [2, 2], ls: [0, 0], ms_combs: [0, 0], ctildes: [0.8169065595820939]}
    - {mu0: 0, rank: 2, ndensity: 1, num_ms_combs: 1, mus: [1, 1], ns: [2, 2], ls: [0, 0], ms_combs: [0, 0], ctildes: [3.035456867587527]}
    - {mu0: 0, rank: 2, ndensity: 1, num_ms_combs: 1, mus: [0, 0], ns: [2, 3], ls: [0, 0], ms_combs: [0, 0], ctildes: [0.01590769230870137]}
    - {mu0: 0, rank: 2, ndensity: 1, num_ms_combs: 1, mus: [0, 1], ns: [2, 3], ls: [0, 0], ms_combs: [0, 0], ctildes: [0.9306912101783382]}
    - {mu0: 0, rank: 2, ndensity: 1, num_ms_combs: 1, mus: [1, 1], ns: [2, 3], ls: [0, 0], ms_combs: [0, 0], ctildes: [2.9356814195598417]}
    - {mu0: 0, rank: 2, ndensity: 1, num_ms_combs: 1, mus: [0, 0], ns: [2, 4], ls: [0, 0], ms_combs: [0, 0], ctildes: [1.5350233615299658]}
    - {mu0: 0, rank: 2, ndensity: 1, num_ms_combs: 1, mus: [0, 1], ns: [2, 4], ls: [0, 0], ms_combs: [0, 0], ctildes: [-0.5397213277838091]}
    - {mu0: 0, rank: 2, ndensity: 1, num_ms_combs: 1, mus: [1, 1], ns: [2, 4], ls: [0, 0], ms_combs: [0, 0], ctildes: [1.2159416973463522]}
    - {mu0: 0, rank: 2, ndensity: 1, num_ms_combs: 1, mus: [0, 1], ns: [3, 1], ls: [0, 0], ms_combs: [0, 0], ctildes: [0.13709466194632114]}
    - {mu0: 0, rank: 2, ndensity: 1, num_ms_combs: 1, mus: [0, 1], ns: [3, 2], ls: [0, 0], ms_combs: [0, 0], ctildes: [0.07593119495686551]}
    - {mu0: 0, rank: 2, ndensity: 1, num_ms_combs: 1, mus: [0, 0], ns: [3, 3], ls: [0, 0], ms_combs: [0, 0], ctildes: [0.7064002292936493]}
    - {mu0: 0, rank: 2, ndensity: 1, num_ms_combs: 1, mus: [0, 1], ns: [3, 3], ls: [0, 0], ms_combs: [0, 0], ctildes: [-2.0054663077262376]}
    - {mu0: 0, rank: 2, ndensity: 1, num_ms_combs: 1, mus: [1, 1], ns: [3, 3], ls: [0, 0], ms_combs: [0, 0], ctildes: [-0.47709831726206176]}
    - {mu0: 0, rank: 2, ndensity: 1, num_ms_combs: 1, mus: [0, 0], ns: [3, 4], ls: [0, 0], ms_combs: [0, 0], ctildes: [-0.173129280201465]}
    - {mu0: 0, rank: 2, ndensity: 1, num_ms_combs: 1, mus: [0, 1], ns: [3, 4], ls: [0, 0], ms_combs: [0, 0], ctildes: [-0.9938124926302407]}
    - {mu0: 0, rank: 2, ndensity: 1, num_ms_combs: 1, mus: [1, 1], ns: [3, 4], ls: [0, 0], ms_combs: [0, 0], ctildes: [0.6238044838755741]}
    - {mu0: 0, rank: 2, ndensity: 1, num_ms_combs: 1, mus: [0, 1], ns: [4, 1], ls: [0, 0], ms_combs: [0, 0], ctildes: [-0.1949408178033991]}
    - {mu0: 0, rank: 2, ndensity: 1, num_ms_combs: 1, mus: [0, 1], ns: [4, 2], ls: [0, 0], ms_combs: [0, 0], ctildes: [2.1123106177656155]}
    - {mu0: 0, rank: 2, ndensity: 1, num_ms_combs: 1, mus: [0, 1], ns: [4, 3], ls: [0, 0], ms_combs: [0, 0], ctildes: [-0.12706632271329]}
    - {mu0: 0, rank: 2, ndensity: 1, num_ms_combs: 1, mus: [0, 0], ns: [4, 4], ls: [0, 0], ms_combs: [0, 0], ctildes: [-0.06877381914637226]}
    - {mu0: 0, rank: 2, ndensity: 1, num_ms_combs: 1, mus: [0, 1], ns: [4, 4], ls: [0, 0], ms_combs: [0, 0], ctildes: [0.3233237094791548]}
    - {mu0: 0, rank: 2, ndensity: 1, num_ms_combs: 1, mus: [1, 1], ns: [4, 4], ls: [0, 0], ms_combs: [0, 0], ctildes: [-1.4766796308249468]}
    - {mu0: 0, rank: 2, ndensity: 1, num_ms_combs: 3, mus: [0, 0], ns: [1, 1], ls: [1, 1], ms_combs: [-1, 1, 0, 0, 1, -1], ctildes: [0.12071197963908274, -0.12071197963908274, 0.12071197963908274]}
    - {mu0: 0, rank: 2, ndensity: 1, num_ms_combs: 3, mus: [0, 1], ns: [1, 1], ls: [1, 1], ms_combs: [-1, 1, 0, 0, 1, -1], ctildes: [0.8815083155973746, -0.8815083155973746, 0.8815083155973746]}
    - {mu0: 0, rank: 2, ndensity: 1, num_ms_combs: 3, mus: [1, 1], ns: [1, 1], ls: [1, 1], ms_combs: [-1, 1, 0, 0, 1, -1], ctildes: [-0.16161166319469678, 0.16161166319469678, -0.16161166319469678]}
    - {mu0: 0, rank: 2, ndensity: 1, num_ms_combs: 3, mus: [0, 0], ns: [1, 2], ls: [1, 1], ms_combs: [-1, 1, 0, 0, 1, -1], ctildes: [-0.9188375051698726, 0.9188375051698726, -0.9188375051698726]}
    - {mu0: 0, rank: 2, ndensity: 1, num_ms_combs: 3, mus: [0, 1], ns: [1, 2], ls: [1, 1], ms_combs: [-1, 1, 0, 0, 1, -1], ctildes: [-0.7348321231207684, 0.7348321231207684, -0.7348321231207684]}
    - {mu0: 0, rank: 2, ndensity: 1, num_ms_combs: 3, mus: [1, 1], ns: [1, 2], ls: [1, 1], ms_combs: [-1, 1, 0, 0, 1, -1], ctildes: [-0.6390294781414045, 0.6390294781414045, -0.6390294781414045]}
    - {mu0: 0, rank: 2, ndensity: 1, num_ms_combs: 3, mus: [0, 0], ns: [1, 3], ls: [1, 1], ms_combs: [-1, 1, 0, 0, 1, -1], ctildes: [-0.3755356830436119, 0.3755356830436119, -0.3755356830436119]}
    - {mu0: 0, rank: 2, ndensity: 1, num_ms_combs: 3, mus: [0, 1], ns: [1, 3], ls: [1, 1], ms_combs: [-1, 1, 0, 0, 1, -1], ctildes: [-0.22546954405251549, 0.22546954405251549, -0.22546954405251549]}
    - {mu0: 0, rank: 2, ndensity: 1, num_ms_combs: 3, mus: [1, 1], ns: [1, 3], ls: [1, 1], ms_combs: [-1, 1, 0, 0, 1, -1], ctildes: [-0.987765114272597, 0.987765114272597, -0.987765114272597]}
    - {mu0: 0, rank: 2, ndensity: 1, num_ms_combs: 3, mus: [0, 0], ns: [1, 4], ls: [1, 1], ms_combs: [-1, 1, 0, 0, 1, -1], ctildes: [-0.31009805167675275, 0.31009805167675275, -0.31009805167675275]}
    - {mu0: 0, rank: 2, ndensity: 1, num_ms_combs: 3, mus: [0, 1], ns: [1, 4], ls: [1, 1], ms_combs: [-1, 1, 0, 0, 1, -1], ctildes: [0.44758388988088815, -0.44758388988088815, 0.44758388988088815]}
    - {mu0: 0, rank: 2, ndensity: 1, num_ms_combs: 3, mus: [1, 1], ns: [1, 4], ls: [1, 1], ms_combs: [-1, 1, 0, 0, 1, -1], ctildes: [0.9678754424035926, -0.9678754424035926, 0.9678754424035926]}
    - {mu0: 0, rank: 2, ndensity: 1, num_ms_combs: 3, mus: [0, 1], ns: [2, 1], ls: [1, 1], ms_combs: [-1, 1, 0, 0, 1, -1], ctildes: [-0.6485413362109227, 0.6485413362109227, -0.6485413362109227]}
    - {mu0: 0, rank: 2, ndensity: 1, num_ms_combs: 3, mus: [0, 0], ns: [2, 2], ls: [1, 1], ms_combs: [-1, 1, 0, 0, 1, -1], ctildes: [-0.5129501219801844, 0.5129501219801844, -0.5129501219801844]}
    - {mu0: 0, rank: 2, ndensity: 1, num_ms_combs: 3, mus: [0, 1], ns: [2, 2], ls: [1, 1], ms_combs: [-1, 1, 0, 0, 1, -1], ctildes: [-0.02625538043686244, 0.02625538043686244, -0.02625538043686244]}
    - {mu0: 0, rank: 2, ndensity: 1, num_ms_combs: 3, mus: [1, 1], ns: [2, 2], ls: [1, 1], ms_combs: [-1, 1, 0, 0, 1, -1], ctildes: [0.4834945350144199, -0.4834945350144199, 0.4834945350144199]}
    - {mu0: 0, rank: 2, ndensity: 1, num_ms_combs: 3, mus: [0, 0], ns: [2, 3], ls: [1, 1], ms_combs: [-1, 1, 0, 0, 1, -1], ctildes: [-0.4602989902250347, 0.4602989902250347, -0.4602989902250347]}
    - {mu0: 0, rank: 2, ndensity: 1, num_ms_combs: 3, mus: [0, 1], ns: [2, 3], ls: [1, 1], ms_combs: [-1, 1, 0, 0, 1, -1], ctildes: [0.49185298630883606, -0.49185298630883606, 0.49185298630883606]}
    - {mu0: 0, rank: 2, ndensity: 1, num_ms_combs: 3, mus: [1, 1], ns: [2, 3], ls: [1, 1], ms_combs: [-1, 1, 0, 0, 1, -1], ctildes: [0.589529250423351, -0.589529250423351, 0.589529250423351]}
    - {mu0: 0, rank: 2, ndensity: 1, num_ms_combs: 3, mus: [0, 0], ns: [2, 4], ls: [1, 1], ms_combs: [-1, 1, 0, 0, 1, -1], ctildes: [-0.8788148665654759, 0.8788148665654759, -0.8788148665654759]}
    - {mu0: 0, rank: 2, ndensity: 1, num_ms_combs: 3, mus: [0, 1], ns: [2, 4], ls: [1, 1], ms_combs: [-1, 1, 0, 0, 1, -1], ctildes: [0.11555285069095494, -0.11555285069095494, 0.11555285069095494]}
    - {mu0: 0, rank: 2, ndensity: 1, num_ms_combs: 3, mus: [1, 1], ns: [2, 4], ls: [1, 1], ms_combs: [-1, 1, 0, 0, 1, -1], ctildes: [1.1931393032715938, -1.1931393032715938, 1.1931393032715938]}
    - {mu0: 0, rank: 2, ndensity: 1, num_ms_combs: 3, mus: [0, 1], ns: [3, 1], ls: [1, 1], ms_combs: [-1, 1, 0, 0, 1, -1], ctildes: [-0.7337327108083636, 0.7337327108083636, -0.7337327108083636]}
    - {mu0: 0, rank: 2, ndensity: 1, num_ms_combs: 3, mus: [0, 1], ns: [3, 2], ls: [1, 1], ms_combs: [-1, 1, 0, 0, 1, -1], ctildes: [-0.5217211136430666, 0.5217211136430666, -0.5217211136430666]}
    - {mu0: 0, rank: 2, ndensity: 1, num_ms_combs: 3, mus: [0, 0], ns: [3, 3], ls: [1, 1], ms_combs: [-1, 1, 0, 0, 1, -1], ctildes: [1.1923235646098476, -1.1923235646098476, 1.1923235646098476]}
    - {mu0: 0, rank: 2, ndensity: 1, num_ms_combs: 3, mus: [0, 1], ns: [3, 3], ls: [1, 1], ms_combs: [-1, 1, 0, 0, 1, -1], ctildes: [0.10430847146487435, -0.10430847146487435, 0.10430847146487435]}
    - {mu0: 0, rank: 2, ndensity: 1, num_ms_combs: 3, mus: [1, 1], ns: [3, 3], ls: [1, 1], ms_combs: [-1, 1, 0, 0, 1, -1], ctildes: [-0.3707509931948089, 0.3707509931948089, -0.3707509931948089]}
    - {mu0: 0, rank: 2, ndensity: 1, num_ms_combs: 3, mus: [0, 0], ns: [3, 4], ls: [1, 1], ms_combs: [-1, 1, 0, 0, 1, -1], ctildes: [0.19910145456541964, -0.19910145456541964, 0.19910145456541964]}
    - {mu0: 0, rank: 2, ndensity: 1, num_ms_combs: 3, mus: [0, 1], ns: [3, 4], ls: [1, 1], ms_combs: [-1, 1, 0, 0, 1, -1], ctildes: [0.21740516452847053, -0.21740516452847053, 0.21740516452847053]}
    - {mu0: 0, rank: 2, ndensity: 1, num_ms_combs: 3, mus: [1, 1], ns: [3, 4], ls: [1, 1], ms_combs: [-1, 1, 0, 0, 1, -1], ctildes: [1.1307467599537804, -1.1307467599537804, 1.1307467599537804]}
    - {mu0: 0, rank: 2, ndensity: 1, num_ms_combs: 3, mus: [0, 1], ns: [4, 1], ls: [1, 1], ms_combs: [-1, 1, 0, 0, 1, -1], ctildes: [0.722948000741485, -0.722948000741485, 0.722948000741485]}
    - {mu0: 0, rank: 2, ndensity: 1, num_ms_combs: 3, mus: [0, 1], ns: [4, 2], ls: [1, 1], ms_combs: [-1, 1, 0, 0, 1, -1], ctildes: [-0.11428784535586807, 0.11428784535586807, -0.11428784535586807]}
    - {mu0: 0, rank: 2, ndensity: 1, num_ms_combs: 3, mus: [0, 1], ns: [4, 3], ls: [1, 1], ms_combs: [-1, 1, 0, 0, 1, -1], ctildes: [0.19800169560789097, -0.19800169560789097, 0.19800169560789097]}
    - {mu0: 0, rank: 2, ndensity: 1, num_ms_combs: 3, mus: [0, 0], ns: [4, 4], ls: [1, 1], ms_combs: [-1, 1, 0, 0, 1, -1], ctildes: [0.10482110853989055, -0.10482110853989055, 0.10482110853989055]}
    - {mu0: 0, rank: 2, ndensity: 1, num_ms_combs: 3, mus: [0, 1], ns: [4, 4], ls: [1, 1], ms_combs: [-1, 1, 0, 0, 1, -1], ctildes: [-0.8643131215799358, 0.8643131215799358, -0.8643131215799358]}
    - {mu0: 0, rank: 2, ndensity: 1, num_ms_combs: 3, mus: [1, 1], ns: [4, 4], ls: [1, 1], ms_combs: [-1, 1, 0, 0, 1, -1], ctildes: [-0.8787960815145652, 0.8787960815145652, -0.8787960815145652]}
    - {mu0: 0, rank: 2, ndensity: 1, num_ms_combs: 5, mus: [0, 0], ns: [1, 1], ls: [2, 2], ms_combs: [-2, 2, -1, 1, 0, 0, 1, -1, 2, -2], ctildes: [0.2219428831335615, -0.2219428831335615, 0.2219428831335615, -0.2219428831335615, 0.2219428831335615]}
    - {mu0: 0, rank: 2, ndensity: 1, num_ms_combs: 5, mus: [0, 1], ns: [1, 1], ls: [2, 2], ms_combs: [-2, 2, -1, 1, 0, 0, 1, -1, 2, -2], ctildes: [-0.17969368777235722, 0.17969368777235722, -0.17969368777235722, 0.17969368777235722, -0.17969368777235722]}
    - {mu0: 0, rank: 2, ndensity: 1, num_ms_combs: 5, mus: [1, 1], ns: [1, 1], ls: [2, 2], ms_combs: [-2, 2, -1, 1, 0, 0, 1, -1, 2, -2], ctildes: [0.39399514300359434, -0.39399514300359434, 0.39399514300359434, -0.39399514300359434, 0.39399514300359434]}
    - {mu0: 0, rank: 2, ndensity: 1, num_ms_combs: 5, mus: [0, 0], ns: [1, 2], ls: [2, 2], ms_combs: [-2, 2, -1, 1, 0, 0, 1, -1, 2, -2], ctildes: [1.7032641893648401, -1.7032641893648401, 1.7032641893648401, -1.7032641893648401, 1.7032641893648401]}
    - {mu0: 0, rank: 2, ndensity: 1, num_ms_combs: 5, mus: [0, 1], ns: [1, 2], ls: [2, 2], ms_combs: [-2, 2, -1, 1, 0, 0, 1, -1, 2, -2], ctildes: [1.158955248479452, -1.158955248479452, 1.158955248479452, -1.158955248479452, 1.158955248479452]}
    - {mu0: 0, rank: 2, ndensity: 1, num_ms_combs: 5, mus: [1, 1], ns: [1, 2], ls: [2, 2], ms_combs: [-2, 2, -1, 1, 0, 0, 1, -1, 2, -2], ctildes: [-1.3663970448604008, 1.3663970448604008, -1.3663970448604008, 1.3663970448604008, -1.3663970448604008]}
    - {mu0: 0, rank: 2, ndensity: 1, num_ms_combs: 5, mus: [0, 0], ns: [1, 3], ls: [2, 2], ms_combs: [-2, 2, -1, 1, 0, 0, 1, -1, 2, -2], ctildes: [-0.5195703695613181, 0.5195703695613181, -0.5195703695613181, 0.5195703695613181, -0.5195703695613181]}
    - {mu0: 0, rank: 2, ndensity: 1, num_ms_combs: 5, mus: [0, 1], ns: [1, 3], ls: [2, 2], ms_combs: [-2, 2, -1, 1, 0, 0, 1, -1, 2, -2], ctildes: [-0.8466273253790325, 0.8466273253790325, -0.8466273253790325, 0.8466273253790325, -0.8466273253790325]}
    - {mu0: 0, rank: 2, ndensity: 1, num_ms_combs: 5, mus: [1, 1], ns: [1, 3], ls: [2, 2], ms_combs: [-2, 2, -1, 1, 0, 0, 1, -1, 2, -2], ctildes: [0.3936530212882492, -0.3936530212882492, 0.3936530212882492, -0.3936530212882492, 0.3936530212882492]}
    - {mu0: 0, rank: 2, ndensity: 1, num_ms_combs: 5, mus: [0, 0], ns: [1, 4], ls: [2, 2], ms_combs: [-2, 2, -1, 1, 0, 0, 1, -1, 2, -2], ctildes: [-0.009647867577974574, 0.009647867577974574, -0.009647867577974574, 0.009647867577974574, -0.009647867577974574]}
    - {mu0: 0, rank: 2, ndensity: 1, num_ms_combs: 5, mus: [0, 1], ns: [1, 4], ls: [2, 2], ms_combs: [-2, 2, -1, 1, 0, 0, 1, -1, 2, -2], ctildes: [0.04683188620814037, -0.04683188620814037, 0.04683188620814037, -0.04683188620814037, 0.04683188620814037]}
    - {mu0: 0, rank: 2, ndensity: 1, num_ms_combs: 5, mus: [1, 1], ns: [1, 4], ls: [2, 2], ms_combs: [-2, 2, -1, 1, 0, 0, 1, -1, 2, -2], ctildes: [-0.3357863435315658, 0.3357863435315658, -0.3357863435315658, 0.3357863435315658, -0.3357863435315658]}
    - {mu0: 0, rank: 2, ndensity: 1, num_ms_combs: 5, mus: [0, 1], ns: [2, 1], ls: [2, 2], ms_combs: [-2, 2, -1, 1, 0, 0, 1, -1, 2, -2], ctildes: [-1.0289306755706464, 1.0289306755706464, -1.0289306755706464, 1.0289306755706464, -1.0289306755706464]}
    - {mu0: 0, rank: 2, ndensity: 1, num_ms_combs: 5, mus: [0, 0], ns: [2, 2], ls: [2, 2], ms_combs: [-2, 2, -1, 1, 0, 0, 1, -1, 2, -2], ctildes: [0.6660647757535578, -0.6660647757535578, 0.6660647757535578, -0.6660647757535578, 0.6660647757535578]}
    - {mu0: 0, rank: 2, ndensity: 1, num_ms_combs: 5, mus: [0, 1], ns: [2, 2], ls: [2, 2], ms_combs: [-2, 2, -1, 1, 0, 0, 1, -1, 2, -2], ctildes: [0.14865813460656108, -0.14865813460656108, 0.14865813460656108, -0.14865813460656108, 0.14865813460656108]}
    - {mu0: 0, rank: 2, ndensity: 1, num_ms_combs: 5, mus: [1, 1], ns: [2, 2], ls: [2, 2], ms_combs: [-2, 2, -1, 1, 0, 0, 1, -1, 2, -2], ctildes: [-0.07091482252928312, 0.07091482252928312, -0.07091482252928312, 0.07091482252928312, -0.07091482252928312]}
    - {mu0: 0, rank: 2, ndensity: 1, num_ms_combs: 5, mus: [0, 0], ns: [2, 3], ls: [2, 2], ms_combs: [-2, 2, -1, 1, 0, 0, 1, -1, 2, -2], ctildes: [1.0515905367505987, -1.0515905367505987, 1.0515905367505987, -1.0515905367505987, 1.0515905367505987]}
    - {mu0: 0, rank: 2, ndensity: 1, num_ms_combs: 5, mus: [0, 1], ns: [2, 3], ls: [2, 2], ms_combs: [-2, 2, -1, 1, 0, 0, 1, -1, 2, -2], ctildes: [-0.9973729813619335, 0.9973729813619335, -0.9973729813619335, 0.9973729813619335, -0.9973729813619335]}
    - {mu0: 0, rank: 2, ndensity: 1, num_ms_combs: 5, mus: [1, 1], ns: [2, 3], ls: [2, 2], ms_combs: [-2, 2, -1, 1, 0, 0, 1, -1, 2, -2], ctildes: [-0.3069508048246549, 0.3069508048246549, -0.3069508048246549, 0.3069508048246549, -0.3069508048246549]}
    - {mu0: 0, rank: 2, ndensity: 1, num_ms_combs: 5, mus: [0, 0], ns: [2, 4], ls: [2, 2], ms_combs: [-2, 2, -1, 1, 0, 0, 1, -1, 2, -2], ctildes: [1.8357931556070834, -1.8357931556070834, 1.8357931556070834, -1.8357931556070834, 1.8357931556070834]}
    - {mu0: 0, rank: 2, ndensity: 1, num_ms_combs: 5, mus: [0, 1], ns: [2, 4], ls: [2, 2], ms_combs: [-2, 2, -1, 1, 0, 0, 1, -1, 2, -2], ctildes: [-0.8023086491555275, 0.8023086491555275, -0.8023086491555275, 0.8023086491555275, -0.8023086491555275]}
    - {mu0: 0, rank: 2, ndensity: 1, num_ms_combs: 5, mus: [1, 1], ns: [2, 4], ls: [2, 2], ms_combs: [-2, 2, -1, 1, 0, 0, 1, -1, 2, -2], ctildes: [-0.9008511776834809, 0.9008511776834809, -0.9008511776834809, 0.9008511776834809, -0.9008511776834809]}
    - {mu0: 0, rank: 2, ndensity: 1, num_ms_combs: 5, mus: [0, 1], ns: [3, 1], ls: [2, 2], ms_combs: [-2, 2, -1, 1, 0, 0, 1, -1, 2, -2], ctildes: [0.34916028504492763, -0.34916028504492763, 0.34916028504492763, -0.34916028504492763, 0.34916028504492763]}
    - {mu0: 0, rank: 2, ndensity: 1, num_ms_combs: 5, mus: [0, 1], ns: [3, 2], ls: [2, 2], ms_combs: [-2, 2, -1, 1, 0, 0, 1, -1, 2, -2], ctildes: [1.1844232700565338, -1.1844232700565338, 1.1844232700565338, -1.1844232700565338, 1.1844232700565338]}
    - {mu0: 0, rank: 2, ndensity: 1, num_ms_combs: 5, mus: [0, 0], ns: [3, 3], ls: [2, 2], ms_combs: [-2, 2, -1, 1, 0, 0, 1, -1, 2, -2], ctildes: [-0.7581553256937384, 0.7581553256937384, -0.7581553256937384, 0.7581553256937384, -0.7581553256937384]}
    - {mu0: 0, rank: 2, ndensity: 1, num_ms_combs: 5, mus: [0, 1], ns: [3, 3], ls: [2, 2], ms_combs: [-2, 2, -1, 1, 0, 0, 1, -1, 2, -2], ctildes: [-0.6584200027431915, 0.6584200027431915, -0.6584200027431915, 0.6584200027431915, -0.6584200027431915]}
    - {mu0: 0, rank: 2, ndensity: 1, num_ms_combs: 5, mus: [1, 1], ns: [3, 3], ls: [2, 2], ms_combs: [-2, 2, -1, 1, 0, 0, 1, -1, 2, -2], ctildes: [0.39941809129160655, -0.39941809129160655, 0.39941809129160655, -0.39941809129160655, 0.39941809129160655]}
    - {mu0: 0, rank: 2, ndensity: 1, num_ms_combs: 5, mus: [0, 0], ns: [3, 4], ls: [2, 2], ms_combs: [-2, 2, -1, 1, 0, 0, 1, -1, 2, -2], ctildes: [-0.7357043636802153, 0.7357043636802153, -0.7357043636802153, 0.7357043636802153, -0.7357043636802153]}
    - {mu0: 0, rank: 2, ndensity: 1, num_ms_combs: 5, mus: [0, 1], ns: [3, 4], ls: [2, 2], ms_combs: [-2, 2, -1, 1, 0, 0, 1, -1, 2, -2], ctildes: [1.044525339503887, -1.044525339503887, 1.044525339503887, -1.044525339503887, 1.044525339503887]}
    - {mu0: 0, rank: 2, ndensity: 1, num_ms_combs: 5, mus: [1, 1], ns: [3, 4], ls: [2, 2], ms_combs: [-2, 2, -1, 1, 0, 0, 1, -1, 2, -2], ctildes: [0.6189288112308664, -0.6189288112308664, 0.6189288112308664, -0.6189288112308664, 0.6189288112308664]}
    - {mu0: 0, rank: 2, ndensity: 1, num_ms_combs: 5, mus: [0, 1], ns: [4, 1], ls: [2, 2], ms_combs: [-2, 2, -1, 1, 0, 0, 1, -1, 2, -2], ctildes: [-0.38691988293434326, 0.38691988293434326, -0.38691988293434326, 0.38691988293434326, -0.38691988293434326]}
    - {mu0: 0, rank: 2, ndensity: 1, num_ms_combs: 5, mus: [0, 1], ns: [4, 2], ls: [2, 2], ms_combs: [-2, 2, -1, 1, 0, 0, 1, -1, 2, -2], ctildes: [1.775066807920383, -1.775066807920383, 1.775066807920383, -1.775066807920383, 1.775066807920383]}
    - {mu0: 0, rank: 2, ndensity: 1, num_ms_combs: 5, mus: [0, 1], ns: [4, 3], ls: [2, 2], ms_combs: [-2, 2, -1, 1, 0, 0, 1, -1, 2, -2], ctildes: [-0.7726270475562843, 0.7726270475562843, -0.7726270475562843, 0.7726270475562843, -0.7726270475562843]}
    - {mu0: 0, rank: 2, ndensity: 1, num_ms_combs: 5, mus: [0, 0], ns: [4, 4], ls: [2, 2], ms_combs: [-2, 2, -1, 1, 0, 0, 1, -1, 2, -2], ctildes: [0.16201156494480987, -0.16201156494480987, 0.16201156494480987, -0.16201156494480987, 0.16201156494480987]}
    - {mu0: 0, rank: 2, ndensity: 1, num_ms_combs: 5, mus: [0, 1], ns: [4, 4], ls: [2, 2], ms_combs: [-2, 2, -1, 1, 0, 0, 1, -1, 2, -2], ctildes: [0.47993960372521177, -0.47993960372521177, 0.47993960372521177, -0.47993960372521177, 0.47993960372521177]}
    - {mu0: 0, rank: 2, ndensity: 1, num_ms_combs: 5, mus: [1, 1], ns: [4, 4], ls: [2, 2], ms_combs: [-2, 2, -1, 1, 0, 0, 1, -1, 2, -2], ctildes: [-0.34209923654124164, 0.34209923654124164, -0.34209923654124164, 0.34209923654124164, -0.34209923654124164]}
    - {mu0: 0, rank: 3, ndensity: 1, num_ms_combs: 1, mus: [0, 0, 0], ns: [1, 1, 1], ls: [0, 0, 0], ms_combs: [0, 0, 0], ctildes: [-0.02283947958449062]}
    - {mu0: 0, rank: 3, ndensity: 1, num_ms_combs: 1, mus: [0, 0, 1], ns: [1, 1, 1], ls: [0, 0, 0], ms_combs: [0, 0, 0], ctildes: [0.08906511879285972]}
    - {mu0: 0, rank: 3, ndensity: 1, num_ms_combs: 1, mus: [0, 1, 1], ns: [1, 1, 1], ls: [0, 0, 0], ms_combs: [0, 0, 0], ctildes: [0.11294984727464907]}
    - {mu0: 0, rank: 3, ndensity: 1, num_ms_combs: 1, mus: [1, 1, 1], ns: [1, 1, 1], ls: [0, 0, 0], ms_combs: [0, 0, 0], ctildes: [0.10495359340347932]}
    - {mu0: 0, rank: 3, ndensity: 1, num_ms_combs: 3, mus: [0, 0, 0], ns: [1, 1, 1], ls: [0, 1, 1], ms_combs: [0, -1, 1, 0, 0, 0, 0, 1, -1], ctildes: [0.008561769366144707, -0.008561769366144707, 0.008561769366144707]}
    - {mu0: 0, rank: 3, ndensity: 1, num_ms_combs: 3, mus: [0, 0, 1], ns: [1, 1, 1], ls: [0, 1, 1], ms_combs: [0, -1, 1, 0, 0, 0, 0, 1, -1], ctildes: [-0.09410511041139365, 0.09410511041139365, -0.09410511041139365]}
    - {mu0: 0, rank: 3, ndensity: 1, num_ms_combs: 3, mus: [0, 1, 1], ns: [1, 1, 1], ls: [0, 1, 1], ms_combs: [0, -1, 1, 0, 0, 0, 0, 1, -1], ctildes: [-0.029569018327753094, 0.029569018327753094, -0.029569018327753094]}
    - {mu0: 0, rank: 3, ndensity: 1, num_ms_combs: 3, mus: [1, 1, 1], ns: [1, 1, 1], ls: [0, 1, 1], ms_combs: [0, -1, 1, 0, 0, 0, 0, 1, -1], ctildes: [-0.06261202353725127, 0.06261202353725127, -0.06261202353725127]}
    - {mu0: 0, rank: 3, ndensity: 1, num_ms_combs: 5, mus: [0, 0, 0], ns: [1, 1, 1], ls: [0, 2, 2], ms_combs: [0, -2, 2, 0, -1, 1, 0, 0, 0, 0, 1, -1, 0, 2, -2], ctildes: [0.02797909936170218, -0.02797909936170218, 0.02797909936170218, -0.02797909936170218, 0.02797909936170218]}
    - {mu0: 0, rank: 3, ndensity: 1, num_ms_combs: 5, mus: [0, 0, 1], ns: [1, 1, 1], ls: [0, 2, 2], ms_combs: [0, -2, 2, 0, -1, 1, 0, 0, 0, 0, 1, -1, 0, 2, -2], ctildes: [-0.04073351024222524, 0.04073351024222524, -0.04073351024222524, 0.04073351024222524, -0.04073351024222524]}
    - {mu0: 0, rank: 3, ndensity: 1, num_ms_combs: 5, mus: [0, 1, 1], ns: [1, 1, 1], ls: [0, 2, 2], ms_combs: [0, -2, 2, 0, -1, 1, 0, 0, 0, 0, 1, -1, 0, 2, -2], ctildes: [0.032289534845581294, -0.032289534845581294, 0.032289534845581294, -0.032289534845581294, 0.032289534845581294]}
    - {mu0: 0, rank: 3, ndensity: 1, num_ms_combs: 5, mus: [1, 1, 1], ns: [1, 1, 1], ls: [0, 2, 2], ms_combs: [0, -2, 2, 0, -1, 1, 0, 0, 0, 0, 1, -1, 0, 2, -2], ctildes: [-0.011012768864772109, 0.011012768864772109, -0.011012768864772109, 0.011012768864772109, -0.011012768864772109]}
    - {mu0: 0, rank: 3, ndensity: 1, num_ms_combs: 7, mus: [0, 0, 0], ns: [1, 1, 1], ls: [0, 3, 3], ms_combs: [0, -3, 3, 0, -2, 2, 0, -1, 1, 0, 0, 0, 0, 1, -1, 0, 2, -2, 0, 3, -3], ctildes: [-0.026151415496928728, 0.026151415496928728, -0.026151415496928728, 0.026151415496928728, -0.026151415496928728, 0.026151415496928728, -0.026151415496928728]}
    - {mu0: 0, rank: 3, ndensity: 1, num_ms_combs: 7, mus: [0, 0, 1], ns: [1, 1, 1], ls: [0, 3, 3], ms_combs: [0, -3, 3, 0, -2, 2, 0, -1, 1, 0, 0, 0, 0, 1, -1, 0, 2, -2, 0, 3, -3], ctildes: [0.049460869789713945, -0.049460869789713945, 0.049460869789713945, -0.049460869789713945, 0.049460869789713945, -0.049460869789713945, 0.049460869789713945]}
    - {mu0: 0, rank: 3, ndensity: 1, num_ms_combs: 7, mus: [0, 1, 1], ns: [1, 1, 1], ls: [0, 3, 3], ms_combs: [0, -3, 3, 0, -2, 2, 0, -1, 1, 0, 0, 0, 0, 1, -1, 0, 2, -2, 0, 3, -3], ctildes: [-0.015895399218086304, 0.015895399218086304, -0.015895399218086304, 0.015895399218086304, -0.015895399218086304, 0.015895399218086304, -0.015895399218086304]}
    - {mu0: 0, rank: 3, ndensity: 1, num_ms_combs: 7, mus: [1, 1, 1], ns: [1, 1, 1], ls: [0, 3, 3], ms_combs: [0, -3, 3, 0, -2, 2, 0, -1, 1, 0, 0, 0, 0, 1, -1, 0, 2, -2, 0, 3, -3], ctildes: [9.588181576657033e-05, -9.588181576657033e-05, 9.588181576657033e-05, -9.588181576657033e-05, 9.588181576657033e-05, -9.588181576657033e-05, 9.588181576657033e-05]}
    - {mu0: 0, rank: 3, ndensity: 1, num_ms_combs: 9, mus: [0, 0, 0], ns: [1, 1, 1], ls: [0, 4, 4], ms_combs: [0, -4, 4, 0, -3, 3, 0, -2, 2, 0, -1, 1, 0, 0, 0, 0, 1, -1, 0, 2, -2, 0, 3, -3, 0, 4, -4], ctildes: [-0.0015702737203845557, 0.0015702737203845557, -0.0015702737203845557, 0.0015702737203845557, -0.0015702737203845557, 0.0015702737203845557, -0.0015702737203845557, 0.0015702737203845557, -0.0015702737203845557]}
    - {mu0: 0, rank: 3, ndensity: 1, num_ms_combs: 9, mus: [0, 0, 1], ns: [1, 1, 1], ls: [0, 4, 4], ms_combs: [0, -4, 4, 0, -3, 3, 0, -2, 2, 0, -1, 1, 0, 0, 0, 0, 1, -1, 0, 2, -2, 0, 3, -3, 0, 4, -4], ctildes: [0.008446842850202748, -0.008446842850202748, 0.008446842850202748, -0.008446842850202748, 0.008446842850202748, -0.008446842850202748, 0.008446842850202748, -0.008446842850202748, 0.008446842850202748]}
    - {mu0: 0, rank: 3, ndensity: 1, num_ms_combs: 9, mus: [0, 1, 1], ns: [1, 1, 1], ls: [0, 4, 4], ms_combs: [0, -4, 4, 0, -3, 3, 0, -2, 2, 0, -1, 1, 0, 0, 0, 0, 1, -1, 0, 2, -2, 0, 3, -3, 0, 4, -4], ctildes: [0.0018529743554334848, -0.0018529743554334848, 0.0018529743554334848, -0.0018529743554334848, 0.0018529743554334848, -0.0018529743554334848, 0.0018529743554334848, -0.0018529743554334848, 0.0018529743554334848]}
    - {mu0: 0, rank: 3, ndensity: 1, num_ms_combs: 9, mus: [1, 1, 1], ns: [1, 1, 1], ls: [0, 4, 4], ms_combs: [0, -4, 4, 0, -3, 3, 0, -2, 2, 0, -1, 1, 0, 0, 0, 0, 1, -1, 0, 2, -2, 0, 3, -3, 0, 4, -4], ctildes: [0.011110148626967405, -0.011110148626967405, 0.011110148626967405, -0.011110148626967405, 0.011110148626967405, -0.011110148626967405, 0.011110148626967405, -0.011110148626967405, 0.011110148626967405]}
    - {mu0: 0, rank: 3, ndensity: 1, num_ms_combs: 3, mus: [0, 1, 1], ns: [1, 1, 1], ls: [1, 0, 1], ms_combs: [-1, 0, 1, 0, 0, 0, 1, 0, -1], ctildes: [-0.010326611736451592, 0.010326611736451592, -0.010326611736451592]}
    - {mu0: 0, rank: 3, ndensity: 1, num_ms_combs: 3, mus: [0, 0, 1], ns: [1, 1, 1], ls: [1, 1, 0], ms_combs: [-1, 1, 0, 0, 0, 0, 1, -1, 0], ctildes: [-0.04194358157225653, 0.04194358157225653, -0.04194358157225653]}
    - {mu0: 0, rank: 3, ndensity: 1, num_ms_combs: 9, mus: [0, 0, 0], ns: [1, 1, 1], ls: [1, 1, 2], ms_combs: [-1, -1, 2, -1, 0, 1, -1, 1, 0, 0, -1, 1, 0, 0, 0, 0, 1, -1, 1, -1, 0, 1, 0, -1, 1, 1, -2], ctildes: [0.010039352386645205, -0.007098894188601622, 0.004098548763516269, -0.007098894188601622, 0.008197097527032538, -0.007098894188601622, 0.004098548763516269, -0.007098894188601622, 0.010039352386645205]}
    - {mu0: 0, rank: 3, ndensity: 1, num_ms_combs: 9, mus: [0, 0, 1], ns: [1, 1, 1], ls: [1, 1, 2], ms_combs: [-1, -1, 2, -1, 0, 1, -1, 1, 0, 0, -1, 1, 0, 0, 0, 0, 1, -1, 1, -1, 0, 1, 0, -1, 1, 1, -2], ctildes: [0.01690709228207648, -0.011955119665591402, 0.006902292050186295, -0.011955119665591402, 0.01380458410037259, -0.011955119665591402, 0.006902292050186295, -0.011955119665591402, 0.01690709228207648]}
    - {mu0: 0, rank: 3, ndensity: 1, num_ms_combs: 9, mus: [0, 1, 1], ns: [1, 1, 1], ls: [1, 1, 2], ms_combs: [-1, -1, 2, -1, 0, 1, -1, 1, 0, 0, -1, 1, 0, 0, 0, 0, 1, -1, 1, -1, 0, 1, 0, -1, 1, 1, -2], ctildes: [0.03467172392690402, -0.02451661123290314, 0.014154673106068343, -0.02451661123290314, 0.028309346212136686, -0.02451661123290314, 0.014154673106068343, -0.02451661123290314, 0.03467172392690402]}
    - {mu0: 0, rank: 3, ndensity: 1, num_ms_combs: 9, mus: [1, 1, 1], ns: [1, 1, 1], ls: [1, 1, 2], ms_combs: [-1, -1, 2, -1, 0, 1, -1, 1, 0, 0, -1, 1, 0, 0, 0, 0, 1, -1, 1, -1, 0, 1, 0, -1, 1, 1, -2], ctildes: [-0.030800708076091508, 0.02177938966033709, -0.012574337381424933, 0.02177938966033709, -0.025148674762849866, 0.02177938966033709, -0.012574337381424933, 0.02177938966033709, -0.030800708076091508]}
    - {mu0: 0, rank: 3, ndensity: 1, num_ms_combs: 9, mus: [0, 0, 1], ns: [1, 1, 1], ls: [1, 2, 1], ms_combs: [-1, 0, 1, -1, 1, 0, -1, 2, -1, 0, -1, 1, 0, 0, 0, 0, 1, -1, 1, -2, 1, 1, -1, 0, 1, 0, -1], ctildes: [0.03098228005623963, -0.05366288373814939, 0.07589078263732542, -0.05366288373814939, 0.06196456011247926, -0.05366288373814939, 0.07589078263732542, -0.05366288373814939, 0.03098228005623963]}
    - {mu0: 0, rank: 3, ndensity: 1, num_ms_combs: 15, mus: [0, 0, 0], ns: [1, 1, 1], ls: [1, 2, 3], ms_combs: [-1, -2, 3, -1, -1, 2, -1, 0, 1, -1, 1, 0, -1, 2, -1, 0, -2, 2, 0, -1, 1, 0, 0, 0, 0, 1, -1, 0, 2, -2, 1, -2, 1, 1, -1, 0, 1, 0, -1, 1, 1, -2, 1, 2, -3], ctildes: [0.05954746640099187, -0.048620305735967616, 0.03766112554061364, -0.026630436078169478, 0.015375089900046969, -0.03437974463392372, 0.043487320774159385, -0.04612527087396341, 0.043487320774159385, -0.03437974463392372, 0.015375089900046969, -0.026630436078169478, 0.03766112554061364, -0.048620305735967616, 0.05954746640099187]}
    - {mu0: 0, rank: 3, ndensity: 1, num_ms_combs: 15, mus: [0, 0, 1], ns: [1, 1, 1], ls: [1, 2, 3], ms_combs: [-1, -2, 3, -1, -1, 2, -1, 0, 1, -1, 1, 0, -1, 2, -1, 0, -2, 2, 0, -1, 1, 0, 0, 0, 0, 1, -1, 0, 2, -2, 1, -2, 1, 1, -1, 0, 1, 0, -1, 1, 1, -2, 1, 2, -3], ctildes: [-0.06102735708575377, 0.04982863149519312, -0.0385970906157671, 0.02729226330047047, -0.01575719603647324, 0.03523415989125177, -0.04456808012142624, 0.047271589312414396, -0.04456808012142624, 0.03523415989125177, -0.01575719603647324, 0.02729226330047047, -0.0385970906157671, 0.04982863149519312, -0.06102735708575377]}
    - {mu0: 0, rank: 3, ndensity: 1, num_ms_combs: 15, mus: [0, 1, 1], ns: [1, 1, 1], ls: [1, 2, 3], ms_combs: [-1, -2, 3, -1, -1, 2, -1, 0, 1, -1, 1, 0, -1, 2, -1, 0, -2, 2, 0, -1, 1, 0, 0, 0, 0, 1, -1, 0, 2, -2, 1, -2, 1, 1, -1, 0, 1, 0, -1, 1, 1, -2, 1, 2, -3], ctildes: [-0.004303124922491934, 0.0035134870045140125, -0.0027215352342885345, 0.0019244159342250476, -0.0011110620910202837, 0.0024844102512593426, -0.003142558116168137, 0.003333186357885701, -0.003142558116168137, 0.0024844102512593426, -0.0011110620910202837, 0.0019244159342250476, -0.0027215352342885345, 0.0035134870045140125, -0.004303124922491934]}
    - {mu0: 0, rank: 3, ndensity: 1, num_ms_combs: 15, mus: [1, 1, 1], ns: [1, 1, 1], ls: [1, 2, 3], ms_combs: [-1, -2, 3, -1, -1, 2, -1, 0, 1, -1, 1, 0, -1, 2, -1, 0, -2, 2, 0, -1, 1, 0, 0, 0, 0, 1, -1, 0, 2, -2, 1, -2, 1, 1, -1, 0, 1, 0, -1, 1, 1, -2, 1, 2, -3], ctildes: [-0.0420484053257318, 0.03433238131207738, -0.026593747265267607, 0.018804618196101956, -0.010856851703533964, 0.024276657341349088, -0.030707813463101634, 0.03257055593947619, -0.030707813463101634, 0.024276657341349088, -0.010856851703533964, 0.018804618196101956, -0.026593747265267607, 0.03433238131207738, -0.0420484053257318]}
    - {mu0: 0, rank: 3, ndensity: 1, num_ms_combs: 15, mus: [0, 0, 1], ns: [1, 1, 1], ls: [1, 3, 2], ms_combs: [-1, -1, 2, -1, 0, 1, -1, 1, 0, -1, 2, -1, -1, 3, -2, 0, -2, 2, 0, -1, 1, 0, 0, 0, 0, 1, -1, 0, 2, -2, 1, -3, 2, 1, -2, 1, 1, -1, 0, 1, 0, -1, 1, 1, -2], ctildes: [-0.006646776362781652, 0.011512554021190073, -0.0162812107549588, 0.021018953451196372, -0.02574285384415465, 0.014862643111474456, -0.01879992435101442, 0.01994032959579797, -0.01879992435101442, 0.014862643111474456, -0.02574285384415465, 0.021018953451196372, -0.0162812107549588, 0.011512554021190073, -0.006646776362781652]}
    - {mu0: 0, rank: 3, ndensity: 1, num_ms_combs: 21, mus: [0, 0, 0], ns: [1, 1, 1], ls: [1, 3, 4], ms_combs: [-1, -3, 4, -1, -2, 3, -1, -1, 2, -1, 0, 1, -1, 1, 0, -1, 2, -1, -1, 3, -2, 0, -3, 3, 0, -2, 2, 0, -1, 1, 0, 0, 0, 0, 1, -1, 0, 2, -2, 0, 3, -3, 1, -3, 2, 1, -2, 1, 1, -1, 0, 1, 0, -1, 1, 1, -2, 1, 2, -3, 1, 3, -4], ctildes: [-0.003736883978778755, 0.0032362363020853923, -0.0027351190429885206, 0.002233215137311028, -0.0017298411764393425, 0.0012231823939414031, -0.0007062046592388559, 0.0018684419893893775, -0.0024463647878828062, 0.0027351190429885206, -0.0028248186369554235, 0.0027351190429885206, -0.0024463647878828062, 0.0018684419893893775, -0.0007062046592388559, 0.0012231823939414031, -0.0017298411764393425, 0.002233215137311028, -0.0027351190429885206, 0.0032362363020853923, -0.003736883978778755]}
    - {mu0: 0, rank: 3, ndensity: 1, num_ms_combs: 21, mus: [0, 0, 1], ns: [1, 1, 1], ls: [1, 3, 4], ms_combs: [-1, -3, 4, -1, -2, 3, -1, -1, 2, -1, 0, 1, -1, 1, 0, -1, 2, -1, -1, 3, -2, 0, -3, 3, 0, -2, 2, 0, -1, 1, 0, 0, 0, 0, 1, -1, 0, 2, -2, 0, 3, -3, 1, -3, 2, 1, -2, 1, 1, -1, 0, 1, 0, -1, 1, 1, -2, 1, 2, -3, 1, 3, -4], ctildes: [-0.001033156743978969, 0.000894739943652674, -0.0007561933153119705, 0.0006174291984903531, -0.0004782586474720822, 0.0003381799238599592, -0.00019524826311584866, 0.0005165783719894845, -0.0006763598477199184, 0.0007561933153119705, -0.0007809930524633946, 0.0007561933153119705, -0.0006763598477199184, 0.0005165783719894845, -0.00019524826311584866, 0.0003381799238599592, -0.0004782586474720822, 0.0006174291984903531, -0.0007561933153119705, 0.000894739943652674, -0.001033156743978969]}
    - {mu0: 0, rank: 3, ndensity: 1, num_ms_combs: 21, mus: [0, 1, 1], ns: [1, 1, 1], ls: [1, 3, 4], ms_combs: [-1, -3, 4, -1, -2, 3, -1, -1, 2, -1, 0, 1, -1, 1, 0, -1, 2, -1, -1, 3, -2, 0, -3, 3, 0, -2, 2, 0, -1, 1, 0, 0, 0, 0, 1, -1, 0, 2, -2, 0, 3, -3, 1, -3, 2, 1, -2, 1, 1, -1, 0, 1, 0, -1, 1, 1, -2, 1, 2, -3, 1, 3, -4], ctildes: [0.03225416699494427, -0.02793292666171458, 0.023607633221846665, -0.019275549999282417, 0.014930778289198997, -0.010557654297941357, 0.006095464333667064, -0.016127083497472133, 0.021115308595882714, -0.023607633221846665, 0.024381857334668255, -0.023607633221846665, 0.021115308595882714, -0.016127083497472133, 0.006095464333667064, -0.010557654297941357, 0.014930778289198997, -0.019275549999282417, 0.023607633221846665, -0.02793292666171458, 0.03225416699494427]}
    - {mu0: 0, rank: 3, ndensity: 1, num_ms_combs: 21, mus: [1, 1, 1], ns: [1, 1, 1], ls: [1, 3, 4], ms_combs: [-1, -3, 4, -1, -2, 3, -1, -1, 2, -1, 0, 1, -1, 1, 0, -1, 2, -1, -1, 3, -2, 0, -3, 3, 0, -2, 2, 0, -1, 1, 0, 0, 0, 0, 1, -1, 0, 2, -2, 0, 3, -3, 1, -3, 2, 1, -2, 1, 1, -1, 0, 1, 0, -1, 1, 1, -2, 1, 2, -3, 1, 3, -4], ctildes: [-0.006388463104240013, 0.005532571075228108, -0.00467587626243264, 0.003817836622587441, -0.0029572838211288127, 0.002091115388603633, -0.001207305989484918, 0.0031942315521200065, -0.004182230777207266, 0.00467587626243264, -0.004829223957939672, 0.00467587626243264, -0.004182230777207266, 0.0031942315521200065, -0.001207305989484918, 0.002091115388603633, -0.0029572838211288127, 0.003817836622587441, -0.00467587626243264, 0.005532571075228108, -0.006388463104240013]}
    - {mu0: 0, rank: 3, ndensity: 1, num_ms_combs: 21, mus: [0, 0, 1], ns: [1, 1, 1], ls: [1, 4, 3], ms_combs: [-1, -2, 3, -1, -1, 2, -1, 0, 1, -1, 1, 0, -1, 2, -1, -1, 3, -2, -1, 4, -3, 0, -3, 3, 0, -2, 2, 0, -1, 1, 0, 0, 0, 0, 1, -1, 0, 2, -2, 0, 3, -3, 1, -4, 3, 1, -3, 2, 1, -2, 1, 1, -1, 0, 1, 0, -1, 1, 1, -2, 1, 2, -3], ctildes: [-0.0008372802674049473, 0.0014502119159813312, -0.0020509095540919525, 0.0026477125899393595, -0.0032427725219158067, 0.0038369001973395205, -0.0044304709351328355, 0.0022152354675664177, -0.0029004238319626625, 0.0032427725219158067, -0.003349121069619789, 0.0032427725219158067, -0.0029004238319626625, 0.0022152354675664177, -0.0044304709351328355, 0.0038369001973395205, -0.0032427725219158067, 0.0026477125899393595, -0.0020509095540919525, 0.0014502119159813312, -0.0008372802674049473]}
    - {mu0: 0, rank: 3, ndensity: 1, num_ms_combs: 5, mus: [0, 1, 1], ns: [1, 1, 1], ls: [2, 0, 2], ms_combs: [-2, 0, 2, -1, 0, 1, 0, 0, 0, 1, 0, -1, 2, 0, -2], ctildes: [0.031509302777648365, -0.031509302777648365, 0.031509302777648365, -0.031509302777648365, 0.031509302777648365]}
    - {mu0: 0, rank: 3, ndensity: 1, num_ms_combs: 9, mus: [0, 1, 1], ns: [1, 1, 1], ls: [2, 1, 1], ms_combs: [-2, 1, 1, -1, 0, 1, -1, 1, 0, 0, -1, 1, 0, 0, 0, 0, 1, -1, 1, -1, 0, 1, 0, -1, 2, -1, -1], ctildes: [-0.002644694123803301, 0.0018700810343049727, 0.0018700810343049727, -0.001079691777568587, -0.002159383555137174, -0.001079691777568587, 0.0018700810343049727, 0.0018700810343049727, -0.002644694123803301]}
    - {mu0: 0, rank: 3, ndensity: 1, num_ms_combs: 15, mus: [0, 1, 1], ns: [1, 1, 1], ls: [2, 1, 3], ms_combs: [-2, -1, 3, -2, 0, 2, -2, 1, 1, -1, -1, 2, -1, 0, 1, -1, 1, 0, 0, -1, 1, 0, 0, 0, 0, 1, -1, 1, -1, 0, 1, 0, -1, 1, 1, -2, 2, -1, -1, 2, 0, -2, 2, 1, -3], ctildes: [0.008034611311041379, -0.004638784851841096, 0.0020745277454346533, -0.006560233071578483, 0.005867650472751697, -0.003593187348908952, 0.005081534505893327, -0.0062235833946853005, 0.005081534505893327, -0.003593187348908952, 0.005867650472751697, -0.006560233071578483, 0.0020745277454346533, -0.004638784851841096, 0.008034611311041379]}
    - {mu0: 0, rank: 3, ndensity: 1, num_ms_combs: 5, mus: [0, 0, 1], ns: [1, 1, 1], ls: [2, 2, 0], ms_combs: [-2, 2, 0, -1, 1, 0, 0, 0, 0, 1, -1, 0, 2, -2, 0], ctildes: [-0.02733508187819742, 0.02733508187819742, -0.02733508187819742, 0.02733508187819742, -0.02733508187819742]}
    - {mu0: 0, rank: 3, ndensity: 1, num_ms_combs: 19, mus: [0, 0, 0], ns: [1, 1, 1], ls: [2, 2, 2], ms_combs: [-2, 0, 2, -2, 1, 1, -2, 2, 0, -1, -1, 2, -1, 0, 1, -1, 1, 0, -1, 2, -1, 0, -2, 2, 0, -1, 1, 0, 0, 0, 0, 1, -1, 0, 2, -2, 1, -2, 1, 1, -1, 0, 1, 0, -1, 1, 1, -2, 2, -2, 0, 2, -1, -1, 2, 0, -2], ctildes: [0.0035574099148421973, -0.004356919597500322, 0.0035574099148421973, -0.004356919597500322, 0.0017787049574210987, 0.0017787049574210987, -0.004356919597500322, 0.0035574099148421973, 0.0017787049574210987, -0.0035574099148421973, 0.0017787049574210987, 0.0035574099148421973, -0.004356919597500322, 0.0017787049574210987, 0.0017787049574210987, -0.004356919597500322, 0.0035574099148421973, -0.004356919597500322, 0.0035574099148421973]}
    - {mu0: 0, rank: 3, ndensity: 1, num_ms_combs: 19, mus: [0, 0, 1], ns: [1, 1, 1], ls: [2, 2, 2], ms_combs: [-2, 0, 2, -2, 1, 1, -2, 2, 0, -1, -1, 2, -1, 0, 1, -1, 1, 0, -1, 2, -1, 0, -2, 2, 0, -1, 1, 0, 0, 0, 0, 1, -1, 0, 2, -2, 1, -2, 1, 1, -1, 0, 1, 0, -1, 1, 1, -2, 2, -2, 0, 2, -1, -1, 2, 0, -2], ctildes: [-0.044516872663253555, 0.05452181209613552, -0.044516872663253555, 0.05452181209613552, -0.022258436331626778, -0.022258436331626778, 0.05452181209613552, -0.044516872663253555, -0.022258436331626778, 0.044516872663253555, -0.022258436331626778, -0.044516872663253555, 0.05452181209613552, -0.022258436331626778, -0.022258436331626778, 0.05452181209613552, -0.044516872663253555, 0.05452181209613552, -0.044516872663253555]}
    - {mu0: 0, rank: 3, ndensity: 1, num_ms_combs: 19, mus: [0, 1, 1], ns: [1, 1, 1], ls: [2, 2, 2], ms_combs: [-2, 0, 2, -2, 1, 1, -2, 2, 0, -1, -1, 2, -1, 0, 1, -1, 1, 0, -1, 2, -1, 0, -2, 2, 0, -1, 1, 0, 0, 0, 0, 1, -1, 0, 2, -2, 1, -2, 1, 1, -1, 0, 1, 0, -1, 1, 1, -2, 2, -2, 0, 2, -1, -1, 2, 0, -2], ctildes: [0.02509399138363568, -0.0307337375945095, 0.02509399138363568, -0.0307337375945095, 0.01254699569181784, 0.01254699569181784, -0.0307337375945095, 0.02509399138363568, 0.01254699569181784, -0.02509399138363568, 0.01254699569181784, 0.02509399138363568, -0.0307337375945095, 0.01254699569181784, 0.01254699569181784, -0.0307337375945095, 0.02509399138363568, -0.0307337375945095, 0.02509399138363568]}
    - {mu0: 0, rank: 3, ndensity: 1, num_ms_combs: 19, mus: [1, 1, 1], ns: [1, 1, 1], ls: [2, 2, 2], ms_combs: [-2, 0, 2, -2, 1, 1, -2, 2, 0, -1, -1, 2, -1, 0, 1, -1, 1, 0, -1, 2, -1, 0, -2, 2, 0, -1, 1, 0, 0, 0, 0, 1, -1, 0, 2, -2, 1, -2, 1, 1, -1, 0, 1, 0, -1, 1, 1, -2, 2, -2, 0, 2, -1, -1, 2, 0, -2], ctildes: [-0.008695964819524761, 0.010650338433950598, -0.008695964819524761, 0.010650338433950598, -0.0043479824097623805, -0.0043479824097623805, 0.010650338433950598, -0.008695964819524761, -0.0043479824097623805, 0.008695964819524761, -0.0043479824097623805, -0.008695964819524761, 0.010650338433950598, -0.0043479824097623805, -0.0043479824097623805, 0.010650338433950598, -0.008695964819524761, 0.010650338433950598, -0.008695964819524761]}
    - {mu0: 0, rank: 3, ndensity: 1, num_ms_combs: 25, mus: [0, 0, 0], ns: [1, 1, 1], ls: [2, 2, 4], ms_combs: [-2, -2, 4, -2, -1, 3, -2, 0, 2, -2, 1, 1, -2, 2, 0, -1, -2, 3, -1, -1, 2, -1, 0, 1, -1, 1, 0, -1, 2, -1, 0, -2, 2, 0, -1, 1, 0, 0, 0, 0, 1, -1, 0, 2, -2, 1, -2, 1, 1, -1, 0, 1, 0, -1, 1, 1, -2, 1, 2, -3, 2, -2, 0, 2, -1, -1, 2, 0, -2, 2, 1, -3, 2, 2, -4], ctildes: [0.0012687626792332438, -0.0008971506710170226, 0.0005873230044419072, -0.00033909106343339295, 0.00015164614700086072, -0.0008971506710170226, 0.0009590943905469744, -0.0008306001364458796, 0.0006065845880034429, -0.00033909106343339295, 0.0005873230044419072, -0.0008306001364458796, 0.0009098768536461094, -0.0008306001364458796, 0.0005873230044419072, -0.00033909106343339295, 0.0006065845880034429, -0.0008306001364458796, 0.0009590943905469744, -0.0008971506710170226, 0.00015164614700086072, -0.00033909106343339295, 0.0005873230044419072, -0.0008971506710170226, 0.0012687626792332438]}
    - {mu0: 0, rank: 3, ndensity: 1, num_ms_combs: 25, mus: [0, 0, 1], ns: [1, 1, 1], ls: [2, 2, 4], ms_combs: [-2, -2, 4, -2, -1, 3, -2, 0, 2, -2, 1, 1, -2, 2, 0, -1, -2, 3, -1, -1, 2, -1, 0, 1, -1, 1, 0, -1, 2, -1, 0, -2, 2, 0, -1, 1, 0, 0, 0, 0, 1, -1, 0, 2, -2, 1, -2, 1, 1, -1, 0, 1, 0, -1, 1, 1, -2, 1, 2, -3, 2, -2, 0, 2, -1, -1, 2, 0, -2, 2, 1, -3, 2, 2, -4], ctildes: [0.0008774415217315785, -0.0006204448340767818, 0.0004061765050315856, -0.0002345060928844349, 0.0001048743221778709, -0.0006204448340767818, 0.0006632834140694735, -0.0005744203069670757, 0.0004194972887114836, -0.0002345060928844349, 0.0004061765050315856, -0.0005744203069670757, 0.0006292459134548797, -0.0005744203069670757, 0.0004061765050315856, -0.0002345060928844349, 0.0004194972887114836, -0.0005744203069670757, 0.0006632834140694735, -0.0006204448340767818, 0.0001048743221778709, -0.0002345060928844349, 0.0004061765050315856, -0.0006204448340767818, 0.0008774415217315785]}
    - {mu0: 0, rank: 3, ndensity: 1, num_ms_combs: 25, mus: [0, 1, 1], ns: [1, 1, 1], ls: [2, 2, 4], ms_combs: [-2, -2, 4, -2, -1, 3, -2, 0, 2, -2, 1, 1, -2, 2, 0, -1, -2, 3, -1, -1, 2, -1, 0, 1, -1, 1, 0, -1, 2, -1, 0, -2, 2, 0, -1, 1, 0, 0, 0, 0, 1, -1, 0, 2, -2, 1, -2, 1, 1, -1, 0, 1, 0, -1, 1, 1, -2, 1, 2, -3, 2, -2, 0, 2, -1, -1, 2, 0, -2, 2, 1, -3, 2, 2, -4], ctildes: [0.013095023506620014, -0.009259579682031371, 0.006061818080740996, -0.00349979197782563, 0.0015651546913917089, -0.009259579682031371, 0.009898906860083618, -0.008572705116085034, 0.0062606187655668355, -0.00349979197782563, 0.006061818080740996, -0.008572705116085034, 0.009390927855653678, -0.008572705116085034, 0.006061818080740996, -0.00349979197782563, 0.0062606187655668355, -0.008572705116085034, 0.009898906860083618, -0.009259579682031371, 0.0015651546913917089, -0.00349979197782563, 0.006061818080740996, -0.009259579682031371, 0.013095023506620014]}
    - {mu0: 0, rank: 3, ndensity: 1, num_ms_combs: 25, mus: [1, 1, 1], ns: [1, 1, 1], ls: [2, 2, 4], ms_combs: [-2, -2, 4, -2, -1, 3, -2, 0, 2, -2, 1, 1, -2, 2, 0, -1, -2, 3, -1, -1, 2, -1, 0, 1, -1, 1, 0, -1, 2, -1, 0, -2, 2, 0, -1, 1, 0, 0, 0, 0, 1, -1, 0, 2, -2, 1, -2, 1, 1, -1, 0, 1, 0, -1, 1, 1, -2, 1, 2, -3, 2, -2, 0, 2, -1, -1, 2, 0, -2, 2, 1, -3, 2, 2, -4], ctildes: [0.00969344246423384, -0.006854298722364586, 0.004487192005773031, -0.0025906812734386884, 0.001158587988861672, -0.006854298722364586, 0.007327553406721393, -0.006345847623992715, 0.004634351955446688, -0.0025906812734386884, 0.004487192005773031, -0.006345847623992715, 0.006951527716504716, -0.006345847623992715, 0.004487192005773031, -0.0025906812734386884, 0.004634351955446688, -0.006345847623992715, 0.007327553406721393, -0.006854298722364586, 0.001158587988861672, -0.0025906812734386884, 0.004487192005773031, -0.006854298722364586, 0.00969344246423384]}
    - {mu0: 0, rank: 3, ndensity: 1, num_ms_combs: 15, mus: [0, 0, 1], ns: [1, 1, 1], ls: [2, 3, 1], ms_combs: [-2, 1, 1, -2, 2, 0, -2, 3, -1, -1, 0, 1, -1, 1, 0, -1, 2, -1, 0, -1, 1, 0, 0, 0, 0, 1, -1, 1, -2, 1, 1, -1, 0, 1, 0, -1, 2, -3, 1, 2, -2, 0, 2, -1, -1], ctildes: [-0.01110662587719629, 0.024835169347619302, -0.04301577652880668, 0.01923724143819999, -0.03141428150210289, 0.0351222332491086, -0.027205566550374434, 0.0333198750877584, -0.027205566550374434, 0.0351222332491086, -0.03141428150210289, 0.01923724143819999, -0.04301577652880668, 0.024835169347619302, -0.01110662587719629]}
    - {mu0: 0, rank: 3, ndensity: 1, num_ms_combs: 29, mus: [0, 0, 0], ns: [1, 1, 1], ls: [2, 3, 3], ms_combs: [-2, -1, 3, -2, 0, 2, -2, 1, 1, -2, 2, 0, -2, 3, -1, -1, -2, 3, -1, -1, 2, -1, 0, 1, -1, 1, 0, -1, 2, -1, -1, 3, -2, 0, -3, 3, 0, -2, 2, 0, -1, 1, 0, 0, 0, 0, 1, -1, 0, 2, -2, 0, 3, -3, 1, -3, 2, 1, -2, 1, 1, -1, 0, 1, 0, -1, 1, 1, -2, 1, 2, -3, 2, -3, 1, 2, -2, 0, 2, -1, -1, 2, 0, -2, 2, 1, -3], ctildes: [0.024806736433258758, -0.03508201978029026, 0.03843042946456616, -0.03508201978029026, 0.024806736433258758, -0.03922289166954292, 0.03038192133754872, -0.011093909101389167, -0.011093909101389167, 0.03038192133754872, -0.03922289166954292, 0.03922289166954292, -0.0, -0.023533735959965895, 0.03137831381475441, -0.023533735959965895, -0.0, 0.03922289166954292, -0.03922289166954292, 0.03038192133754872, -0.011093909101389167, -0.011093909101389167, 0.03038192133754872, -0.03922289166954292, 0.024806736433258758, -0.03508201978029026, 0.03843042946456616, -0.03508201978029026, 0.024806736433258758]}
    - {mu0: 0, rank: 3, ndensity: 1, num_ms_combs: 29, mus: [0, 0, 1], ns: [1, 1, 1], ls: [2, 3, 3], ms_combs: [-2, -1, 3, -2, 0, 2, -2, 1, 1, -2, 2, 0, -2, 3, -1, -1, -2, 3, -1, -1, 2, -1, 0, 1, -1, 1, 0, -1, 2, -1, -1, 3, -2, 0, -3, 3, 0, -2, 2, 0, -1, 1, 0, 0, 0, 0, 1, -1, 0, 2, -2, 0, 3, -3, 1, -3, 2, 1, -2, 1, 1, -1, 0, 1, 0, -1, 1, 1, -2, 1, 2, -3, 2, -3, 1, 2, -2, 0, 2, -1, -1, 2, 0, -2, 2, 1, -3], ctildes: [-0.04971186859655656, 0.07030319212330528, -0.07701329293322041, 0.07030319212330528, -0.04971186859655656, 0.07860136063843959, -0.06088435233335256, 0.022231822108247916, 0.022231822108247916, -0.06088435233335256, 0.07860136063843959, -0.07860136063843959, 0.0, 0.0471608183033449, -0.06288108947089224, 0.0471608183033449, 0.0, -0.07860136063843959, 0.07860136063843959, -0.06088435233335256, 0.022231822108247916, 0.022231822108247916, -0.06088435233335256, 0.07860136063843959, -0.04971186859655656, 0.07030319212330528, -0.07701329293322041, 0.07030319212330528, -0.04971186859655656]}
    - {mu0: 0, rank: 3, ndensity: 1, num_ms_combs: 29, mus: [0, 1, 1], ns: [1, 1, 1], ls: [2, 3, 3], ms_combs: [-2, -1, 3, -2, 0, 2, -2, 1, 1, -2, 2, 0, -2, 3, -1, -1, -2, 3, -1, -1, 2, -1, 0, 1, -1, 1, 0, -1, 2, -1, -1, 3, -2, 0, -3, 3, 0, -2, 2, 0, -1, 1, 0, 0, 0, 0, 1, -1, 0, 2, -2, 0, 3, -3, 1, -3, 2, 1, -2, 1, 1, -1, 0, 1, 0, -1, 1, 1, -2, 1, 2, -3, 2, -3, 1, 2, -2, 0, 2, -1, -1, 2, 0, -2, 2, 1, -3], ctildes: [0.03118709267025162, -0.04410520524903181, 0.04831483449238013, -0.04410520524903181, 0.03118709267025162, -0.049311120009049185, 0.038196229431617934, -0.013947290976837336, -0.013947290976837336, 0.038196229431617934, -0.049311120009049185, 0.049311120009049185, -0.0, -0.02958667321013148, 0.039448896609590334, -0.02958667321013148, -0.0, 0.049311120009049185, -0.049311120009049185, 0.038196229431617934, -0.013947290976837336, -0.013947290976837336, 0.038196229431617934, -0.049311120009049185, 0.03118709267025162, -0.04410520524903181, 0.04831483449238013, -0.04410520524903181, 0.03118709267025162]}
    - {mu0: 0, rank: 3, ndensity: 1, num_ms_combs: 29, mus: [1, 1, 1], ns: [1, 1, 1], ls: [2, 3, 3], ms_combs: [-2, -1, 3, -2, 0, 2, -2, 1, 1, -2, 2, 0, -2, 3, -1, -1, -2, 3, -1, -1, 2, -1, 0, 1, -1, 1, 0, -1, 2, -1, -1, 3, -2, 0, -3, 3, 0, -2, 2, 0, -1, 1, 0, 0, 0, 0, 1, -1, 0, 2, -2, 0, 3, -3, 1, -3, 2, 1, -2, 1, 1, -1, 0, 1, 0, -1, 1, 1, -2, 1, 2, -3, 2, -3, 1, 2, -2, 0, 2, -1, -1, 2, 0, -2, 2, 1, -3], ctildes: [-0.02470418875076745, 0.034936995470653154, -0.03827156328362616, 0.034936995470653154, -0.02470418875076745, 0.03906074955737347, -0.030256326597136927, 0.011048048386450807, 0.011048048386450807, -0.030256326597136927, 0.03906074955737347, -0.03906074955737347, 0.0, 0.023436450688702995, -0.031248600123038234, 0.023436450688702995, 0.0, -0.03906074955737347, 0.03906074955737347, -0.030256326597136927, 0.011048048386450807, 0.011048048386450807, -0.030256326597136927, 0.03906074955737347, -0.02470418875076745, 0.034936995470653154, -0.03827156328362616, 0.034936995470653154, -0.02470418875076745]}
    - {mu0: 0, rank: 3, ndensity: 1, num_ms_combs: 25, mus: [0, 0, 1], ns: [1, 1, 1], ls: [2, 4, 2], ms_combs: [-2, 0, 2, -2, 1, 1, -2, 2, 0, -2, 3, -1, -2, 4, -2, -1, -1, 2, -1, 0, 1, -1, 1, 0, -1, 2, -1, -1, 3, -2, 0, -2, 2, 0, -1, 1, 0, 0, 0, 0, 1, -1, 0, 2, -2, 1, -3, 2, 1, -2, 1, 1, -1, 0, 1, 0, -1, 1, 1, -2, 2, -4, 2, 2, -3, 1, 2, -2, 0, 2, -1, -1, 2, 0, -2], ctildes: [0.0005242536765481037, -0.0011722668532810948, 0.0020304257674163026, -0.0031015264614379077, 0.0043862205070196725, -0.0011722668532810948, 0.002097014706192415, -0.0028714553857801593, 0.0033156711881249467, -0.0031015264614379077, 0.0020304257674163026, -0.0028714553857801593, 0.003145521961248948, -0.0028714553857801593, 0.0020304257674163026, -0.0031015264614379077, 0.0033156711881249467, -0.0028714553857801593, 0.002097014706192415, -0.0011722668532810948, 0.0043862205070196725, -0.0031015264614379077, 0.0020304257674163026, -0.0011722668532810948, 0.0005242536765481037]}
    - {mu0: 0, rank: 3, ndensity: 1, num_ms_combs: 39, mus: [0, 0, 0], ns: [1, 1, 1], ls: [2, 4, 4], ms_combs: [-2, -2, 4, -2, -1, 3, -2, 0, 2, -2, 1, 1, -2, 2, 0, -2, 3, -1, -2, 4, -2, -1, -3, 4, -1, -2, 3, -1, -1, 2, -1, 0, 1, -1, 1, 0, -1, 2, -1, -1, 3, -2, -1, 4, -3, 0, -4, 4, 0, -3, 3, 0, -2, 2, 0, -1, 1, 0, 0, 0, 0, 1, -1, 0, 2, -2, 0, 3, -3, 0, 4, -4, 1, -4, 3, 1, -3, 2, 1, -2, 1, 1, -1, 0, 1, 0, -1, 1, 1, -2, 1, 2, -3, 1, 3, -4, 2, -4, 2, 2, -3, 1, 2, -2, 0, 2, -1, -1, 2, 0, -2, 2, 1, -3, 2, 2, -4], ctildes: [-0.01690575900933048, 0.025358639086029644, -0.030309370745349576, 0.03194888174995962, -0.030309370745349576, 0.025358639086029644, -0.01690575900933048, 0.03162778080357527, -0.02988544326900031, 0.02033214496573665, -0.0071439875188937995, -0.0071439875188937995, 0.02033214496573665, -0.02988544326900031, 0.03162778080357527, -0.03652061347728733, 0.009130153369321832, 0.01043446164726372, -0.02217323157246933, 0.026086154118159302, -0.02217323157246933, 0.01043446164726372, 0.009130153369321832, -0.03652061347728733, 0.03162778080357527, -0.02988544326900031, 0.02033214496573665, -0.0071439875188937995, -0.0071439875188937995, 0.02033214496573665, -0.02988544326900031, 0.03162778080357527, -0.01690575900933048, 0.025358639086029644, -0.030309370745349576, 0.03194888174995962, -0.030309370745349576, 0.025358639086029644, -0.01690575900933048]}
    - {mu0: 0, rank: 3, ndensity: 1, num_ms_combs: 39, mus: [0, 0, 1], ns: [1, 1, 1], ls: [2, 4, 4], ms_combs: [-2, -2, 4, -2, -1, 3, -2, 0, 2, -2, 1, 1, -2, 2, 0, -2, 3, -1, -2, 4, -2, -1, -3, 4, -1, -2, 3, -1, -1, 2, -1, 0, 1, -1, 1, 0, -1, 2, -1, -1, 3, -2, -1, 4, -3, 0, -4, 4, 0, -3, 3, 0, -2, 2, 0, -1, 1, 0, 0, 0, 0, 1, -1, 0, 2, -2, 0, 3, -3, 0, 4, -4, 1, -4, 3, 1, -3, 2, 1, -2, 1, 1, -1, 0, 1, 0, -1, 1, 1, -2, 1, 2, -3, 1, 3, -4, 2, -4, 2, 2, -3, 1, 2, -2, 0, 2, -1, -1, 2, 0, -2, 2, 1, -3, 2, 2, -4], ctildes: [0.030399048956072233, -0.04559857446270974, 0.054500720411731145, -0.057448803089690345, 0.054500720411731145, -0.04559857446270974, 0.030399048956072233, -0.056871416213206905, 0.0537384362634564, -0.0365601964309477, 0.012845943575119154, 0.012845943575119154, -0.0365601964309477, 0.0537384362634564, -0.056871416213206905, 0.065669451243752, -0.016417362810938, -0.01876270153090216, 0.039870741781768484, -0.0469067538272554, 0.039870741781768484, -0.01876270153090216, -0.016417362810938, 0.065669451243752, -0.056871416213206905, 0.0537384362634564, -0.0365601964309477, 0.012845943575119154, 0.012845943575119154, -0.0365601964309477, 0.0537384362634564, -0.056871416213206905, 0.030399048956072233, -0.04559857446270974, 0.054500720411731145, -0.057448803089690345, 0.054500720411731145, -0.04559857446270974, 0.030399048956072233]}
    - {mu0: 0, rank: 3, ndensity: 1, num_ms_combs: 39, mus: [0, 1, 1], ns: [1, 1, 1], ls: [2, 4, 4], ms_combs: [-2, -2, 4, -2, -1, 3, -2, 0, 2, -2, 1, 1, -2, 2, 0, -2, 3, -1, -2, 4, -2, -1, -3, 4, -1, -2, 3, -1, -1, 2, -1, 0, 1, -1, 1, 0, -1, 2, -1, -1, 3, -2, -1, 4, -3, 0, -4, 4, 0, -3, 3, 0, -2, 2, 0, -1, 1, 0, 0, 0, 0, 1, -1, 0, 2, -2, 0, 3, -3, 0, 4, -4, 1, -4, 3, 1, -3, 2, 1, -2, 1, 1, -1, 0, 1, 0, -1, 1, 1, -2, 1, 2, -3, 1, 3, -4, 2, -4, 2, 2, -3, 1, 2, -2, 0, 2, -1, -1, 2, 0, -2, 2, 1, -3, 2, 2, -4], ctildes: [-0.016659449680234372, 0.024989175084051202, -0.029867776802747412, 0.031483400867092406, -0.029867776802747412, 0.024989175084051202, -0.016659449680234372, 0.031166978217531782, -0.029450025759661352, 0.02003591472947033, -0.00703990282373882, -0.00703990282373882, 0.02003591472947033, -0.029450025759661352, 0.031166978217531782, -0.03598852451288151, 0.008997131128220377, 0.01028243621933717, -0.021850177529791133, 0.025706090548342924, -0.021850177529791133, 0.01028243621933717, 0.008997131128220377, -0.03598852451288151, 0.031166978217531782, -0.029450025759661352, 0.02003591472947033, -0.00703990282373882, -0.00703990282373882, 0.02003591472947033, -0.029450025759661352, 0.031166978217531782, -0.016659449680234372, 0.024989175084051202, -0.029867776802747412, 0.031483400867092406, -0.029867776802747412, 0.024989175084051202, -0.016659449680234372]}
    - {mu0: 0, rank: 3, ndensity: 1, num_ms_combs: 39, mus: [1, 1, 1], ns: [1, 1, 1], ls: [2, 4, 4], ms_combs: [-2, -2, 4, -2, -1, 3, -2, 0, 2, -2, 1, 1, -2, 2, 0, -2, 3, -1, -2, 4, -2, -1, -3, 4, -1, -2, 3, -1, -1, 2, -1, 0, 1, -1, 1, 0, -1, 2, -1, -1, 3, -2, -1, 4, -3, 0, -4, 4, 0, -3, 3, 0, -2, 2, 0, -1, 1, 0, 0, 0, 0, 1, -1, 0, 2, -2, 0, 3, -3, 0, 4, -4, 1, -4, 3, 1, -3, 2, 1, -2, 1, 1, -1, 0, 1, 0, -1, 1, 1, -2, 1, 2, -3, 1, 3, -4, 2, -4, 2, 2, -3, 1, 2, -2, 0, 2, -1, -1, 2, 0, -2, 2, 1, -3, 2, 2, -4], ctildes: [0.012798570086319062, -0.01919785556253908, 0.02294582606687399, -0.024187024198718415, 0.02294582606687399, -0.01919785556253908, 0.012798570086319062, -0.02394393348833887, 0.02262489013524395, -0.015392528794806556, 0.00540838331517018, 0.00540838331517018, -0.015392528794806556, 0.02262489013524395, -0.02394393348833887, 0.027648071342224894, -0.0069120178355562235, -0.00789944944984767, 0.01678633051398679, -0.01974862362461918, 0.01678633051398679, -0.00789944944984767, -0.0069120178355562235, 0.027648071342224894, -0.02394393348833887, 0.02262489013524395, -0.015392528794806556, 0.00540838331517018, 0.00540838331517018, -0.015392528794806556, 0.02262489013524395, -0.02394393348833887, 0.012798570086319062, -0.01919785556253908, 0.02294582606687399, -0.024187024198718415, 0.02294582606687399, -0.01919785556253908, 0.012798570086319062]}
    - {mu0: 0, rank: 3, ndensity: 1, num_ms_combs: 7, mus: [0, 1, 1], ns: [1, 1, 1], ls: [3, 0, 3], ms_combs: [-3, 0, 3, -2, 0, 2, -1, 0, 1, 0, 0, 0, 1, 0, -1, 2, 0, -2, 3, 0, -3], ctildes: [-0.0027432488105308983, 0.0027432488105308983, -0.0027432488105308983, 0.0027432488105308983, -0.0027432488105308983, 0.0027432488105308983, -0.0027432488105308983]}
    - {mu0: 0, rank: 3, ndensity: 1, num_ms_combs: 15, mus: [0, 1, 1], ns: [1, 1, 1], ls: [3, 1, 2], ms_combs: [-3, 1, 2, -2, 0, 2, -2, 1, 1, -1, -1, 2, -1, 0, 1, -1, 1, 0, 0, -1, 1, 0, 0, 0, 0, 1, -1, 1, -1, 0, 1, 0, -1, 1, 1, -2, 2, -1, -1, 2, 0, -2, 3, -1, -2], ctildes: [0.008917491435442657, -0.005148515912687324, -0.0072811017192475, 0.0023024864161230872, 0.006512415655314311, 0.0056399169394713115, -0.003988023336711163, -0.0069074594241542745, -0.003988023336711163, 0.0056399169394713115, 0.006512415655314311, 0.0023024864161230872, -0.0072811017192475, -0.005148515912687324, 0.008917491435442657]}
    - {mu0: 0, rank: 3, ndensity: 1, num_ms_combs: 21, mus: [0, 1, 1], ns: [1, 1, 1], ls: [3, 1, 4], ms_combs: [-3, -1, 4, -3, 0, 3, -3, 1, 2, -2, -1, 3, -2, 0, 2, -2, 1, 1, -1, -1, 2, -1, 0, 1, -1, 1, 0, 0, -1, 1, 0, 0, 0, 0, 1, -1, 1, -1, 0, 1, 0, -1, 1, 1, -2, 2, -1, -1, 2, 0, -2, 2, 1, -3, 3, -1, -2, 3, 0, -3, 3, 1, -4], ctildes: [0.013272479805833707, -0.006636239902916854, 0.002508262801778661, -0.011494304134208546, 0.008688877532528708, -0.004344438766264354, 0.009714460623013533, -0.009714460623013533, 0.006143964386363979, -0.007931823139376534, 0.010033051207114644, -0.007931823139376534, 0.006143964386363979, -0.009714460623013533, 0.009714460623013533, -0.004344438766264354, 0.008688877532528708, -0.011494304134208546, 0.002508262801778661, -0.006636239902916854, 0.013272479805833707]}
    - {mu0: 0, rank: 3, ndensity: 1, num_ms_combs: 29, mus: [0, 1, 1], ns: [1, 1, 1], ls: [3, 2, 3], ms_combs: [-3, 0, 3, -3, 1, 2, -3, 2, 1, -2, -1, 3, -2, 0, 2, -2, 1, 1, -2, 2, 0, -1, -2, 3, -1, -1, 2, -1, 0, 1, -1, 1, 0, -1, 2, -1, 0, -2, 2, 0, -1, 1, 0, 0, 0, 0, 1, -1, 0, 2, -2, 1, -2, 1, 1, -1, 0, 1, 0, -1, 1, 1, -2, 1, 2, -3, 2, -2, 0, 2, -1, -1, 2, 0, -2, 2, 1, -3, 3, -2, -1, 3, -1, -2, 3, 0, -3], ctildes: [0.08962106910737817, -0.08962106910737817, 0.05668134463273006, -0.08962106910737817, -0.0, 0.06942018183533667, -0.08015951872302231, 0.05668134463273006, 0.06942018183533667, -0.05377264365392652, -0.02534866635084472, 0.08781035839702132, -0.08015951872302231, -0.02534866635084472, 0.07169685638065235, -0.02534866635084472, -0.08015951872302231, 0.08781035839702132, -0.02534866635084472, -0.05377264365392652, 0.06942018183533667, 0.05668134463273006, -0.08015951872302231, 0.06942018183533667, -0.0, -0.08962106910737817, 0.05668134463273006, -0.08962106910737817, 0.08962106910737817]}
    - {mu0: 0, rank: 3, ndensity: 1, num_ms_combs: 7, mus: [0, 0, 1], ns: [1, 1, 1], ls: [3, 3, 0], ms_combs: [-3, 3, 0, -2, 2, 0, -1, 1, 0, 0, 0, 0, 1, -1, 0, 2, -2, 0, 3, -3, 0], ctildes: [0.008281484681095462, -0.008281484681095462, 0.008281484681095462, -0.008281484681095462, 0.008281484681095462, -0.008281484681095462, 0.008281484681095462]}
    - {mu0: 0, rank: 3, ndensity: 1, num_ms_combs: 29, mus: [0, 0, 1], ns: [1, 1, 1], ls: [3, 3, 2], ms_combs: [-3, 1, 2, -3, 2, 1, -3, 3, 0, -2, 0, 2, -2, 1, 1, -2, 2, 0, -2, 3, -1, -1, -1, 2, -1, 0, 1, -1, 1, 0, -1, 2, -1, -1, 3, -2, 0, -2, 2, 0, -1, 1, 0, 0, 0, 0, 1, -1, 0, 2, -2, 1, -3, 2, 1, -2, 1, 1, -1, 0, 1, 0, -1, 1, 1, -2, 2, -3, 1, 2, -2, 0, 2, -1, -1, 2, 0, -2, 3, -3, 0, 3, -2, -1, 3, -1, -2], ctildes: [-0.026368456280637383, 0.04169218994765356, -0.04169218994765356, 0.037290624959952404, -0.03229462959250207, -0.0, 0.04169218994765356, -0.04084983536262016, 0.01179233267917052, 0.02501531345930883, -0.03229462959250207, -0.026368456280637383, 0.037290624959952404, 0.01179233267917052, -0.03335375043027294, 0.01179233267917052, 0.037290624959952404, -0.026368456280637383, -0.03229462959250207, 0.02501531345930883, 0.01179233267917052, -0.04084983536262016, 0.04169218994765356, -0.0, -0.03229462959250207, 0.037290624959952404, -0.04169218994765356, 0.04169218994765356, -0.026368456280637383]}
    - {mu0: 0, rank: 3, ndensity: 1, num_ms_combs: 43, mus: [0, 0, 0], ns: [1, 1, 1], ls: [3, 3, 4], ms_combs: [-3, -1, 4, -3, 0, 3, -3, 1, 2, -3, 2, 1, -3, 3, 0, -2, -2, 4, -2, -1, 3, -2, 0, 2, -2, 1, 1, -2, 2, 0, -2, 3, -1, -1, -3, 4, -1, -2, 3, -1, -1, 2, -1, 0, 1, -1, 1, 0, -1, 2, -1, -1, 3, -2, 0, -3, 3, 0, -2, 2, 0, -1, 1, 0, 0, 0, 0, 1, -1, 0, 2, -2, 0, 3, -3, 1, -3, 2, 1, -2, 1, 1, -1, 0, 1, 0, -1, 1, 1, -2, 1, 2, -3, 1, 3, -4, 2, -3, 1, 2, -2, 0, 2, -1, -1, 2, 0, -2, 2, 1, -3, 2, 2, -4, 3, -3, 0, 3, -2, -1, 3, -1, -2, 3, 0, -3, 3, 1, -4], ctildes: [-0.012068378541724383, 0.01478068475230145, -0.013684255619634404, 0.010199642182608043, -0.005586574200391555, 0.015580211074222045, -0.006967681931086373, -0.0032254101272300426, 0.010534145320433175, -0.013035339284383048, 0.010199642182608043, -0.012068378541724383, -0.006967681931086373, 0.011777532568565155, -0.007212235917088444, -0.0018621914001305184, 0.010534145320433175, -0.013684255619634404, 0.01478068475230145, -0.0032254101272300426, -0.007212235917088444, 0.01117314840078311, -0.007212235917088444, -0.0032254101272300426, 0.01478068475230145, -0.013684255619634404, 0.010534145320433175, -0.0018621914001305184, -0.007212235917088444, 0.011777532568565155, -0.006967681931086373, -0.012068378541724383, 0.010199642182608043, -0.013035339284383048, 0.010534145320433175, -0.0032254101272300426, -0.006967681931086373, 0.015580211074222045, -0.005586574200391555, 0.010199642182608043, -0.013684255619634404, 0.01478068475230145, -0.012068378541724383]}
    - {mu0: 0, rank: 3, ndensity: 1, num_ms_combs: 43, mus: [0, 0, 1], ns: [1, 1, 1], ls: [3, 3, 4], ms_combs: [-3, -1, 4, -3, 0, 3, -3, 1, 2, -3, 2, 1, -3, 3, 0, -2, -2, 4, -2, -1, 3, -2, 0, 2, -2, 1, 1, -2, 2, 0, -2, 3, -1, -1, -3, 4, -1, -2, 3, -1, -1, 2, -1, 0, 1, -1, 1, 0, -1, 2, -1, -1, 3, -2, 0, -3, 3, 0, -2, 2, 0, -1, 1, 0, 0, 0, 0, 1, -1, 0, 2, -2, 0, 3, -3, 1, -3, 2, 1, -2, 1, 1, -1, 0, 1, 0, -1, 1, 1, -2, 1, 2, -3, 1, 3, -4, 2, -3, 1, 2, -2, 0, 2, -1, -1, 2, 0, -2, 2, 1, -3, 2, 2, -4, 3, -3, 0, 3, -2, -1, 3, -1, -2, 3, 0, -3, 3, 1, -4], ctildes: [0.013330050943655256, -0.016325911558797913, 0.015114857717221016, -0.011265950055440793, 0.006170615085884524, -0.017209023284631465, 0.007696108866609726, 0.003562606290605693, -0.011635423373882495, 0.014398101296533313, -0.011265950055440793, 0.013330050943655256, 0.007696108866609726, -0.013008798869437873, 0.007966229420138185, 0.0020568716952948413, -0.011635423373882495, 0.015114857717221016, -0.016325911558797913, 0.003562606290605693, 0.007966229420138185, -0.012341230171769049, 0.007966229420138185, 0.003562606290605693, -0.016325911558797913, 0.015114857717221016, -0.011635423373882495, 0.0020568716952948413, 0.007966229420138185, -0.013008798869437873, 0.007696108866609726, 0.013330050943655256, -0.011265950055440793, 0.014398101296533313, -0.011635423373882495, 0.003562606290605693, 0.007696108866609726, -0.017209023284631465, 0.006170615085884524, -0.011265950055440793, 0.015114857717221016, -0.016325911558797913, 0.013330050943655256]}
    - {mu0: 0, rank: 3, ndensity: 1, num_ms_combs: 43, mus: [0, 1, 1], ns: [1, 1, 1], ls: [3, 3, 4], ms_combs: [-3, -1, 4, -3, 0, 3, -3, 1, 2, -3, 2, 1, -3, 3, 0, -2, -2, 4, -2, -1, 3, -2, 0, 2, -2, 1, 1, -2, 2, 0, -2, 3, -1, -1, -3, 4, -1, -2, 3, -1, -1, 2, -1, 0, 1, -1, 1, 0, -1, 2, -1, -1, 3, -2, 0, -3, 3, 0, -2, 2, 0, -1, 1, 0, 0, 0, 0, 1, -1, 0, 2, -2, 0, 3, -3, 1, -3, 2, 1, -2, 1, 1, -1, 0, 1, 0, -1, 1, 1, -2, 1, 2, -3, 1, 3, -4, 2, -3, 1, 2, -2, 0, 2, -1, -1, 2, 0, -2, 2, 1, -3, 2, 2, -4, 3, -3, 0, 3, -2, -1, 3, -1, -2, 3, 0, -3, 3, 1, -4], ctildes: [-0.030883365109803634, 0.037824243099438756, -0.03501844602370802, 0.02610120924080909, -0.014296221331407585, 0.03987025642504032, -0.017830520007534954, -0.008253927256566703, 0.02695721342563908, -0.03335784845146616, 0.02610120924080909, -0.030883365109803634, -0.017830520007534954, 0.03013908099999238, -0.01845634144764373, -0.004765407110469196, 0.02695721342563908, -0.03501844602370802, 0.037824243099438756, -0.008253927256566703, -0.01845634144764373, 0.02859244266281517, -0.01845634144764373, -0.008253927256566703, 0.037824243099438756, -0.03501844602370802, 0.02695721342563908, -0.004765407110469196, -0.01845634144764373, 0.03013908099999238, -0.017830520007534954, -0.030883365109803634, 0.02610120924080909, -0.03335784845146616, 0.02695721342563908, -0.008253927256566703, -0.017830520007534954, 0.03987025642504032, -0.014296221331407585, 0.02610120924080909, -0.03501844602370802, 0.037824243099438756, -0.030883365109803634]}
    - {mu0: 0, rank: 3, ndensity: 1, num_ms_combs: 43, mus: [1, 1, 1], ns: [1, 1, 1], ls: [3, 3, 4], ms_combs: [-3, -1, 4, -3, 0, 3, -3, 1, 2, -3, 2, 1, -3, 3, 0, -2, -2, 4, -2, -1, 3, -2, 0, 2, -2, 1, 1, -2, 2, 0, -2, 3, -1, -1, -3, 4, -1, -2, 3, -1, -1, 2, -1, 0, 1, -1, 1, 0, -1, 2, -1, -1, 3, -2, 0, -3, 3, 0, -2, 2, 0, -1, 1, 0, 0, 0, 0, 1, -1, 0, 2, -2, 0, 3, -3, 1, -3, 2, 1, -2, 1, 1, -1, 0, 1, 0, -1, 1, 1, -2, 1, 2, -3, 1, 3, -4, 2, -3, 1, 2, -2, 0, 2, -1, -1, 2, 0, -2, 2, 1, -3, 2, 2, -4, 3, -3, 0, 3, -2, -1, 3, -1, -2, 3, 0, -3, 3, 1, -4], ctildes: [0.013615354006224661, -0.016675335022117783, 0.01543836099678474, -0.011507075169452537, 0.006302684752338258, -0.017577347987041587, 0.007860828674417845, 0.0036388567482922504, -0.011884456324836099, 0.014706263839380963, -0.011507075169452537, 0.013615354006224661, 0.007860828674417845, -0.013287226174291244, 0.008136730617793226, 0.002100894917446086, -0.011884456324836099, 0.01543836099678474, -0.016675335022117783, 0.0036388567482922504, 0.008136730617793226, -0.012605369504676516, 0.008136730617793226, 0.0036388567482922504, -0.016675335022117783, 0.01543836099678474, -0.011884456324836099, 0.002100894917446086, 0.008136730617793226, -0.013287226174291244, 0.007860828674417845, 0.013615354006224661, -0.011507075169452537, 0.014706263839380963, -0.011884456324836099, 0.0036388567482922504, 0.007860828674417845, -0.017577347987041587, 0.006302684752338258, -0.011507075169452537, 0.01543836099678474, -0.016675335022117783, 0.013615354006224661]}
    - {mu0: 0, rank: 3, ndensity: 1, num_ms_combs: 21, mus: [0, 0, 1], ns: [1, 1, 1], ls: [3, 4, 1], ms_combs: [-3, 2, 1, -3, 3, 0, -3, 4, -1, -2, 1, 1, -2, 2, 0, -2, 3, -1, -1, 0, 1, -1, 1, 0, -1, 2, -1, 0, -1, 1, 0, 0, 0, 0, 1, -1, 1, -2, 1, 1, -1, 0, 1, 0, -1, 2, -3, 1, 2, -2, 0, 2, -1, -1, 3, -4, 1, 3, -3, 0, 3, -2, -1], ctildes: [-0.00023565745626296817, 0.0006234909969328183, -0.0012469819938656366, 0.00040817067410609144, -0.0008163413482121829, 0.001079918129734929, -0.0005772405019969905, 0.0009126974007432745, -0.0009126974007432745, 0.0007452143384056296, -0.0009426298250518727, 0.0007452143384056296, -0.0009126974007432745, 0.0009126974007432745, -0.0005772405019969905, 0.001079918129734929, -0.0008163413482121829, 0.00040817067410609144, -0.0012469819938656366, 0.0006234909969328183, -0.00023565745626296817]}
    - {mu0: 0, rank: 3, ndensity: 1, num_ms_combs: 43, mus: [0, 0, 1], ns: [1, 1, 1], ls: [3, 4, 3], ms_combs: [-3, 0, 3, -3, 1, 2, -3, 2, 1, -3, 3, 0, -3, 4, -1, -2, -1, 3, -2, 0, 2, -2, 1, 1, -2, 2, 0, -2, 3, -1, -2, 4, -2, -1, -2, 3, -1, -1, 2, -1, 0, 1, -1, 1, 0, -1, 2, -1, -1, 3, -2, -1, 4, -3, 0, -3, 3, 0, -2, 2, 0, -1, 1, 0, 0, 0, 0, 1, -1, 0, 2, -2, 0, 3, -3, 1, -4, 3, 1, -3, 2, 1, -2, 1, 1, -1, 0, 1, 0, -1, 1, 1, -2, 1, 2, -3, 2, -4, 2, 2, -3, 1, 2, -2, 0, 2, -1, -1, 2, 0, -2, 2, 1, -3, 3, -4, 1, 3, -3, 0, 3, -2, -1, 3, -1, -2, 3, 0, -3], ctildes: [0.007658170188924824, -0.013981841625781035, 0.018758608529099313, -0.02026161350285034, 0.01654353837845279, -0.013981841625781035, 0.01786906448222676, -0.014440384171947287, 0.004421446278085513, 0.009551415972746932, -0.02135761626103543, 0.018758608529099313, -0.014440384171947287, 0.0025527233963082746, 0.00988665470367662, -0.016144840394199955, 0.009551415972746932, 0.01654353837845279, -0.02026161350285034, 0.004421446278085513, 0.00988665470367662, -0.015316340377849649, 0.00988665470367662, 0.004421446278085513, -0.02026161350285034, 0.01654353837845279, 0.009551415972746932, -0.016144840394199955, 0.00988665470367662, 0.0025527233963082746, -0.014440384171947287, 0.018758608529099313, -0.02135761626103543, 0.009551415972746932, 0.004421446278085513, -0.014440384171947287, 0.01786906448222676, -0.013981841625781035, 0.01654353837845279, -0.02026161350285034, 0.018758608529099313, -0.013981841625781035, 0.007658170188924824]}
    - {mu0: 0, rank: 3, ndensity: 1, num_ms_combs: 9, mus: [0, 1, 1], ns: [1, 1, 1], ls: [4, 0, 4], ms_combs: [-4, 0, 4, -3, 0, 3, -2, 0, 2, -1, 0, 1, 0, 0, 0, 1, 0, -1, 2, 0, -2, 3, 0, -3, 4, 0, -4], ctildes: [-0.04161175011294268, 0.04161175011294268, -0.04161175011294268, 0.04161175011294268, -0.04161175011294268, 0.04161175011294268, -0.04161175011294268, 0.04161175011294268, -0.04161175011294268]}
    - {mu0: 0, rank: 3, ndensity: 1, num_ms_combs: 21, mus: [0, 1, 1], ns: [1, 1, 1], ls: [4, 1, 3], ms_combs: [-4, 1, 3, -3, 0, 3, -3, 1, 2, -2, -1, 3, -2, 0, 2, -2, 1, 1, -1, -1, 2, -1, 0, 1, -1, 1, 0, 0, -1, 1, 0, 0, 0, 0, 1, -1, 1, -1, 0, 1, 0, -1, 1, 1, -2, 2, -1, -1, 2, 0, -2, 2, 1, -3, 3, -1, -2, 3, 0, -3, 4, -1, -3], ctildes: [0.0228337739104365, -0.01141688695521825, -0.019774627326458925, 0.0043151774620593854, 0.014948212727975306, 0.016712610395712143, -0.007474106363987653, -0.016712610395712143, -0.01364578879844947, 0.01056998358741873, 0.017260709848237542, 0.01056998358741873, -0.01364578879844947, -0.016712610395712143, -0.007474106363987653, 0.016712610395712143, 0.014948212727975306, 0.0043151774620593854, -0.019774627326458925, -0.01141688695521825, 0.0228337739104365]}
    - {mu0: 0, rank: 3, ndensity: 1, num_ms_combs: 25, mus: [0, 1, 1], ns: [1, 1, 1], ls: [4, 2, 2], ms_combs: [-4, 2, 2, -3, 1, 2, -3, 2, 1, -2, 0, 2, -2, 1, 1, -2, 2, 0, -1, -1, 2, -1, 0, 1, -1, 1, 0, -1, 2, -1, 0, -2, 2, 0, -1, 1, 0, 0, 0, 0, 1, -1, 0, 2, -2, 1, -2, 1, 1, -1, 0, 1, 0, -1, 1, 1, -2, 2, -2, 0, 2, -1, -1, 2, 0, -2, 3, -2, -1, 3, -1, -2, 4, -2, -2], ctildes: [0.0019212536486974071, -0.0013585315697267593, -0.0013585315697267593, 0.000889367715967479, 0.0014523313084399269, 0.000889367715967479, -0.0005134766857956396, -0.001257755766763873, -0.001257755766763873, -0.0005134766857956396, 0.00022963375582671247, 0.0009185350233068499, 0.0013778024920169068, 0.0009185350233068499, 0.00022963375582671247, -0.0005134766857956396, -0.001257755766763873, -0.001257755766763873, -0.0005134766857956396, 0.000889367715967479, 0.0014523313084399269, 0.000889367715967479, -0.0013585315697267593, -0.0013585315697267593, 0.0019212536486974071]}
    - {mu0: 0, rank: 3, ndensity: 1, num_ms_combs: 39, mus: [0, 1, 1], ns: [1, 1, 1], ls: [4, 2, 4], ms_combs: [-4, 0, 4, -4, 1, 3, -4, 2, 2, -3, -1, 4, -3, 0, 3, -3, 1, 2, -3, 2, 1, -2, -2, 4, -2, -1, 3, -2, 0, 2, -2, 1, 1, -2, 2, 0, -1, -2, 3, -1, -1, 2, -1, 0, 1, -1, 1, 0, -1, 2, -1, 0, -2, 2, 0, -1, 1, 0, 0, 0, 0, 1, -1, 0, 2, -2, 1, -2, 1, 1, -1, 0, 1, 0, -1, 1, 1, -2, 1, 2, -3, 2, -2, 0, 2, -1, -1, 2, 0, -2, 2, 1, -3, 2, 2, -4, 3, -2, -1, 3, -1, -2, 3, 0, -3, 3, 1, -4, 4, -2, -2, 4, -1, -3, 4, 0, -4], ctildes: [-0.06467516014794898, 0.05601033481728342, -0.029938781615239562, 0.05601033481728342, 0.016168790036987245, -0.0529247908367449, 0.044908173435886836, -0.029938781615239562, -0.0529247908367449, 0.01847861834287399, 0.0360066441005472, -0.053675533357569645, 0.044908173435886836, 0.0360066441005472, -0.03926706499163472, -0.012651445112409003, 0.056578979567568945, -0.053675533357569645, -0.012651445112409003, 0.04619654585718497, -0.012651445112409003, -0.053675533357569645, 0.056578979567568945, -0.012651445112409003, -0.03926706499163472, 0.0360066441005472, 0.044908173435886836, -0.053675533357569645, 0.0360066441005472, 0.01847861834287399, -0.0529247908367449, -0.029938781615239562, 0.044908173435886836, -0.0529247908367449, 0.016168790036987245, 0.05601033481728342, -0.029938781615239562, 0.05601033481728342, -0.06467516014794898]}
    - {mu0: 0, rank: 3, ndensity: 1, num_ms_combs: 43, mus: [0, 1, 1], ns: [1, 1, 1], ls: [4, 3, 3], ms_combs: [-4, 1, 3, -4, 2, 2, -4, 3, 1, -3, 0, 3, -3, 1, 2, -3, 2, 1, -3, 3, 0, -2, -1, 3, -2, 0, 2, -2, 1, 1, -2, 2, 0, -2, 3, -1, -1, -2, 3, -1, -1, 2, -1, 0, 1, -1, 1, 0, -1, 2, -1, -1, 3, -2, 0, -3, 3, 0, -2, 2, 0, -1, 1, 0, 0, 0, 0, 1, -1, 0, 2, -2, 0, 3, -3, 1, -3, 2, 1, -2, 1, 1, -1, 0, 1, 0, -1, 1, 1, -2, 1, 2, -3, 2, -3, 1, 2, -2, 0, 2, -1, -1, 2, 0, -2, 2, 1, -3, 3, -3, 0, 3, -2, -1, 3, -1, -2, 3, 0, -3, 4, -3, -1, 4, -2, -2, 4, -1, -3], ctildes: [-0.01332566241994849, 0.017203356251770476, -0.01332566241994849, 0.016320536480521945, -0.007693574492570742, -0.007693574492570742, 0.016320536480521945, -0.015109880305432099, -0.0035614328181717263, 0.013004514995248398, -0.0035614328181717263, -0.015109880305432099, 0.011262240111644535, 0.011631591760343438, -0.007963606093807838, -0.007963606093807838, 0.011631591760343438, 0.011262240111644535, -0.0061685830659444114, -0.014393361057546322, -0.002056194355314804, 0.012337166131888823, -0.002056194355314804, -0.014393361057546322, -0.0061685830659444114, 0.011262240111644535, 0.011631591760343438, -0.007963606093807838, -0.007963606093807838, 0.011631591760343438, 0.011262240111644535, -0.015109880305432099, -0.0035614328181717263, 0.013004514995248398, -0.0035614328181717263, -0.015109880305432099, 0.016320536480521945, -0.007693574492570742, -0.007693574492570742, 0.016320536480521945, -0.01332566241994849, 0.017203356251770476, -0.01332566241994849]}
    - {mu0: 0, rank: 3, ndensity: 1, num_ms_combs: 9, mus: [0, 0, 1], ns: [1, 1, 1], ls: [4, 4, 0], ms_combs: [-4, 4, 0, -3, 3, 0, -2, 2, 0, -1, 1, 0, 0, 0, 0, 1, -1, 0, 2, -2, 0, 3, -3, 0, 4, -4, 0], ctildes: [0.01301243776528422, -0.01301243776528422, 0.01301243776528422, -0.01301243776528422, 0.01301243776528422, -0.01301243776528422, 0.01301243776528422, -0.01301243776528422, 0.01301243776528422]}
    - {mu0: 0, rank: 3, ndensity: 1, num_ms_combs: 39, mus: [0, 0, 1], ns: [1, 1, 1], ls: [4, 4, 2], ms_combs: [-4, 2, 2, -4, 3, 1, -4, 4, 0, -3, 1, 2, -3, 2, 1, -3, 3, 0, -3, 4, -1, -2, 0, 2, -2, 1, 1, -2, 2, 0, -2, 3, -1, -2, 4, -2, -1, -1, 2, -1, 0, 1, -1, 1, 0, -1, 2, -1, -1, 3, -2, 0, -2, 2, 0, -1, 1, 0, 0, 0, 0, 1, -1, 0, 2, -2, 1, -3, 2, 1, -2, 1, 1, -1, 0, 1, 0, -1, 1, 1, -2, 2, -4, 2, 2, -3, 1, 2, -2, 0, 2, -1, -1, 2, 0, -2, 3, -4, 1, 3, -3, 0, 3, -2, -1, 3, -1, -2, 4, -4, 0, 4, -3, -1, 4, -2, -2], ctildes: [0.012143316771400884, -0.022718066716926225, 0.02623256240053049, -0.01821497556799025, 0.021466554933671292, -0.006558140600132623, -0.022718066716926225, 0.02177105978498075, -0.01460447157827798, -0.00749501829831034, 0.021466554933671292, 0.012143316771400884, -0.02294871346227178, 0.005131487823681461, 0.015926914294798398, -0.01460447157827798, -0.01821497556799025, 0.02177105978498075, 0.005131487823681461, -0.01873754574577585, 0.005131487823681461, 0.02177105978498075, -0.01821497556799025, -0.01460447157827798, 0.015926914294798398, 0.005131487823681461, -0.02294871346227178, 0.012143316771400884, 0.021466554933671292, -0.00749501829831034, -0.01460447157827798, 0.02177105978498075, -0.022718066716926225, -0.006558140600132623, 0.021466554933671292, -0.01821497556799025, 0.02623256240053049, -0.022718066716926225, 0.012143316771400884]}
    - {mu0: 0, rank: 3, ndensity: 1, num_ms_combs: 61, mus: [0, 0, 0], ns: [1, 1, 1], ls: [4, 4, 4], ms_combs: [-4, 0, 4, -4, 1, 3, -4, 2, 2, -4, 3, 1, -4, 4, 0, -3, -1, 4, -3, 0, 3, -3, 1, 2, -3, 2, 1, -3, 3, 0, -3, 4, -1, -2, -2, 4, -2, -1, 3, -2, 0, 2, -2, 1, 1, -2, 2, 0, -2, 3, -1, -2, 4, -2, -1, -3, 4, -1, -2, 3, -1, -1, 2, -1, 0, 1, -1, 1, 0, -1, 2, -1, -1, 3, -2, -1, 4, -3, 0, -4, 4, 0, -3, 3, 0, -2, 2, 0, -1, 1, 0, 0, 0, 0, 1, -1, 0, 2, -2, 0, 3, -3, 0, 4, -4, 1, -4, 3, 1, -3, 2, 1, -2, 1, 1, -1, 0, 1, 0, -1, 1, 1, -2, 1, 2, -3, 1, 3, -4, 2, -4, 2, 2, -3, 1, 2, -2, 0, 2, -1, -1, 2, 0, -2, 2, 1, -3, 2, 2, -4, 3, -4, 1, 3, -3, 0, 3, -2, -1, 3, -1, -2, 3, 0, -3, 3, 1, -4, 4, -4, 0, 4, -3, -1, 4, -2, -2, 4, -1, -3, 4, 0, -4], ctildes: [0.0016519760008465746, -0.0026120032115507725, 0.0029617336313957896, -0.0026120032115507725, 0.0016519760008465746, -0.0026120032115507725, 0.0024779640602749014, -0.000987244465125211, -0.000987244465125211, 0.0024779640602749014, -0.0026120032115507725, 0.0029617336313957896, -0.000987244465125211, -0.0012979811688101825, 0.002238860064200774, -0.0012979811688101825, -0.000987244465125211, 0.0029617336313957896, -0.0026120032115507725, -0.000987244465125211, 0.002238860064200774, -0.0010619846141192546, -0.0010619846141192546, 0.002238860064200774, -0.000987244465125211, -0.0026120032115507725, 0.0016519760008465746, 0.0024779640602749014, -0.0012979811688101825, -0.0010619846141192546, 0.002123969228238509, -0.0010619846141192546, -0.0012979811688101825, 0.0024779640602749014, 0.0016519760008465746, -0.0026120032115507725, -0.000987244465125211, 0.002238860064200774, -0.0010619846141192546, -0.0010619846141192546, 0.002238860064200774, -0.000987244465125211, -0.0026120032115507725, 0.0029617336313957896, -0.000987244465125211, -0.0012979811688101825, 0.002238860064200774, -0.0012979811688101825, -0.000987244465125211, 0.0029617336313957896, -0.0026120032115507725, 0.0024779640602749014, -0.000987244465125211, -0.000987244465125211, 0.0024779640602749014, -0.0026120032115507725, 0.0016519760008465746, -0.0026120032115507725, 0.0029617336313957896, -0.0026120032115507725, 0.0016519760008465746]}
