elements: [In, P] 
E0: [-2.721608, 0.855224] 
deltaSplineBins: 0.001000 
embeddings:
  0: {ndensity: 1, FS_parameters: [1.0, 1.0], npoti: FinnisSinclair, rho_core_cutoff: 100000, drho_core_cutoff: 250}
  1: {ndensity: 1, FS_parameters: [1.0, 1.0], npoti: FinnisSinclair, rho_core_cutoff: 100000, drho_core_cutoff: 250}
bonds:
  [0, 0]: {nradmax: 16, lmax: 4, nradbasemax: 16, radbasename: ChebExpCos, radparameters: [1.737], radcoefficients: [[[1, 0, 0, 0, 0, 0, 0, 0, 0, 0, 0, 0, 0, 0, 0, 0], [1, 0, 0, 0, 0, 0, 0, 0, 0, 0, 0, 0, 0, 0, 0, 0], [1, 0, 0, 0, 0, 0, 0, 0, 0, 0, 0, 0, 0, 0, 0, 0], [1, 0, 0, 0, 0, 0, 0, 0, 0, 0, 0, 0, 0, 0, 0, 0], [1, 0, 0, 0, 0, 0, 0, 0, 0, 0, 0, 0, 0, 0, 0, 0]], [[0, 1, 0, 0, 0, 0, 0, 0, 0, 0, 0, 0, 0, 0, 0, 0], [0, 1, 0, 0, 0, 0, 0, 0, 0, 0, 0, 0, 0, 0, 0, 0], [0, 1, 0, 0, 0, 0, 0, 0, 0, 0, 0, 0, 0, 0, 0, 0], [0, 1, 0, 0, 0, 0, 0, 0, 0, 0, 0, 0, 0, 0, 0, 0], [0, 1, 0, 0, 0, 0, 0, 0, 0, 0, 0, 0, 0, 0, 0, 0]], [[0, 0, 1, 0, 0, 0, 0, 0, 0, 0, 0, 0, 0, 0, 0, 0], [0, 0, 1, 0, 0, 0, 0, 0, 0, 0, 0, 0, 0, 0, 0, 0], [0, 0, 1, 0, 0, 0, 0, 0, 0, 0, 0, 0, 0, 0, 0, 0], [0, 0, 1, 0, 0, 0, 0, 0, 0, 0, 0, 0, 0, 0, 0, 0], [0, 0, 1, 0, 0, 0, 0, 0, 0, 0, 0, 0, 0, 0, 0, 0]], [[0, 0, 0, 1, 0, 0, 0, 0, 0, 0, 0, 0, 0, 0, 0, 0], [0, 0, 0, 1, 0, 0, 0, 0, 0, 0, 0, 0, 0, 0, 0, 0], [0, 0, 0, 1, 0, 0, 0, 0, 0, 0, 0, 0, 0, 0, 0, 0], [0, 0, 0, 1, 0, 0, 0, 0, 0, 0, 0, 0, 0, 0, 0, 0], [0, 0, 0, 1, 0, 0, 0, 0, 0, 0, 0, 0, 0, 0, 0, 0]], [[0, 0, 0, 0, 1, 0, 0, 0, 0, 0, 0, 0, 0, 0, 0, 0], [0, 0, 0, 0, 1, 0, 0, 0, 0, 0, 0, 0, 0, 0, 0, 0], [0, 0, 0, 0, 1, 0, 0, 0, 0, 0, 0, 0, 0, 0, 0, 0], [0, 0, 0, 0, 1, 0, 0, 0, 0, 0, 0, 0, 0, 0, 0, 0], [0, 0, 0, 0, 1, 0, 0, 0, 0, 0, 0, 0, 0, 0, 0, 0]], [[0, 0, 0, 0, 0, 1, 0, 0, 0, 0, 0, 0, 0, 0, 0, 0], [0, 0, 0, 0, 0, 1, 0, 0, 0, 0, 0, 0, 0, 0, 0, 0], [0, 0, 0, 0, 0, 1, 0, 0, 0, 0, 0, 0, 0, 0, 0, 0], [0, 0, 0, 0, 0, 1, 0, 0, 0, 0, 0, 0, 0, 0, 0, 0], [0, 0, 0, 0, 0, 1, 0, 0, 0, 0, 0, 0, 0, 0, 0, 0]], [[0, 0, 0, 0, 0, 0, 1, 0, 0, 0, 0, 0, 0, 0, 0, 0], [0, 0, 0, 0, 0, 0, 1, 0, 0, 0, 0, 0, 0, 0, 0, 0], [0, 0, 0, 0, 0, 0, 1, 0, 0, 0, 0, 0, 0, 0, 0, 0], [0, 0, 0, 0, 0, 0, 1, 0, 0, 0, 0, 0, 0, 0, 0, 0], [0, 0, 0, 0, 0, 0, 1, 0, 0, 0, 0, 0, 0, 0, 0, 0]], [[0, 0, 0, 0, 0, 0, 0, 1, 0, 0, 0, 0, 0, 0, 0, 0], [0, 0, 0, 0, 0, 0, 0, 1, 0, 0, 0, 0, 0, 0, 0, 0], [0, 0, 0, 0, 0, 0, 0, 1, 0, 0, 0, 0, 0, 0, 0, 0], [0, 0, 0, 0, 0, 0, 0, 1, 0, 0, 0, 0, 0, 0, 0, 0], [0, 0, 0, 0, 0, 0, 0, 1, 0, 0, 0, 0, 0, 0, 0, 0]], [[0, 0, 0, 0, 0, 0, 0, 0, 1, 0, 0, 0, 0, 0, 0, 0], [0, 0, 0, 0, 0, 0, 0, 0, 1, 0, 0, 0, 0, 0, 0, 0], [0, 0, 0, 0, 0, 0, 0, 0, 1, 0, 0, 0, 0, 0, 0, 0], [0, 0, 0, 0, 0, 0, 0, 0, 1, 0, 0, 0, 0, 0, 0, 0], [0, 0, 0, 0, 0, 0, 0, 0, 1, 0, 0, 0, 0, 0, 0, 0]], [[0, 0, 0, 0, 0, 0, 0, 0, 0, 1, 0, 0, 0, 0, 0, 0], [0, 0, 0, 0, 0, 0, 0, 0, 0, 1, 0, 0, 0, 0, 0, 0], [0, 0, 0, 0, 0, 0, 0, 0, 0, 1, 0, 0, 0, 0, 0, 0], [0, 0, 0, 0, 0, 0, 0, 0, 0, 1, 0, 0, 0, 0, 0, 0], [0, 0, 0, 0, 0, 0, 0, 0, 0, 1, 0, 0, 0, 0, 0, 0]], [[0, 0, 0, 0, 0, 0, 0, 0, 0, 0, 1, 0, 0, 0, 0, 0], [0, 0, 0, 0, 0, 0, 0, 0, 0, 0, 1, 0, 0, 0, 0, 0], [0, 0, 0, 0, 0, 0, 0, 0, 0, 0, 1, 0, 0, 0, 0, 0], [0, 0, 0, 0, 0, 0, 0, 0, 0, 0, 1, 0, 0, 0, 0, 0], [0, 0, 0, 0, 0, 0, 0, 0, 0, 0, 1, 0, 0, 0, 0, 0]], [[0, 0, 0, 0, 0, 0, 0, 0, 0, 0, 0, 1, 0, 0, 0, 0], [0, 0, 0, 0, 0, 0, 0, 0, 0, 0, 0, 1, 0, 0, 0, 0], [0, 0, 0, 0, 0, 0, 0, 0, 0, 0, 0, 1, 0, 0, 0, 0], [0, 0, 0, 0, 0, 0, 0, 0, 0, 0, 0, 1, 0, 0, 0, 0], [0, 0, 0, 0, 0, 0, 0, 0, 0, 0, 0, 1, 0, 0, 0, 0]], [[0, 0, 0, 0, 0, 0, 0, 0, 0, 0, 0, 0, 1, 0, 0, 0], [0, 0, 0, 0, 0, 0, 0, 0, 0, 0, 0, 0, 1, 0, 0, 0], [0, 0, 0, 0, 0, 0, 0, 0, 0, 0, 0, 0, 1, 0, 0, 0], [0, 0, 0, 0, 0, 0, 0, 0, 0, 0, 0, 0, 1, 0, 0, 0], [0, 0, 0, 0, 0, 0, 0, 0, 0, 0, 0, 0, 1, 0, 0, 0]], [[0, 0, 0, 0, 0, 0, 0, 0, 0, 0, 0, 0, 0, 1, 0, 0], [0, 0, 0, 0, 0, 0, 0, 0, 0, 0, 0, 0, 0, 1, 0, 0], [0, 0, 0, 0, 0, 0, 0, 0, 0, 0, 0, 0, 0, 1, 0, 0], [0, 0, 0, 0, 0, 0, 0, 0, 0, 0, 0, 0, 0, 1, 0, 0], [0, 0, 0, 0, 0, 0, 0, 0, 0, 0, 0, 0, 0, 1, 0, 0]], [[0, 0, 0, 0, 0, 0, 0, 0, 0, 0, 0, 0, 0, 0, 1, 0], [0, 0, 0, 0, 0, 0, 0, 0, 0, 0, 0, 0, 0, 0, 1, 0], [0, 0, 0, 0, 0, 0, 0, 0, 0, 0, 0, 0, 0, 0, 1, 0], [0, 0, 0, 0, 0, 0, 0, 0, 0, 0, 0, 0, 0, 0, 1, 0], [0, 0, 0, 0, 0, 0, 0, 0, 0, 0, 0, 0, 0, 0, 1, 0]], [[0, 0, 0, 0, 0, 0, 0, 0, 0, 0, 0, 0, 0, 0, 0, 1], [0, 0, 0, 0, 0, 0, 0, 0, 0, 0, 0, 0, 0, 0, 0, 1], [0, 0, 0, 0, 0, 0, 0, 0, 0, 0, 0, 0, 0, 0, 0, 1], [0, 0, 0, 0, 0, 0, 0, 0, 0, 0, 0, 0, 0, 0, 0, 1], [0, 0, 0, 0, 0, 0, 0, 0, 0, 0, 0, 0, 0, 0, 0, 1]]], prehc: 0, lambdahc: 1.737, rcut: 5.790, dcut: 0.01, rcut_in: 1.705, dcut_in: 0.01, inner_cutoff_type: distance}
  [0, 1]: {nradmax: 16, lmax: 4, nradbasemax: 16, radbasename: ChebExpCos, radparameters: [1.502], radcoefficients: [[[1, 0, 0, 0, 0, 0, 0, 0, 0, 0, 0, 0, 0, 0, 0, 0], [1, 0, 0, 0, 0, 0, 0, 0, 0, 0, 0, 0, 0, 0, 0, 0], [1, 0, 0, 0, 0, 0, 0, 0, 0, 0, 0, 0, 0, 0, 0, 0], [1, 0, 0, 0, 0, 0, 0, 0, 0, 0, 0, 0, 0, 0, 0, 0], [1, 0, 0, 0, 0, 0, 0, 0, 0, 0, 0, 0, 0, 0, 0, 0]], [[0, 1, 0, 0, 0, 0, 0, 0, 0, 0, 0, 0, 0, 0, 0, 0], [0, 1, 0, 0, 0, 0, 0, 0, 0, 0, 0, 0, 0, 0, 0, 0], [0, 1, 0, 0, 0, 0, 0, 0, 0, 0, 0, 0, 0, 0, 0, 0], [0, 1, 0, 0, 0, 0, 0, 0, 0, 0, 0, 0, 0, 0, 0, 0], [0, 1, 0, 0, 0, 0, 0, 0, 0, 0, 0, 0, 0, 0, 0, 0]], [[0, 0, 1, 0, 0, 0, 0, 0, 0, 0, 0, 0, 0, 0, 0, 0], [0, 0, 1, 0, 0, 0, 0, 0, 0, 0, 0, 0, 0, 0, 0, 0], [0, 0, 1, 0, 0, 0, 0, 0, 0, 0, 0, 0, 0, 0, 0, 0], [0, 0, 1, 0, 0, 0, 0, 0, 0, 0, 0, 0, 0, 0, 0, 0], [0, 0, 1, 0, 0, 0, 0, 0, 0, 0, 0, 0, 0, 0, 0, 0]], [[0, 0, 0, 1, 0, 0, 0, 0, 0, 0, 0, 0, 0, 0, 0, 0], [0, 0, 0, 1, 0, 0, 0, 0, 0, 0, 0, 0, 0, 0, 0, 0], [0, 0, 0, 1, 0, 0, 0, 0, 0, 0, 0, 0, 0, 0, 0, 0], [0, 0, 0, 1, 0, 0, 0, 0, 0, 0, 0, 0, 0, 0, 0, 0], [0, 0, 0, 1, 0, 0, 0, 0, 0, 0, 0, 0, 0, 0, 0, 0]], [[0, 0, 0, 0, 1, 0, 0, 0, 0, 0, 0, 0, 0, 0, 0, 0], [0, 0, 0, 0, 1, 0, 0, 0, 0, 0, 0, 0, 0, 0, 0, 0], [0, 0, 0, 0, 1, 0, 0, 0, 0, 0, 0, 0, 0, 0, 0, 0], [0, 0, 0, 0, 1, 0, 0, 0, 0, 0, 0, 0, 0, 0, 0, 0], [0, 0, 0, 0, 1, 0, 0, 0, 0, 0, 0, 0, 0, 0, 0, 0]], [[0, 0, 0, 0, 0, 1, 0, 0, 0, 0, 0, 0, 0, 0, 0, 0], [0, 0, 0, 0, 0, 1, 0, 0, 0, 0, 0, 0, 0, 0, 0, 0], [0, 0, 0, 0, 0, 1, 0, 0, 0, 0, 0, 0, 0, 0, 0, 0], [0, 0, 0, 0, 0, 1, 0, 0, 0, 0, 0, 0, 0, 0, 0, 0], [0, 0, 0, 0, 0, 1, 0, 0, 0, 0, 0, 0, 0, 0, 0, 0]], [[0, 0, 0, 0, 0, 0, 1, 0, 0, 0, 0, 0, 0, 0, 0, 0], [0, 0, 0, 0, 0, 0, 1, 0, 0, 0, 0, 0, 0, 0, 0, 0], [0, 0, 0, 0, 0, 0, 1, 0, 0, 0, 0, 0, 0, 0, 0, 0], [0, 0, 0, 0, 0, 0, 1, 0, 0, 0, 0, 0, 0, 0, 0, 0], [0, 0, 0, 0, 0, 0, 1, 0, 0, 0, 0, 0, 0, 0, 0, 0]], [[0, 0, 0, 0, 0, 0, 0, 1, 0, 0, 0, 0, 0, 0, 0, 0], [0, 0, 0, 0, 0, 0, 0, 1, 0, 0, 0, 0, 0, 0, 0, 0], [0, 0, 0, 0, 0, 0, 0, 1, 0, 0, 0, 0, 0, 0, 0, 0], [0, 0, 0, 0, 0, 0, 0, 1, 0, 0, 0, 0, 0, 0, 0, 0], [0, 0, 0, 0, 0, 0, 0, 1, 0, 0, 0, 0, 0, 0, 0, 0]], [[0, 0, 0, 0, 0, 0, 0, 0, 1, 0, 0, 0, 0, 0, 0, 0], [0, 0, 0, 0, 0, 0, 0, 0, 1, 0, 0, 0, 0, 0, 0, 0], [0, 0, 0, 0, 0, 0, 0, 0, 1, 0, 0, 0, 0, 0, 0, 0], [0, 0, 0, 0, 0, 0, 0, 0, 1, 0, 0, 0, 0, 0, 0, 0], [0, 0, 0, 0, 0, 0, 0, 0, 1, 0, 0, 0, 0, 0, 0, 0]], [[0, 0, 0, 0, 0, 0, 0, 0, 0, 1, 0, 0, 0, 0, 0, 0], [0, 0, 0, 0, 0, 0, 0, 0, 0, 1, 0, 0, 0, 0, 0, 0], [0, 0, 0, 0, 0, 0, 0, 0, 0, 1, 0, 0, 0, 0, 0, 0], [0, 0, 0, 0, 0, 0, 0, 0, 0, 1, 0, 0, 0, 0, 0, 0], [0, 0, 0, 0, 0, 0, 0, 0, 0, 1, 0, 0, 0, 0, 0, 0]], [[0, 0, 0, 0, 0, 0, 0, 0, 0, 0, 1, 0, 0, 0, 0, 0], [0, 0, 0, 0, 0, 0, 0, 0, 0, 0, 1, 0, 0, 0, 0, 0], [0, 0, 0, 0, 0, 0, 0, 0, 0, 0, 1, 0, 0, 0, 0, 0], [0, 0, 0, 0, 0, 0, 0, 0, 0, 0, 1, 0, 0, 0, 0, 0], [0, 0, 0, 0, 0, 0, 0, 0, 0, 0, 1, 0, 0, 0, 0, 0]], [[0, 0, 0, 0, 0, 0, 0, 0, 0, 0, 0, 1, 0, 0, 0, 0], [0, 0, 0, 0, 0, 0, 0, 0, 0, 0, 0, 1, 0, 0, 0, 0], [0, 0, 0, 0, 0, 0, 0, 0, 0, 0, 0, 1, 0, 0, 0, 0], [0, 0, 0, 0, 0, 0, 0, 0, 0, 0, 0, 1, 0, 0, 0, 0], [0, 0, 0, 0, 0, 0, 0, 0, 0, 0, 0, 1, 0, 0, 0, 0]], [[0, 0, 0, 0, 0, 0, 0, 0, 0, 0, 0, 0, 1, 0, 0, 0], [0, 0, 0, 0, 0, 0, 0, 0, 0, 0, 0, 0, 1, 0, 0, 0], [0, 0, 0, 0, 0, 0, 0, 0, 0, 0, 0, 0, 1, 0, 0, 0], [0, 0, 0, 0, 0, 0, 0, 0, 0, 0, 0, 0, 1, 0, 0, 0], [0, 0, 0, 0, 0, 0, 0, 0, 0, 0, 0, 0, 1, 0, 0, 0]], [[0, 0, 0, 0, 0, 0, 0, 0, 0, 0, 0, 0, 0, 1, 0, 0], [0, 0, 0, 0, 0, 0, 0, 0, 0, 0, 0, 0, 0, 1, 0, 0], [0, 0, 0, 0, 0, 0, 0, 0, 0, 0, 0, 0, 0, 1, 0, 0], [0, 0, 0, 0, 0, 0, 0, 0, 0, 0, 0, 0, 0, 1, 0, 0], [0, 0, 0, 0, 0, 0, 0, 0, 0, 0, 0, 0, 0, 1, 0, 0]], [[0, 0, 0, 0, 0, 0, 0, 0, 0, 0, 0, 0, 0, 0, 1, 0], [0, 0, 0, 0, 0, 0, 0, 0, 0, 0, 0, 0, 0, 0, 1, 0], [0, 0, 0, 0, 0, 0, 0, 0, 0, 0, 0, 0, 0, 0, 1, 0], [0, 0, 0, 0, 0, 0, 0, 0, 0, 0, 0, 0, 0, 0, 1, 0], [0, 0, 0, 0, 0, 0, 0, 0, 0, 0, 0, 0, 0, 0, 1, 0]], [[0, 0, 0, 0, 0, 0, 0, 0, 0, 0, 0, 0, 0, 0, 0, 1], [0, 0, 0, 0, 0, 0, 0, 0, 0, 0, 0, 0, 0, 0, 0, 1], [0, 0, 0, 0, 0, 0, 0, 0, 0, 0, 0, 0, 0, 0, 0, 1], [0, 0, 0, 0, 0, 0, 0, 0, 0, 0, 0, 0, 0, 0, 0, 1], [0, 0, 0, 0, 0, 0, 0, 0, 0, 0, 0, 0, 0, 0, 0, 1]]], prehc: 0, lambdahc: 1.502, rcut: 5.007, dcut: 0.01, rcut_in: 1.403, dcut_in: 0.01, inner_cutoff_type: distance}
  [1, 0]: {nradmax: 16, lmax: 4, nradbasemax: 16, radbasename: ChebExpCos, radparameters: [1.502], radcoefficients: [[[1, 0, 0, 0, 0, 0, 0, 0, 0, 0, 0, 0, 0, 0, 0, 0], [1, 0, 0, 0, 0, 0, 0, 0, 0, 0, 0, 0, 0, 0, 0, 0], [1, 0, 0, 0, 0, 0, 0, 0, 0, 0, 0, 0, 0, 0, 0, 0], [1, 0, 0, 0, 0, 0, 0, 0, 0, 0, 0, 0, 0, 0, 0, 0], [1, 0, 0, 0, 0, 0, 0, 0, 0, 0, 0, 0, 0, 0, 0, 0]], [[0, 1, 0, 0, 0, 0, 0, 0, 0, 0, 0, 0, 0, 0, 0, 0], [0, 1, 0, 0, 0, 0, 0, 0, 0, 0, 0, 0, 0, 0, 0, 0], [0, 1, 0, 0, 0, 0, 0, 0, 0, 0, 0, 0, 0, 0, 0, 0], [0, 1, 0, 0, 0, 0, 0, 0, 0, 0, 0, 0, 0, 0, 0, 0], [0, 1, 0, 0, 0, 0, 0, 0, 0, 0, 0, 0, 0, 0, 0, 0]], [[0, 0, 1, 0, 0, 0, 0, 0, 0, 0, 0, 0, 0, 0, 0, 0], [0, 0, 1, 0, 0, 0, 0, 0, 0, 0, 0, 0, 0, 0, 0, 0], [0, 0, 1, 0, 0, 0, 0, 0, 0, 0, 0, 0, 0, 0, 0, 0], [0, 0, 1, 0, 0, 0, 0, 0, 0, 0, 0, 0, 0, 0, 0, 0], [0, 0, 1, 0, 0, 0, 0, 0, 0, 0, 0, 0, 0, 0, 0, 0]], [[0, 0, 0, 1, 0, 0, 0, 0, 0, 0, 0, 0, 0, 0, 0, 0], [0, 0, 0, 1, 0, 0, 0, 0, 0, 0, 0, 0, 0, 0, 0, 0], [0, 0, 0, 1, 0, 0, 0, 0, 0, 0, 0, 0, 0, 0, 0, 0], [0, 0, 0, 1, 0, 0, 0, 0, 0, 0, 0, 0, 0, 0, 0, 0], [0, 0, 0, 1, 0, 0, 0, 0, 0, 0, 0, 0, 0, 0, 0, 0]], [[0, 0, 0, 0, 1, 0, 0, 0, 0, 0, 0, 0, 0, 0, 0, 0], [0, 0, 0, 0, 1, 0, 0, 0, 0, 0, 0, 0, 0, 0, 0, 0], [0, 0, 0, 0, 1, 0, 0, 0, 0, 0, 0, 0, 0, 0, 0, 0], [0, 0, 0, 0, 1, 0, 0, 0, 0, 0, 0, 0, 0, 0, 0, 0], [0, 0, 0, 0, 1, 0, 0, 0, 0, 0, 0, 0, 0, 0, 0, 0]], [[0, 0, 0, 0, 0, 1, 0, 0, 0, 0, 0, 0, 0, 0, 0, 0], [0, 0, 0, 0, 0, 1, 0, 0, 0, 0, 0, 0, 0, 0, 0, 0], [0, 0, 0, 0, 0, 1, 0, 0, 0, 0, 0, 0, 0, 0, 0, 0], [0, 0, 0, 0, 0, 1, 0, 0, 0, 0, 0, 0, 0, 0, 0, 0], [0, 0, 0, 0, 0, 1, 0, 0, 0, 0, 0, 0, 0, 0, 0, 0]], [[0, 0, 0, 0, 0, 0, 1, 0, 0, 0, 0, 0, 0, 0, 0, 0], [0, 0, 0, 0, 0, 0, 1, 0, 0, 0, 0, 0, 0, 0, 0, 0], [0, 0, 0, 0, 0, 0, 1, 0, 0, 0, 0, 0, 0, 0, 0, 0], [0, 0, 0, 0, 0, 0, 1, 0, 0, 0, 0, 0, 0, 0, 0, 0], [0, 0, 0, 0, 0, 0, 1, 0, 0, 0, 0, 0, 0, 0, 0, 0]], [[0, 0, 0, 0, 0, 0, 0, 1, 0, 0, 0, 0, 0, 0, 0, 0], [0, 0, 0, 0, 0, 0, 0, 1, 0, 0, 0, 0, 0, 0, 0, 0], [0, 0, 0, 0, 0, 0, 0, 1, 0, 0, 0, 0, 0, 0, 0, 0], [0, 0, 0, 0, 0, 0, 0, 1, 0, 0, 0, 0, 0, 0, 0, 0], [0, 0, 0, 0, 0, 0, 0, 1, 0, 0, 0, 0, 0, 0, 0, 0]], [[0, 0, 0, 0, 0, 0, 0, 0, 1, 0, 0, 0, 0, 0, 0, 0], [0, 0, 0, 0, 0, 0, 0, 0, 1, 0, 0, 0, 0, 0, 0, 0], [0, 0, 0, 0, 0, 0, 0, 0, 1, 0, 0, 0, 0, 0, 0, 0], [0, 0, 0, 0, 0, 0, 0, 0, 1, 0, 0, 0, 0, 0, 0, 0], [0, 0, 0, 0, 0, 0, 0, 0, 1, 0, 0, 0, 0, 0, 0, 0]], [[0, 0, 0, 0, 0, 0, 0, 0, 0, 1, 0, 0, 0, 0, 0, 0], [0, 0, 0, 0, 0, 0, 0, 0, 0, 1, 0, 0, 0, 0, 0, 0], [0, 0, 0, 0, 0, 0, 0, 0, 0, 1, 0, 0, 0, 0, 0, 0], [0, 0, 0, 0, 0, 0, 0, 0, 0, 1, 0, 0, 0, 0, 0, 0], [0, 0, 0, 0, 0, 0, 0, 0, 0, 1, 0, 0, 0, 0, 0, 0]], [[0, 0, 0, 0, 0, 0, 0, 0, 0, 0, 1, 0, 0, 0, 0, 0], [0, 0, 0, 0, 0, 0, 0, 0, 0, 0, 1, 0, 0, 0, 0, 0], [0, 0, 0, 0, 0, 0, 0, 0, 0, 0, 1, 0, 0, 0, 0, 0], [0, 0, 0, 0, 0, 0, 0, 0, 0, 0, 1, 0, 0, 0, 0, 0], [0, 0, 0, 0, 0, 0, 0, 0, 0, 0, 1, 0, 0, 0, 0, 0]], [[0, 0, 0, 0, 0, 0, 0, 0, 0, 0, 0, 1, 0, 0, 0, 0], [0, 0, 0, 0, 0, 0, 0, 0, 0, 0, 0, 1, 0, 0, 0, 0], [0, 0, 0, 0, 0, 0, 0, 0, 0, 0, 0, 1, 0, 0, 0, 0], [0, 0, 0, 0, 0, 0, 0, 0, 0, 0, 0, 1, 0, 0, 0, 0], [0, 0, 0, 0, 0, 0, 0, 0, 0, 0, 0, 1, 0, 0, 0, 0]], [[0, 0, 0, 0, 0, 0, 0, 0, 0, 0, 0, 0, 1, 0, 0, 0], [0, 0, 0, 0, 0, 0, 0, 0, 0, 0, 0, 0, 1, 0, 0, 0], [0, 0, 0, 0, 0, 0, 0, 0, 0, 0, 0, 0, 1, 0, 0, 0], [0, 0, 0, 0, 0, 0, 0, 0, 0, 0, 0, 0, 1, 0, 0, 0], [0, 0, 0, 0, 0, 0, 0, 0, 0, 0, 0, 0, 1, 0, 0, 0]], [[0, 0, 0, 0, 0, 0, 0, 0, 0, 0, 0, 0, 0, 1, 0, 0], [0, 0, 0, 0, 0, 0, 0, 0, 0, 0, 0, 0, 0, 1, 0, 0], [0, 0, 0, 0, 0, 0, 0, 0, 0, 0, 0, 0, 0, 1, 0, 0], [0, 0, 0, 0, 0, 0, 0, 0, 0, 0, 0, 0, 0, 1, 0, 0], [0, 0, 0, 0, 0, 0, 0, 0, 0, 0, 0, 0, 0, 1, 0, 0]], [[0, 0, 0, 0, 0, 0, 0, 0, 0, 0, 0, 0, 0, 0, 1, 0], [0, 0, 0, 0, 0, 0, 0, 0, 0, 0, 0, 0, 0, 0, 1, 0], [0, 0, 0, 0, 0, 0, 0, 0, 0, 0, 0, 0, 0, 0, 1, 0], [0, 0, 0, 0, 0, 0, 0, 0, 0, 0, 0, 0, 0, 0, 1, 0], [0, 0, 0, 0, 0, 0, 0, 0, 0, 0, 0, 0, 0, 0, 1, 0]], [[0, 0, 0, 0, 0, 0, 0, 0, 0, 0, 0, 0, 0, 0, 0, 1], [0, 0, 0, 0, 0, 0, 0, 0, 0, 0, 0, 0, 0, 0, 0, 1], [0, 0, 0, 0, 0, 0, 0, 0, 0, 0, 0, 0, 0, 0, 0, 1], [0, 0, 0, 0, 0, 0, 0, 0, 0, 0, 0, 0, 0, 0, 0, 1], [0, 0, 0, 0, 0, 0, 0, 0, 0, 0, 0, 0, 0, 0, 0, 1]]], prehc: 0, lambdahc: 1.502, rcut: 5.007, dcut: 0.01, rcut_in: 1.403, dcut_in: 0.01, inner_cutoff_type: distance}
  [1, 1]: {nradmax: 16, lmax: 4, nradbasemax: 16, radbasename: ChebExpCos, radparameters: [1.267], radcoefficients: [[[1, 0, 0, 0, 0, 0, 0, 0, 0, 0, 0, 0, 0, 0, 0, 0], [1, 0, 0, 0, 0, 0, 0, 0, 0, 0, 0, 0, 0, 0, 0, 0], [1, 0, 0, 0, 0, 0, 0, 0, 0, 0, 0, 0, 0, 0, 0, 0], [1, 0, 0, 0, 0, 0, 0, 0, 0, 0, 0, 0, 0, 0, 0, 0], [1, 0, 0, 0, 0, 0, 0, 0, 0, 0, 0, 0, 0, 0, 0, 0]], [[0, 1, 0, 0, 0, 0, 0, 0, 0, 0, 0, 0, 0, 0, 0, 0], [0, 1, 0, 0, 0, 0, 0, 0, 0, 0, 0, 0, 0, 0, 0, 0], [0, 1, 0, 0, 0, 0, 0, 0, 0, 0, 0, 0, 0, 0, 0, 0], [0, 1, 0, 0, 0, 0, 0, 0, 0, 0, 0, 0, 0, 0, 0, 0], [0, 1, 0, 0, 0, 0, 0, 0, 0, 0, 0, 0, 0, 0, 0, 0]], [[0, 0, 1, 0, 0, 0, 0, 0, 0, 0, 0, 0, 0, 0, 0, 0], [0, 0, 1, 0, 0, 0, 0, 0, 0, 0, 0, 0, 0, 0, 0, 0], [0, 0, 1, 0, 0, 0, 0, 0, 0, 0, 0, 0, 0, 0, 0, 0], [0, 0, 1, 0, 0, 0, 0, 0, 0, 0, 0, 0, 0, 0, 0, 0], [0, 0, 1, 0, 0, 0, 0, 0, 0, 0, 0, 0, 0, 0, 0, 0]], [[0, 0, 0, 1, 0, 0, 0, 0, 0, 0, 0, 0, 0, 0, 0, 0], [0, 0, 0, 1, 0, 0, 0, 0, 0, 0, 0, 0, 0, 0, 0, 0], [0, 0, 0, 1, 0, 0, 0, 0, 0, 0, 0, 0, 0, 0, 0, 0], [0, 0, 0, 1, 0, 0, 0, 0, 0, 0, 0, 0, 0, 0, 0, 0], [0, 0, 0, 1, 0, 0, 0, 0, 0, 0, 0, 0, 0, 0, 0, 0]], [[0, 0, 0, 0, 1, 0, 0, 0, 0, 0, 0, 0, 0, 0, 0, 0], [0, 0, 0, 0, 1, 0, 0, 0, 0, 0, 0, 0, 0, 0, 0, 0], [0, 0, 0, 0, 1, 0, 0, 0, 0, 0, 0, 0, 0, 0, 0, 0], [0, 0, 0, 0, 1, 0, 0, 0, 0, 0, 0, 0, 0, 0, 0, 0], [0, 0, 0, 0, 1, 0, 0, 0, 0, 0, 0, 0, 0, 0, 0, 0]], [[0, 0, 0, 0, 0, 1, 0, 0, 0, 0, 0, 0, 0, 0, 0, 0], [0, 0, 0, 0, 0, 1, 0, 0, 0, 0, 0, 0, 0, 0, 0, 0], [0, 0, 0, 0, 0, 1, 0, 0, 0, 0, 0, 0, 0, 0, 0, 0], [0, 0, 0, 0, 0, 1, 0, 0, 0, 0, 0, 0, 0, 0, 0, 0], [0, 0, 0, 0, 0, 1, 0, 0, 0, 0, 0, 0, 0, 0, 0, 0]], [[0, 0, 0, 0, 0, 0, 1, 0, 0, 0, 0, 0, 0, 0, 0, 0], [0, 0, 0, 0, 0, 0, 1, 0, 0, 0, 0, 0, 0, 0, 0, 0], [0, 0, 0, 0, 0, 0, 1, 0, 0, 0, 0, 0, 0, 0, 0, 0], [0, 0, 0, 0, 0, 0, 1, 0, 0, 0, 0, 0, 0, 0, 0, 0], [0, 0, 0, 0, 0, 0, 1, 0, 0, 0, 0, 0, 0, 0, 0, 0]], [[0, 0, 0, 0, 0, 0, 0, 1, 0, 0, 0, 0, 0, 0, 0, 0], [0, 0, 0, 0, 0, 0, 0, 1, 0, 0, 0, 0, 0, 0, 0, 0], [0, 0, 0, 0, 0, 0, 0, 1, 0, 0, 0, 0, 0, 0, 0, 0], [0, 0, 0, 0, 0, 0, 0, 1, 0, 0, 0, 0, 0, 0, 0, 0], [0, 0, 0, 0, 0, 0, 0, 1, 0, 0, 0, 0, 0, 0, 0, 0]], [[0, 0, 0, 0, 0, 0, 0, 0, 1, 0, 0, 0, 0, 0, 0, 0], [0, 0, 0, 0, 0, 0, 0, 0, 1, 0, 0, 0, 0, 0, 0, 0], [0, 0, 0, 0, 0, 0, 0, 0, 1, 0, 0, 0, 0, 0, 0, 0], [0, 0, 0, 0, 0, 0, 0, 0, 1, 0, 0, 0, 0, 0, 0, 0], [0, 0, 0, 0, 0, 0, 0, 0, 1, 0, 0, 0, 0, 0, 0, 0]], [[0, 0, 0, 0, 0, 0, 0, 0, 0, 1, 0, 0, 0, 0, 0, 0], [0, 0, 0, 0, 0, 0, 0, 0, 0, 1, 0, 0, 0, 0, 0, 0], [0, 0, 0, 0, 0, 0, 0, 0, 0, 1, 0, 0, 0, 0, 0, 0], [0, 0, 0, 0, 0, 0, 0, 0, 0, 1, 0, 0, 0, 0, 0, 0], [0, 0, 0, 0, 0, 0, 0, 0, 0, 1, 0, 0, 0, 0, 0, 0]], [[0, 0, 0, 0, 0, 0, 0, 0, 0, 0, 1, 0, 0, 0, 0, 0], [0, 0, 0, 0, 0, 0, 0, 0, 0, 0, 1, 0, 0, 0, 0, 0], [0, 0, 0, 0, 0, 0, 0, 0, 0, 0, 1, 0, 0, 0, 0, 0], [0, 0, 0, 0, 0, 0, 0, 0, 0, 0, 1, 0, 0, 0, 0, 0], [0, 0, 0, 0, 0, 0, 0, 0, 0, 0, 1, 0, 0, 0, 0, 0]], [[0, 0, 0, 0, 0, 0, 0, 0, 0, 0, 0, 1, 0, 0, 0, 0], [0, 0, 0, 0, 0, 0, 0, 0, 0, 0, 0, 1, 0, 0, 0, 0], [0, 0, 0, 0, 0, 0, 0, 0, 0, 0, 0, 1, 0, 0, 0, 0], [0, 0, 0, 0, 0, 0, 0, 0, 0, 0, 0, 1, 0, 0, 0, 0], [0, 0, 0, 0, 0, 0, 0, 0, 0, 0, 0, 1, 0, 0, 0, 0]], [[0, 0, 0, 0, 0, 0, 0, 0, 0, 0, 0, 0, 1, 0, 0, 0], [0, 0, 0, 0, 0, 0, 0, 0, 0, 0, 0, 0, 1, 0, 0, 0], [0, 0, 0, 0, 0, 0, 0, 0, 0, 0, 0, 0, 1, 0, 0, 0], [0, 0, 0, 0, 0, 0, 0, 0, 0, 0, 0, 0, 1, 0, 0, 0], [0, 0, 0, 0, 0, 0, 0, 0, 0, 0, 0, 0, 1, 0, 0, 0]], [[0, 0, 0, 0, 0, 0, 0, 0, 0, 0, 0, 0, 0, 1, 0, 0], [0, 0, 0, 0, 0, 0, 0, 0, 0, 0, 0, 0, 0, 1, 0, 0], [0, 0, 0, 0, 0, 0, 0, 0, 0, 0, 0, 0, 0, 1, 0, 0], [0, 0, 0, 0, 0, 0, 0, 0, 0, 0, 0, 0, 0, 1, 0, 0], [0, 0, 0, 0, 0, 0, 0, 0, 0, 0, 0, 0, 0, 1, 0, 0]], [[0, 0, 0, 0, 0, 0, 0, 0, 0, 0, 0, 0, 0, 0, 1, 0], [0, 0, 0, 0, 0, 0, 0, 0, 0, 0, 0, 0, 0, 0, 1, 0], [0, 0, 0, 0, 0, 0, 0, 0, 0, 0, 0, 0, 0, 0, 1, 0], [0, 0, 0, 0, 0, 0, 0, 0, 0, 0, 0, 0, 0, 0, 1, 0], [0, 0, 0, 0, 0, 0, 0, 0, 0, 0, 0, 0, 0, 0, 1, 0]], [[0, 0, 0, 0, 0, 0, 0, 0, 0, 0, 0, 0, 0, 0, 0, 1], [0, 0, 0, 0, 0, 0, 0, 0, 0, 0, 0, 0, 0, 0, 0, 1], [0, 0, 0, 0, 0, 0, 0, 0, 0, 0, 0, 0, 0, 0, 0, 1], [0, 0, 0, 0, 0, 0, 0, 0, 0, 0, 0, 0, 0, 0, 0, 1], [0, 0, 0, 0, 0, 0, 0, 0, 0, 0, 0, 0, 0, 0, 0, 1]]], prehc: 0, lambdahc: 1.267, rcut: 4.224, dcut: 0.01, rcut_in: 1.100, dcut_in: 0.01, inner_cutoff_type: distance}
functions:
  0:
    - {mu0: 0, rank: 1, ndensity: 1, num_ms_combs: 1, mus: [0], ns: [1], ls: [0], ms_combs: [0], ctildes: [-2.726130239383565]}
    - {mu0: 0, rank: 1, ndensity: 1, num_ms_combs: 1, mus: [1], ns: [1], ls: [0], ms_combs: [0], ctildes: [0.7288524026407686]}
    - {mu0: 0, rank: 1, ndensity: 1, num_ms_combs: 1, mus: [0], ns: [2], ls: [0], ms_combs: [0], ctildes: [4.260794640298627]}
    - {mu0: 0, rank: 1, ndensity: 1, num_ms_combs: 1, mus: [1], ns: [2], ls: [0], ms_combs: [0], ctildes: [0.6187963211627903]}
    - {mu0: 0, rank: 1, ndensity: 1, num_ms_combs: 1, mus: [0], ns: [3], ls: [0], ms_combs: [0], ctildes: [-0.20168755901158875]}
    - {mu0: 0, rank: 1, ndensity: 1, num_ms_combs: 1, mus: [1], ns: [3], ls: [0], ms_combs: [0], ctildes: [0.9737615312233174]}
    - {mu0: 0, rank: 1, ndensity: 1, num_ms_combs: 1, mus: [0], ns: [4], ls: [0], ms_combs: [0], ctildes: [2.181954654382025]}
    - {mu0: 0, rank: 1, ndensity: 1, num_ms_combs: 1, mus: [1], ns: [4], ls: [0], ms_combs: [0], ctildes: [-3.233927938324996]}
    - {mu0: 0, rank: 1, ndensity: 1, num_ms_combs: 1, mus: [0], ns: [5], ls: [0], ms_combs: [0], ctildes: [1.5735220027700052]}
    - {mu0: 0, rank: 1, ndensity: 1, num_ms_combs: 1, mus: [1], ns: [5], ls: [0], ms_combs: [0], ctildes: [0.7466878064788034]}
    - {mu0: 0, rank: 1, ndensity: 1, num_ms_combs: 1, mus: [0], ns: [6], ls: [0], ms_combs: [0], ctildes: [-0.6672142279060154]}
    - {mu0: 0, rank: 1, ndensity: 1, num_ms_combs: 1, mus: [1], ns: [6], ls: [0], ms_combs: [0], ctildes: [0.27674217538651646]}
    - {mu0: 0, rank: 1, ndensity: 1, num_ms_combs: 1, mus: [0], ns: [7], ls: [0], ms_combs: [0], ctildes: [0.10109116238027127]}
    - {mu0: 0, rank: 1, ndensity: 1, num_ms_combs: 1, mus: [1], ns: [7], ls: [0], ms_combs: [0], ctildes: [0.12935104406324172]}
    - {mu0: 0, rank: 1, ndensity: 1, num_ms_combs: 1, mus: [0], ns: [8], ls: [0], ms_combs: [0], ctildes: [-0.03831960584943772]}
    - {mu0: 0, rank: 1, ndensity: 1, num_ms_combs: 1, mus: [1], ns: [8], ls: [0], ms_combs: [0], ctildes: [0.08651735989286635]}
    - {mu0: 0, rank: 1, ndensity: 1, num_ms_combs: 1, mus: [0], ns: [9], ls: [0], ms_combs: [0], ctildes: [-1.114308194360433]}
    - {mu0: 0, rank: 1, ndensity: 1, num_ms_combs: 1, mus: [1], ns: [9], ls: [0], ms_combs: [0], ctildes: [-1.45161438467494]}
    - {mu0: 0, rank: 1, ndensity: 1, num_ms_combs: 1, mus: [0], ns: [10], ls: [0], ms_combs: [0], ctildes: [0.40662068889787406]}
    - {mu0: 0, rank: 1, ndensity: 1, num_ms_combs: 1, mus: [1], ns: [10], ls: [0], ms_combs: [0], ctildes: [0.5825476816576156]}
    - {mu0: 0, rank: 1, ndensity: 1, num_ms_combs: 1, mus: [0], ns: [11], ls: [0], ms_combs: [0], ctildes: [0.6250915092089144]}
    - {mu0: 0, rank: 1, ndensity: 1, num_ms_combs: 1, mus: [1], ns: [11], ls: [0], ms_combs: [0], ctildes: [0.851461906444456]}
    - {mu0: 0, rank: 1, ndensity: 1, num_ms_combs: 1, mus: [0], ns: [12], ls: [0], ms_combs: [0], ctildes: [-0.34182868892048646]}
    - {mu0: 0, rank: 1, ndensity: 1, num_ms_combs: 1, mus: [1], ns: [12], ls: [0], ms_combs: [0], ctildes: [-0.7148584667256728]}
    - {mu0: 0, rank: 1, ndensity: 1, num_ms_combs: 1, mus: [0], ns: [13], ls: [0], ms_combs: [0], ctildes: [-0.7563630071981606]}
    - {mu0: 0, rank: 1, ndensity: 1, num_ms_combs: 1, mus: [1], ns: [13], ls: [0], ms_combs: [0], ctildes: [-0.3833034534691251]}
    - {mu0: 0, rank: 1, ndensity: 1, num_ms_combs: 1, mus: [0], ns: [14], ls: [0], ms_combs: [0], ctildes: [0.02793746787318696]}
    - {mu0: 0, rank: 1, ndensity: 1, num_ms_combs: 1, mus: [1], ns: [14], ls: [0], ms_combs: [0], ctildes: [0.9088429156811344]}
    - {mu0: 0, rank: 1, ndensity: 1, num_ms_combs: 1, mus: [0], ns: [15], ls: [0], ms_combs: [0], ctildes: [0.42539008942549117]}
    - {mu0: 0, rank: 1, ndensity: 1, num_ms_combs: 1, mus: [1], ns: [15], ls: [0], ms_combs: [0], ctildes: [-0.5831448212015857]}
    - {mu0: 0, rank: 1, ndensity: 1, num_ms_combs: 1, mus: [0], ns: [16], ls: [0], ms_combs: [0], ctildes: [-0.4327600819078725]}
    - {mu0: 0, rank: 1, ndensity: 1, num_ms_combs: 1, mus: [1], ns: [16], ls: [0], ms_combs: [0], ctildes: [0.12152410511544076]}
    - {mu0: 0, rank: 2, ndensity: 1, num_ms_combs: 1, mus: [0, 0], ns: [1, 1], ls: [0, 0], ms_combs: [0, 0], ctildes: [0.4248965380079426]}
    - {mu0: 0, rank: 2, ndensity: 1, num_ms_combs: 1, mus: [0, 1], ns: [1, 1], ls: [0, 0], ms_combs: [0, 0], ctildes: [0.525548993720804]}
    - {mu0: 0, rank: 2, ndensity: 1, num_ms_combs: 1, mus: [1, 1], ns: [1, 1], ls: [0, 0], ms_combs: [0, 0], ctildes: [-0.9622876629887287]}
    - {mu0: 0, rank: 2, ndensity: 1, num_ms_combs: 1, mus: [0, 0], ns: [1, 2], ls: [0, 0], ms_combs: [0, 0], ctildes: [1.2584449110900096]}
    - {mu0: 0, rank: 2, ndensity: 1, num_ms_combs: 1, mus: [0, 1], ns: [1, 2], ls: [0, 0], ms_combs: [0, 0], ctildes: [1.396170516381062]}
    - {mu0: 0, rank: 2, ndensity: 1, num_ms_combs: 1, mus: [1, 1], ns: [1, 2], ls: [0, 0], ms_combs: [0, 0], ctildes: [0.35895244429548256]}
    - {mu0: 0, rank: 2, ndensity: 1, num_ms_combs: 1, mus: [0, 0], ns: [1, 3], ls: [0, 0], ms_combs: [0, 0], ctildes: [-0.4910302517728269]}
    - {mu0: 0, rank: 2, ndensity: 1, num_ms_combs: 1, mus: [0, 1], ns: [1, 3], ls: [0, 0], ms_combs: [0, 0], ctildes: [-1.979310627650193]}
    - {mu0: 0, rank: 2, ndensity: 1, num_ms_combs: 1, mus: [1, 1], ns: [1, 3], ls: [0, 0], ms_combs: [0, 0], ctildes: [-1.549612069406976]}
    - {mu0: 0, rank: 2, ndensity: 1, num_ms_combs: 1, mus: [0, 0], ns: [1, 4], ls: [0, 0], ms_combs: [0, 0], ctildes: [-1.1272930186078156]}
    - {mu0: 0, rank: 2, ndensity: 1, num_ms_combs: 1, mus: [0, 1], ns: [1, 4], ls: [0, 0], ms_combs: [0, 0], ctildes: [1.0656168086416073]}
    - {mu0: 0, rank: 2, ndensity: 1, num_ms_combs: 1, mus: [1, 1], ns: [1, 4], ls: [0, 0], ms_combs: [0, 0], ctildes: [1.1047663335784819]}
    - {mu0: 0, rank: 2, ndensity: 1, num_ms_combs: 1, mus: [0, 1], ns: [2, 1], ls: [0, 0], ms_combs: [0, 0], ctildes: [-0.05309486137230124]}
    - {mu0: 0, rank: 2, ndensity: 1, num_ms_combs: 1, mus: [0, 0], ns: [2, 2], ls: [0, 0], ms_combs: [0, 0], ctildes: [-0.9558287794388889]}
    - {mu0: 0, rank: 2, ndensity: 1, num_ms_combs: 1, mus: [0, 1], ns: [2, 2], ls: [0, 0], ms_combs: [0, 0], ctildes: [0.45971394708067237]}
    - {mu0: 0, rank: 2, ndensity: 1, num_ms_combs: 1, mus: [1, 1], ns: [2, 2], ls: [0, 0], ms_combs: [0, 0], ctildes: [2.7611627931455587]}
    - {mu0: 0, rank: 2, ndensity: 1, num_ms_combs: 1, mus: [0, 0], ns: [2, 3], ls: [0, 0], ms_combs: [0, 0], ctildes: [-0.44912219712205115]}
    - {mu0: 0, rank: 2, ndensity: 1, num_ms_combs: 1, mus: [0, 1], ns: [2, 3], ls: [0, 0], ms_combs: [0, 0], ctildes: [0.6049025232769054]}
    - {mu0: 0, rank: 2, ndensity: 1, num_ms_combs: 1, mus: [1, 1], ns: [2, 3], ls: [0, 0], ms_combs: [0, 0], ctildes: [2.817772896097267]}
    - {mu0: 0, rank: 2, ndensity: 1, num_ms_combs: 1, mus: [0, 0], ns: [2, 4], ls: [0, 0], ms_combs: [0, 0], ctildes: [0.900322429634798]}
    - {mu0: 0, rank: 2, ndensity: 1, num_ms_combs: 1, mus: [0, 1], ns: [2, 4], ls: [0, 0], ms_combs: [0, 0], ctildes: [-0.4294878766322654]}
    - {mu0: 0, rank: 2, ndensity: 1, num_ms_combs: 1, mus: [1, 1], ns: [2, 4], ls: [0, 0], ms_combs: [0, 0], ctildes: [1.2892853478078905]}
    - {mu0: 0, rank: 2, ndensity: 1, num_ms_combs: 1, mus: [0, 1], ns: [3, 1], ls: [0, 0], ms_combs: [0, 0], ctildes: [-0.17240666424186202]}
    - {mu0: 0, rank: 2, ndensity: 1, num_ms_combs: 1, mus: [0, 1], ns: [3, 2], ls: [0, 0], ms_combs: [0, 0], ctildes: [-0.26082574300380656]}
    - {mu0: 0, rank: 2, ndensity: 1, num_ms_combs: 1, mus: [0, 0], ns: [3, 3], ls: [0, 0], ms_combs: [0, 0], ctildes: [1.1895768431604665]}
    - {mu0: 0, rank: 2, ndensity: 1, num_ms_combs: 1, mus: [0, 1], ns: [3, 3], ls: [0, 0], ms_combs: [0, 0], ctildes: [-1.594904410345407]}
    - {mu0: 0, rank: 2, ndensity: 1, num_ms_combs: 1, mus: [1, 1], ns: [3, 3], ls: [0, 0], ms_combs: [0, 0], ctildes: [-0.005645722800181829]}
    - {mu0: 0, rank: 2, ndensity: 1, num_ms_combs: 1, mus: [0, 0], ns: [3, 4], ls: [0, 0], ms_combs: [0, 0], ctildes: [0.09481378345299163]}
    - {mu0: 0, rank: 2, ndensity: 1, num_ms_combs: 1, mus: [0, 1], ns: [3, 4], ls: [0, 0], ms_combs: [0, 0], ctildes: [-0.8767960654367926]}
    - {mu0: 0, rank: 2, ndensity: 1, num_ms_combs: 1, mus: [1, 1], ns: [3, 4], ls: [0, 0], ms_combs: [0, 0], ctildes: [0.41784739362447]}
    - {mu0: 0, rank: 2, ndensity: 1, num_ms_combs: 1, mus: [0, 1], ns: [4, 1], ls: [0, 0], ms_combs: [0, 0], ctildes: [-0.15521489166894753]}
    - {mu0: 0, rank: 2, ndensity: 1, num_ms_combs: 1, mus: [0, 1], ns: [4, 2], ls: [0, 0], ms_combs: [0, 0], ctildes: [1.4868267332958567]}
    - {mu0: 0, rank: 2, ndensity: 1, num_ms_combs: 1, mus: [0, 1], ns: [4, 3], ls: [0, 0], ms_combs: [0, 0], ctildes: [0.03745359552158334]}
    - {mu0: 0, rank: 2, ndensity: 1, num_ms_combs: 1, mus: [0, 0], ns: [4, 4], ls: [0, 0], ms_combs: [0, 0], ctildes: [-0.28191586934462975]}
    - {mu0: 0, rank: 2, ndensity: 1, num_ms_combs: 1, mus: [0, 1], ns: [4, 4], ls: [0, 0], ms_combs: [0, 0], ctildes: [0.5561386603221763]}
    - {mu0: 0, rank: 2, ndensity: 1, num_ms_combs: 1, mus: [1, 1], ns: [4, 4], ls: [0, 0], ms_combs: [0, 0], ctildes: [-1.5189077951999934]}
    - {mu0: 0, rank: 2, ndensity: 1, num_ms_combs: 3, mus: [0, 0], ns: [1, 1], ls: [1, 1], ms_combs: [-1, 1, 0, 0, 1, -1], ctildes: [0.0519213416527051, -0.0519213416527051, 0.0519213416527051]}
    - {mu0: 0, rank: 2, ndensity: 1, num_ms_combs: 3, mus: [0, 1], ns: [1, 1], ls: [1, 1], ms_combs: [-1, 1, 0, 0, 1, -1], ctildes: [0.8289138825131529, -0.8289138825131529, 0.8289138825131529]}
    - {mu0: 0, rank: 2, ndensity: 1, num_ms_combs: 3, mus: [1, 1], ns: [1, 1], ls: [1, 1], ms_combs: [-1, 1, 0, 0, 1, -1], ctildes: [-0.2632639813962412, 0.2632639813962412, -0.2632639813962412]}
    - {mu0: 0, rank: 2, ndensity: 1, num_ms_combs: 3, mus: [0, 0], ns: [1, 2], ls: [1, 1], ms_combs: [-1, 1, 0, 0, 1, -1], ctildes: [-0.8408273396365838, 0.8408273396365838, -0.8408273396365838]}
    - {mu0: 0, rank: 2, ndensity: 1, num_ms_combs: 3, mus: [0, 1], ns: [1, 2], ls: [1, 1], ms_combs: [-1, 1, 0, 0, 1, -1], ctildes: [-0.6361444674549583, 0.6361444674549583, -0.6361444674549583]}
    - {mu0: 0, rank: 2, ndensity: 1, num_ms_combs: 3, mus: [1, 1], ns: [1, 2], ls: [1, 1], ms_combs: [-1, 1, 0, 0, 1, -1], ctildes: [-0.8669771273312197, 0.8669771273312197, -0.8669771273312197]}
    - {mu0: 0, rank: 2, ndensity: 1, num_ms_combs: 3, mus: [0, 0], ns: [1, 3], ls: [1, 1], ms_combs: [-1, 1, 0, 0, 1, -1], ctildes: [-0.39444432746398367, 0.39444432746398367, -0.39444432746398367]}
    - {mu0: 0, rank: 2, ndensity: 1, num_ms_combs: 3, mus: [0, 1], ns: [1, 3], ls: [1, 1], ms_combs: [-1, 1, 0, 0, 1, -1], ctildes: [-0.3490553436623216, 0.3490553436623216, -0.3490553436623216]}
    - {mu0: 0, rank: 2, ndensity: 1, num_ms_combs: 3, mus: [1, 1], ns: [1, 3], ls: [1, 1], ms_combs: [-1, 1, 0, 0, 1, -1], ctildes: [-0.7453990126920179, 0.7453990126920179, -0.7453990126920179]}
    - {mu0: 0, rank: 2, ndensity: 1, num_ms_combs: 3, mus: [0, 0], ns: [1, 4], ls: [1, 1], ms_combs: [-1, 1, 0, 0, 1, -1], ctildes: [-0.29541105898228215, 0.29541105898228215, -0.29541105898228215]}
    - {mu0: 0, rank: 2, ndensity: 1, num_ms_combs: 3, mus: [0, 1], ns: [1, 4], ls: [1, 1], ms_combs: [-1, 1, 0, 0, 1, -1], ctildes: [0.5836710274287693, -0.5836710274287693, 0.5836710274287693]}
    - {mu0: 0, rank: 2, ndensity: 1, num_ms_combs: 3, mus: [1, 1], ns: [1, 4], ls: [1, 1], ms_combs: [-1, 1, 0, 0, 1, -1], ctildes: [0.8519531060330421, -0.8519531060330421, 0.8519531060330421]}
    - {mu0: 0, rank: 2, ndensity: 1, num_ms_combs: 3, mus: [0, 1], ns: [2, 1], ls: [1, 1], ms_combs: [-1, 1, 0, 0, 1, -1], ctildes: [-0.9128961926614516, 0.9128961926614516, -0.9128961926614516]}
    - {mu0: 0, rank: 2, ndensity: 1, num_ms_combs: 3, mus: [0, 0], ns: [2, 2], ls: [1, 1], ms_combs: [-1, 1, 0, 0, 1, -1], ctildes: [-0.4438242729948115, 0.4438242729948115, -0.4438242729948115]}
    - {mu0: 0, rank: 2, ndensity: 1, num_ms_combs: 3, mus: [0, 1], ns: [2, 2], ls: [1, 1], ms_combs: [-1, 1, 0, 0, 1, -1], ctildes: [-0.1236521501424586, 0.1236521501424586, -0.1236521501424586]}
    - {mu0: 0, rank: 2, ndensity: 1, num_ms_combs: 3, mus: [1, 1], ns: [2, 2], ls: [1, 1], ms_combs: [-1, 1, 0, 0, 1, -1], ctildes: [0.24397990284503188, -0.24397990284503188, 0.24397990284503188]}
    - {mu0: 0, rank: 2, ndensity: 1, num_ms_combs: 3, mus: [0, 0], ns: [2, 3], ls: [1, 1], ms_combs: [-1, 1, 0, 0, 1, -1], ctildes: [-0.3433427244973642, 0.3433427244973642, -0.3433427244973642]}
    - {mu0: 0, rank: 2, ndensity: 1, num_ms_combs: 3, mus: [0, 1], ns: [2, 3], ls: [1, 1], ms_combs: [-1, 1, 0, 0, 1, -1], ctildes: [0.30657350204855827, -0.30657350204855827, 0.30657350204855827]}
    - {mu0: 0, rank: 2, ndensity: 1, num_ms_combs: 3, mus: [1, 1], ns: [2, 3], ls: [1, 1], ms_combs: [-1, 1, 0, 0, 1, -1], ctildes: [0.3193620615282938, -0.3193620615282938, 0.3193620615282938]}
    - {mu0: 0, rank: 2, ndensity: 1, num_ms_combs: 3, mus: [0, 0], ns: [2, 4], ls: [1, 1], ms_combs: [-1, 1, 0, 0, 1, -1], ctildes: [-0.7598802273868169, 0.7598802273868169, -0.7598802273868169]}
    - {mu0: 0, rank: 2, ndensity: 1, num_ms_combs: 3, mus: [0, 1], ns: [2, 4], ls: [1, 1], ms_combs: [-1, 1, 0, 0, 1, -1], ctildes: [-0.1141971421377355, 0.1141971421377355, -0.1141971421377355]}
    - {mu0: 0, rank: 2, ndensity: 1, num_ms_combs: 3, mus: [1, 1], ns: [2, 4], ls: [1, 1], ms_combs: [-1, 1, 0, 0, 1, -1], ctildes: [0.9788163051568446, -0.9788163051568446, 0.9788163051568446]}
    - {mu0: 0, rank: 2, ndensity: 1, num_ms_combs: 3, mus: [0, 1], ns: [3, 1], ls: [1, 1], ms_combs: [-1, 1, 0, 0, 1, -1], ctildes: [-0.3936754687795374, 0.3936754687795374, -0.3936754687795374]}
    - {mu0: 0, rank: 2, ndensity: 1, num_ms_combs: 3, mus: [0, 1], ns: [3, 2], ls: [1, 1], ms_combs: [-1, 1, 0, 0, 1, -1], ctildes: [-0.5264772483664274, 0.5264772483664274, -0.5264772483664274]}
    - {mu0: 0, rank: 2, ndensity: 1, num_ms_combs: 3, mus: [0, 0], ns: [3, 3], ls: [1, 1], ms_combs: [-1, 1, 0, 0, 1, -1], ctildes: [1.1831254753086171, -1.1831254753086171, 1.1831254753086171]}
    - {mu0: 0, rank: 2, ndensity: 1, num_ms_combs: 3, mus: [0, 1], ns: [3, 3], ls: [1, 1], ms_combs: [-1, 1, 0, 0, 1, -1], ctildes: [0.1044443894431305, -0.1044443894431305, 0.1044443894431305]}
    - {mu0: 0, rank: 2, ndensity: 1, num_ms_combs: 3, mus: [1, 1], ns: [3, 3], ls: [1, 1], ms_combs: [-1, 1, 0, 0, 1, -1], ctildes: [-0.26398188227128205, 0.26398188227128205, -0.26398188227128205]}
    - {mu0: 0, rank: 2, ndensity: 1, num_ms_combs: 3, mus: [0, 0], ns: [3, 4], ls: [1, 1], ms_combs: [-1, 1, 0, 0, 1, -1], ctildes: [0.11942457873835016, -0.11942457873835016, 0.11942457873835016]}
    - {mu0: 0, rank: 2, ndensity: 1, num_ms_combs: 3, mus: [0, 1], ns: [3, 4], ls: [1, 1], ms_combs: [-1, 1, 0, 0, 1, -1], ctildes: [0.22385565187695208, -0.22385565187695208, 0.22385565187695208]}
    - {mu0: 0, rank: 2, ndensity: 1, num_ms_combs: 3, mus: [1, 1], ns: [3, 4], ls: [1, 1], ms_combs: [-1, 1, 0, 0, 1, -1], ctildes: [1.2378619014803267, -1.2378619014803267, 1.2378619014803267]}
    - {mu0: 0, rank: 2, ndensity: 1, num_ms_combs: 3, mus: [0, 1], ns: [4, 1], ls: [1, 1], ms_combs: [-1, 1, 0, 0, 1, -1], ctildes: [0.5267297637638636, -0.5267297637638636, 0.5267297637638636]}
    - {mu0: 0, rank: 2, ndensity: 1, num_ms_combs: 3, mus: [0, 1], ns: [4, 2], ls: [1, 1], ms_combs: [-1, 1, 0, 0, 1, -1], ctildes: [0.017167420839408656, -0.017167420839408656, 0.017167420839408656]}
    - {mu0: 0, rank: 2, ndensity: 1, num_ms_combs: 3, mus: [0, 1], ns: [4, 3], ls: [1, 1], ms_combs: [-1, 1, 0, 0, 1, -1], ctildes: [0.1914738678998554, -0.1914738678998554, 0.1914738678998554]}
    - {mu0: 0, rank: 2, ndensity: 1, num_ms_combs: 3, mus: [0, 0], ns: [4, 4], ls: [1, 1], ms_combs: [-1, 1, 0, 0, 1, -1], ctildes: [0.14788463468608876, -0.14788463468608876, 0.14788463468608876]}
    - {mu0: 0, rank: 2, ndensity: 1, num_ms_combs: 3, mus: [0, 1], ns: [4, 4], ls: [1, 1], ms_combs: [-1, 1, 0, 0, 1, -1], ctildes: [-0.8678332480368174, 0.8678332480368174, -0.8678332480368174]}
    - {mu0: 0, rank: 2, ndensity: 1, num_ms_combs: 3, mus: [1, 1], ns: [4, 4], ls: [1, 1], ms_combs: [-1, 1, 0, 0, 1, -1], ctildes: [-0.8673190994979125, 0.8673190994979125, -0.8673190994979125]}
    - {mu0: 0, rank: 2, ndensity: 1, num_ms_combs: 5, mus: [0, 0], ns: [1, 1], ls: [2, 2], ms_combs: [-2, 2, -1, 1, 0, 0, 1, -1, 2, -2], ctildes: [0.28211942066536844, -0.28211942066536844, 0.28211942066536844, -0.28211942066536844, 0.28211942066536844]}
    - {mu0: 0, rank: 2, ndensity: 1, num_ms_combs: 5, mus: [0, 1], ns: [1, 1], ls: [2, 2], ms_combs: [-2, 2, -1, 1, 0, 0, 1, -1, 2, -2], ctildes: [-0.11947456228897647, 0.11947456228897647, -0.11947456228897647, 0.11947456228897647, -0.11947456228897647]}
    - {mu0: 0, rank: 2, ndensity: 1, num_ms_combs: 5, mus: [1, 1], ns: [1, 1], ls: [2, 2], ms_combs: [-2, 2, -1, 1, 0, 0, 1, -1, 2, -2], ctildes: [0.3829821631307159, -0.3829821631307159, 0.3829821631307159, -0.3829821631307159, 0.3829821631307159]}
    - {mu0: 0, rank: 2, ndensity: 1, num_ms_combs: 5, mus: [0, 0], ns: [1, 2], ls: [2, 2], ms_combs: [-2, 2, -1, 1, 0, 0, 1, -1, 2, -2], ctildes: [1.4586813342082312, -1.4586813342082312, 1.4586813342082312, -1.4586813342082312, 1.4586813342082312]}
    - {mu0: 0, rank: 2, ndensity: 1, num_ms_combs: 5, mus: [0, 1], ns: [1, 2], ls: [2, 2], ms_combs: [-2, 2, -1, 1, 0, 0, 1, -1, 2, -2], ctildes: [1.1019123123502081, -1.1019123123502081, 1.1019123123502081, -1.1019123123502081, 1.1019123123502081]}
    - {mu0: 0, rank: 2, ndensity: 1, num_ms_combs: 5, mus: [1, 1], ns: [1, 2], ls: [2, 2], ms_combs: [-2, 2, -1, 1, 0, 0, 1, -1, 2, -2], ctildes: [-1.4264908325216792, 1.4264908325216792, -1.4264908325216792, 1.4264908325216792, -1.4264908325216792]}
    - {mu0: 0, rank: 2, ndensity: 1, num_ms_combs: 5, mus: [0, 0], ns: [1, 3], ls: [2, 2], ms_combs: [-2, 2, -1, 1, 0, 0, 1, -1, 2, -2], ctildes: [-0.4923716218401101, 0.4923716218401101, -0.4923716218401101, 0.4923716218401101, -0.4923716218401101]}
    - {mu0: 0, rank: 2, ndensity: 1, num_ms_combs: 5, mus: [0, 1], ns: [1, 3], ls: [2, 2], ms_combs: [-2, 2, -1, 1, 0, 0, 1, -1, 2, -2], ctildes: [-0.8719978343513631, 0.8719978343513631, -0.8719978343513631, 0.8719978343513631, -0.8719978343513631]}
    - {mu0: 0, rank: 2, ndensity: 1, num_ms_combs: 5, mus: [1, 1], ns: [1, 3], ls: [2, 2], ms_combs: [-2, 2, -1, 1, 0, 0, 1, -1, 2, -2], ctildes: [0.3234616460686672, -0.3234616460686672, 0.3234616460686672, -0.3234616460686672, 0.3234616460686672]}
    - {mu0: 0, rank: 2, ndensity: 1, num_ms_combs: 5, mus: [0, 0], ns: [1, 4], ls: [2, 2], ms_combs: [-2, 2, -1, 1, 0, 0, 1, -1, 2, -2], ctildes: [-0.09773548054149692, 0.09773548054149692, -0.09773548054149692, 0.09773548054149692, -0.09773548054149692]}
    - {mu0: 0, rank: 2, ndensity: 1, num_ms_combs: 5, mus: [0, 1], ns: [1, 4], ls: [2, 2], ms_combs: [-2, 2, -1, 1, 0, 0, 1, -1, 2, -2], ctildes: [0.0630516971737001, -0.0630516971737001, 0.0630516971737001, -0.0630516971737001, 0.0630516971737001]}
    - {mu0: 0, rank: 2, ndensity: 1, num_ms_combs: 5, mus: [1, 1], ns: [1, 4], ls: [2, 2], ms_combs: [-2, 2, -1, 1, 0, 0, 1, -1, 2, -2], ctildes: [-0.2392488488112116, 0.2392488488112116, -0.2392488488112116, 0.2392488488112116, -0.2392488488112116]}
    - {mu0: 0, rank: 2, ndensity: 1, num_ms_combs: 5, mus: [0, 1], ns: [2, 1], ls: [2, 2], ms_combs: [-2, 2, -1, 1, 0, 0, 1, -1, 2, -2], ctildes: [-1.2504403890897193, 1.2504403890897193, -1.2504403890897193, 1.2504403890897193, -1.2504403890897193]}
    - {mu0: 0, rank: 2, ndensity: 1, num_ms_combs: 5, mus: [0, 0], ns: [2, 2], ls: [2, 2], ms_combs: [-2, 2, -1, 1, 0, 0, 1, -1, 2, -2], ctildes: [0.5085802366469224, -0.5085802366469224, 0.5085802366469224, -0.5085802366469224, 0.5085802366469224]}
    - {mu0: 0, rank: 2, ndensity: 1, num_ms_combs: 5, mus: [0, 1], ns: [2, 2], ls: [2, 2], ms_combs: [-2, 2, -1, 1, 0, 0, 1, -1, 2, -2], ctildes: [0.048684144646355385, -0.048684144646355385, 0.048684144646355385, -0.048684144646355385, 0.048684144646355385]}
    - {mu0: 0, rank: 2, ndensity: 1, num_ms_combs: 5, mus: [1, 1], ns: [2, 2], ls: [2, 2], ms_combs: [-2, 2, -1, 1, 0, 0, 1, -1, 2, -2], ctildes: [-0.09962299627184604, 0.09962299627184604, -0.09962299627184604, 0.09962299627184604, -0.09962299627184604]}
    - {mu0: 0, rank: 2, ndensity: 1, num_ms_combs: 5, mus: [0, 0], ns: [2, 3], ls: [2, 2], ms_combs: [-2, 2, -1, 1, 0, 0, 1, -1, 2, -2], ctildes: [0.9112432963760224, -0.9112432963760224, 0.9112432963760224, -0.9112432963760224, 0.9112432963760224]}
    - {mu0: 0, rank: 2, ndensity: 1, num_ms_combs: 5, mus: [0, 1], ns: [2, 3], ls: [2, 2], ms_combs: [-2, 2, -1, 1, 0, 0, 1, -1, 2, -2], ctildes: [-1.126760733850373, 1.126760733850373, -1.126760733850373, 1.126760733850373, -1.126760733850373]}
    - {mu0: 0, rank: 2, ndensity: 1, num_ms_combs: 5, mus: [1, 1], ns: [2, 3], ls: [2, 2], ms_combs: [-2, 2, -1, 1, 0, 0, 1, -1, 2, -2], ctildes: [-0.33052551070278047, 0.33052551070278047, -0.33052551070278047, 0.33052551070278047, -0.33052551070278047]}
    - {mu0: 0, rank: 2, ndensity: 1, num_ms_combs: 5, mus: [0, 0], ns: [2, 4], ls: [2, 2], ms_combs: [-2, 2, -1, 1, 0, 0, 1, -1, 2, -2], ctildes: [1.7303830528576012, -1.7303830528576012, 1.7303830528576012, -1.7303830528576012, 1.7303830528576012]}
    - {mu0: 0, rank: 2, ndensity: 1, num_ms_combs: 5, mus: [0, 1], ns: [2, 4], ls: [2, 2], ms_combs: [-2, 2, -1, 1, 0, 0, 1, -1, 2, -2], ctildes: [-0.9397916949191891, 0.9397916949191891, -0.9397916949191891, 0.9397916949191891, -0.9397916949191891]}
    - {mu0: 0, rank: 2, ndensity: 1, num_ms_combs: 5, mus: [1, 1], ns: [2, 4], ls: [2, 2], ms_combs: [-2, 2, -1, 1, 0, 0, 1, -1, 2, -2], ctildes: [-0.8948712284119348, 0.8948712284119348, -0.8948712284119348, 0.8948712284119348, -0.8948712284119348]}
    - {mu0: 0, rank: 2, ndensity: 1, num_ms_combs: 5, mus: [0, 1], ns: [3, 1], ls: [2, 2], ms_combs: [-2, 2, -1, 1, 0, 0, 1, -1, 2, -2], ctildes: [0.3829264585961343, -0.3829264585961343, 0.3829264585961343, -0.3829264585961343, 0.3829264585961343]}
    - {mu0: 0, rank: 2, ndensity: 1, num_ms_combs: 5, mus: [0, 1], ns: [3, 2], ls: [2, 2], ms_combs: [-2, 2, -1, 1, 0, 0, 1, -1, 2, -2], ctildes: [1.1015888888106122, -1.1015888888106122, 1.1015888888106122, -1.1015888888106122, 1.1015888888106122]}
    - {mu0: 0, rank: 2, ndensity: 1, num_ms_combs: 5, mus: [0, 0], ns: [3, 3], ls: [2, 2], ms_combs: [-2, 2, -1, 1, 0, 0, 1, -1, 2, -2], ctildes: [-0.5914951931652409, 0.5914951931652409, -0.5914951931652409, 0.5914951931652409, -0.5914951931652409]}
    - {mu0: 0, rank: 2, ndensity: 1, num_ms_combs: 5, mus: [0, 1], ns: [3, 3], ls: [2, 2], ms_combs: [-2, 2, -1, 1, 0, 0, 1, -1, 2, -2], ctildes: [-0.5998727133639897, 0.5998727133639897, -0.5998727133639897, 0.5998727133639897, -0.5998727133639897]}
    - {mu0: 0, rank: 2, ndensity: 1, num_ms_combs: 5, mus: [1, 1], ns: [3, 3], ls: [2, 2], ms_combs: [-2, 2, -1, 1, 0, 0, 1, -1, 2, -2], ctildes: [0.47720761735945305, -0.47720761735945305, 0.47720761735945305, -0.47720761735945305, 0.47720761735945305]}
    - {mu0: 0, rank: 2, ndensity: 1, num_ms_combs: 5, mus: [0, 0], ns: [3, 4], ls: [2, 2], ms_combs: [-2, 2, -1, 1, 0, 0, 1, -1, 2, -2], ctildes: [-0.6437036314498398, 0.6437036314498398, -0.6437036314498398, 0.6437036314498398, -0.6437036314498398]}
    - {mu0: 0, rank: 2, ndensity: 1, num_ms_combs: 5, mus: [0, 1], ns: [3, 4], ls: [2, 2], ms_combs: [-2, 2, -1, 1, 0, 0, 1, -1, 2, -2], ctildes: [1.1551722327274725, -1.1551722327274725, 1.1551722327274725, -1.1551722327274725, 1.1551722327274725]}
    - {mu0: 0, rank: 2, ndensity: 1, num_ms_combs: 5, mus: [1, 1], ns: [3, 4], ls: [2, 2], ms_combs: [-2, 2, -1, 1, 0, 0, 1, -1, 2, -2], ctildes: [0.6908732487933125, -0.6908732487933125, 0.6908732487933125, -0.6908732487933125, 0.6908732487933125]}
    - {mu0: 0, rank: 2, ndensity: 1, num_ms_combs: 5, mus: [0, 1], ns: [4, 1], ls: [2, 2], ms_combs: [-2, 2, -1, 1, 0, 0, 1, -1, 2, -2], ctildes: [-0.3518023520212154, 0.3518023520212154, -0.3518023520212154, 0.3518023520212154, -0.3518023520212154]}
    - {mu0: 0, rank: 2, ndensity: 1, num_ms_combs: 5, mus: [0, 1], ns: [4, 2], ls: [2, 2], ms_combs: [-2, 2, -1, 1, 0, 0, 1, -1, 2, -2], ctildes: [1.7855015162741343, -1.7855015162741343, 1.7855015162741343, -1.7855015162741343, 1.7855015162741343]}
    - {mu0: 0, rank: 2, ndensity: 1, num_ms_combs: 5, mus: [0, 1], ns: [4, 3], ls: [2, 2], ms_combs: [-2, 2, -1, 1, 0, 0, 1, -1, 2, -2], ctildes: [-0.754103714547442, 0.754103714547442, -0.754103714547442, 0.754103714547442, -0.754103714547442]}
    - {mu0: 0, rank: 2, ndensity: 1, num_ms_combs: 5, mus: [0, 0], ns: [4, 4], ls: [2, 2], ms_combs: [-2, 2, -1, 1, 0, 0, 1, -1, 2, -2], ctildes: [0.10163831332484374, -0.10163831332484374, 0.10163831332484374, -0.10163831332484374, 0.10163831332484374]}
    - {mu0: 0, rank: 2, ndensity: 1, num_ms_combs: 5, mus: [0, 1], ns: [4, 4], ls: [2, 2], ms_combs: [-2, 2, -1, 1, 0, 0, 1, -1, 2, -2], ctildes: [0.43243729065843145, -0.43243729065843145, 0.43243729065843145, -0.43243729065843145, 0.43243729065843145]}
    - {mu0: 0, rank: 2, ndensity: 1, num_ms_combs: 5, mus: [1, 1], ns: [4, 4], ls: [2, 2], ms_combs: [-2, 2, -1, 1, 0, 0, 1, -1, 2, -2], ctildes: [-0.4672436078150148, 0.4672436078150148, -0.4672436078150148, 0.4672436078150148, -0.4672436078150148]}
    - {mu0: 0, rank: 3, ndensity: 1, num_ms_combs: 1, mus: [0, 0, 0], ns: [1, 1, 1], ls: [0, 0, 0], ms_combs: [0, 0, 0], ctildes: [-0.007452623269273317]}
    - {mu0: 0, rank: 3, ndensity: 1, num_ms_combs: 1, mus: [0, 0, 1], ns: [1, 1, 1], ls: [0, 0, 0], ms_combs: [0, 0, 0], ctildes: [0.06628643576186732]}
    - {mu0: 0, rank: 3, ndensity: 1, num_ms_combs: 1, mus: [0, 1, 1], ns: [1, 1, 1], ls: [0, 0, 0], ms_combs: [0, 0, 0], ctildes: [0.15234017400143784]}
    - {mu0: 0, rank: 3, ndensity: 1, num_ms_combs: 1, mus: [1, 1, 1], ns: [1, 1, 1], ls: [0, 0, 0], ms_combs: [0, 0, 0], ctildes: [0.09321508671337142]}
    - {mu0: 0, rank: 3, ndensity: 1, num_ms_combs: 3, mus: [0, 0, 0], ns: [1, 1, 1], ls: [0, 1, 1], ms_combs: [0, -1, 1, 0, 0, 0, 0, 1, -1], ctildes: [0.007324809558880137, -0.007324809558880137, 0.007324809558880137]}
    - {mu0: 0, rank: 3, ndensity: 1, num_ms_combs: 3, mus: [0, 0, 1], ns: [1, 1, 1], ls: [0, 1, 1], ms_combs: [0, -1, 1, 0, 0, 0, 0, 1, -1], ctildes: [-0.061956632605257606, 0.061956632605257606, -0.061956632605257606]}
    - {mu0: 0, rank: 3, ndensity: 1, num_ms_combs: 3, mus: [0, 1, 1], ns: [1, 1, 1], ls: [0, 1, 1], ms_combs: [0, -1, 1, 0, 0, 0, 0, 1, -1], ctildes: [-0.01475390458382906, 0.01475390458382906, -0.01475390458382906]}
    - {mu0: 0, rank: 3, ndensity: 1, num_ms_combs: 3, mus: [1, 1, 1], ns: [1, 1, 1], ls: [0, 1, 1], ms_combs: [0, -1, 1, 0, 0, 0, 0, 1, -1], ctildes: [-0.05507327684578679, 0.05507327684578679, -0.05507327684578679]}
    - {mu0: 0, rank: 3, ndensity: 1, num_ms_combs: 5, mus: [0, 0, 0], ns: [1, 1, 1], ls: [0, 2, 2], ms_combs: [0, -2, 2, 0, -1, 1, 0, 0, 0, 0, 1, -1, 0, 2, -2], ctildes: [0.020033672522640707, -0.020033672522640707, 0.020033672522640707, -0.020033672522640707, 0.020033672522640707]}
    - {mu0: 0, rank: 3, ndensity: 1, num_ms_combs: 5, mus: [0, 0, 1], ns: [1, 1, 1], ls: [0, 2, 2], ms_combs: [0, -2, 2, 0, -1, 1, 0, 0, 0, 0, 1, -1, 0, 2, -2], ctildes: [-0.045835161942095096, 0.045835161942095096, -0.045835161942095096, 0.045835161942095096, -0.045835161942095096]}
    - {mu0: 0, rank: 3, ndensity: 1, num_ms_combs: 5, mus: [0, 1, 1], ns: [1, 1, 1], ls: [0, 2, 2], ms_combs: [0, -2, 2, 0, -1, 1, 0, 0, 0, 0, 1, -1, 0, 2, -2], ctildes: [0.016562500915004674, -0.016562500915004674, 0.016562500915004674, -0.016562500915004674, 0.016562500915004674]}
    - {mu0: 0, rank: 3, ndensity: 1, num_ms_combs: 5, mus: [1, 1, 1], ns: [1, 1, 1], ls: [0, 2, 2], ms_combs: [0, -2, 2, 0, -1, 1, 0, 0, 0, 0, 1, -1, 0, 2, -2], ctildes: [-0.0008677516583261592, 0.0008677516583261592, -0.0008677516583261592, 0.0008677516583261592, -0.0008677516583261592]}
    - {mu0: 0, rank: 3, ndensity: 1, num_ms_combs: 7, mus: [0, 0, 0], ns: [1, 1, 1], ls: [0, 3, 3], ms_combs: [0, -3, 3, 0, -2, 2, 0, -1, 1, 0, 0, 0, 0, 1, -1, 0, 2, -2, 0, 3, -3], ctildes: [-0.02109651270528577, 0.02109651270528577, -0.02109651270528577, 0.02109651270528577, -0.02109651270528577, 0.02109651270528577, -0.02109651270528577]}
    - {mu0: 0, rank: 3, ndensity: 1, num_ms_combs: 7, mus: [0, 0, 1], ns: [1, 1, 1], ls: [0, 3, 3], ms_combs: [0, -3, 3, 0, -2, 2, 0, -1, 1, 0, 0, 0, 0, 1, -1, 0, 2, -2, 0, 3, -3], ctildes: [0.044530097344870505, -0.044530097344870505, 0.044530097344870505, -0.044530097344870505, 0.044530097344870505, -0.044530097344870505, 0.044530097344870505]}
    - {mu0: 0, rank: 3, ndensity: 1, num_ms_combs: 7, mus: [0, 1, 1], ns: [1, 1, 1], ls: [0, 3, 3], ms_combs: [0, -3, 3, 0, -2, 2, 0, -1, 1, 0, 0, 0, 0, 1, -1, 0, 2, -2, 0, 3, -3], ctildes: [-0.006782937430223674, 0.006782937430223674, -0.006782937430223674, 0.006782937430223674, -0.006782937430223674, 0.006782937430223674, -0.006782937430223674]}
    - {mu0: 0, rank: 3, ndensity: 1, num_ms_combs: 7, mus: [1, 1, 1], ns: [1, 1, 1], ls: [0, 3, 3], ms_combs: [0, -3, 3, 0, -2, 2, 0, -1, 1, 0, 0, 0, 0, 1, -1, 0, 2, -2, 0, 3, -3], ctildes: [-0.0071704589966586985, 0.0071704589966586985, -0.0071704589966586985, 0.0071704589966586985, -0.0071704589966586985, 0.0071704589966586985, -0.0071704589966586985]}
    - {mu0: 0, rank: 3, ndensity: 1, num_ms_combs: 9, mus: [0, 0, 0], ns: [1, 1, 1], ls: [0, 4, 4], ms_combs: [0, -4, 4, 0, -3, 3, 0, -2, 2, 0, -1, 1, 0, 0, 0, 0, 1, -1, 0, 2, -2, 0, 3, -3, 0, 4, -4], ctildes: [-0.006622311508079908, 0.006622311508079908, -0.006622311508079908, 0.006622311508079908, -0.006622311508079908, 0.006622311508079908, -0.006622311508079908, 0.006622311508079908, -0.006622311508079908]}
    - {mu0: 0, rank: 3, ndensity: 1, num_ms_combs: 9, mus: [0, 0, 1], ns: [1, 1, 1], ls: [0, 4, 4], ms_combs: [0, -4, 4, 0, -3, 3, 0, -2, 2, 0, -1, 1, 0, 0, 0, 0, 1, -1, 0, 2, -2, 0, 3, -3, 0, 4, -4], ctildes: [0.01659724010818436, -0.01659724010818436, 0.01659724010818436, -0.01659724010818436, 0.01659724010818436, -0.01659724010818436, 0.01659724010818436, -0.01659724010818436, 0.01659724010818436]}
    - {mu0: 0, rank: 3, ndensity: 1, num_ms_combs: 9, mus: [0, 1, 1], ns: [1, 1, 1], ls: [0, 4, 4], ms_combs: [0, -4, 4, 0, -3, 3, 0, -2, 2, 0, -1, 1, 0, 0, 0, 0, 1, -1, 0, 2, -2, 0, 3, -3, 0, 4, -4], ctildes: [-0.004683313428190107, 0.004683313428190107, -0.004683313428190107, 0.004683313428190107, -0.004683313428190107, 0.004683313428190107, -0.004683313428190107, 0.004683313428190107, -0.004683313428190107]}
    - {mu0: 0, rank: 3, ndensity: 1, num_ms_combs: 9, mus: [1, 1, 1], ns: [1, 1, 1], ls: [0, 4, 4], ms_combs: [0, -4, 4, 0, -3, 3, 0, -2, 2, 0, -1, 1, 0, 0, 0, 0, 1, -1, 0, 2, -2, 0, 3, -3, 0, 4, -4], ctildes: [0.016619699542863523, -0.016619699542863523, 0.016619699542863523, -0.016619699542863523, 0.016619699542863523, -0.016619699542863523, 0.016619699542863523, -0.016619699542863523, 0.016619699542863523]}
    - {mu0: 0, rank: 3, ndensity: 1, num_ms_combs: 3, mus: [0, 1, 1], ns: [1, 1, 1], ls: [1, 0, 1], ms_combs: [-1, 0, 1, 0, 0, 0, 1, 0, -1], ctildes: [-0.004210125234596796, 0.004210125234596796, -0.004210125234596796]}
    - {mu0: 0, rank: 3, ndensity: 1, num_ms_combs: 3, mus: [0, 0, 1], ns: [1, 1, 1], ls: [1, 1, 0], ms_combs: [-1, 1, 0, 0, 0, 0, 1, -1, 0], ctildes: [-0.0333712136518461, 0.0333712136518461, -0.0333712136518461]}
    - {mu0: 0, rank: 3, ndensity: 1, num_ms_combs: 9, mus: [0, 0, 0], ns: [1, 1, 1], ls: [1, 1, 2], ms_combs: [-1, -1, 2, -1, 0, 1, -1, 1, 0, 0, -1, 1, 0, 0, 0, 0, 1, -1, 1, -1, 0, 1, 0, -1, 1, 1, -2], ctildes: [0.004287975841993766, -0.0030320568113622734, 0.001750558941288836, -0.0030320568113622734, 0.003501117882577672, -0.0030320568113622734, 0.001750558941288836, -0.0030320568113622734, 0.004287975841993766]}
    - {mu0: 0, rank: 3, ndensity: 1, num_ms_combs: 9, mus: [0, 0, 1], ns: [1, 1, 1], ls: [1, 1, 2], ms_combs: [-1, -1, 2, -1, 0, 1, -1, 1, 0, 0, -1, 1, 0, 0, 0, 0, 1, -1, 1, -1, 0, 1, 0, -1, 1, 1, -2], ctildes: [0.014578823180754479, -0.010308784786972941, 0.005951780096940157, -0.010308784786972941, 0.011903560193880313, -0.010308784786972941, 0.005951780096940157, -0.010308784786972941, 0.014578823180754479]}
    - {mu0: 0, rank: 3, ndensity: 1, num_ms_combs: 9, mus: [0, 1, 1], ns: [1, 1, 1], ls: [1, 1, 2], ms_combs: [-1, -1, 2, -1, 0, 1, -1, 1, 0, 0, -1, 1, 0, 0, 0, 0, 1, -1, 1, -1, 0, 1, 0, -1, 1, 1, -2], ctildes: [0.03956299407353064, -0.027975261540363, 0.016151525934757584, -0.027975261540363, 0.03230305186951517, -0.027975261540363, 0.016151525934757584, -0.027975261540363, 0.03956299407353064]}
    - {mu0: 0, rank: 3, ndensity: 1, num_ms_combs: 9, mus: [1, 1, 1], ns: [1, 1, 1], ls: [1, 1, 2], ms_combs: [-1, -1, 2, -1, 0, 1, -1, 1, 0, 0, -1, 1, 0, 0, 0, 0, 1, -1, 1, -1, 0, 1, 0, -1, 1, 1, -2], ctildes: [-0.01874376374477303, 0.01325384251849685, -0.007652110092476975, 0.01325384251849685, -0.01530422018495395, 0.01325384251849685, -0.007652110092476975, 0.01325384251849685, -0.01874376374477303]}
    - {mu0: 0, rank: 3, ndensity: 1, num_ms_combs: 9, mus: [0, 0, 1], ns: [1, 1, 1], ls: [1, 2, 1], ms_combs: [-1, 0, 1, -1, 1, 0, -1, 2, -1, 0, -1, 1, 0, 0, 0, 0, 1, -1, 1, -2, 1, 1, -1, 0, 1, 0, -1], ctildes: [0.02550566275984415, -0.04417710423059437, 0.06247586378454519, -0.04417710423059437, 0.0510113255196883, -0.04417710423059437, 0.06247586378454519, -0.04417710423059437, 0.02550566275984415]}
    - {mu0: 0, rank: 3, ndensity: 1, num_ms_combs: 15, mus: [0, 0, 0], ns: [1, 1, 1], ls: [1, 2, 3], ms_combs: [-1, -2, 3, -1, -1, 2, -1, 0, 1, -1, 1, 0, -1, 2, -1, 0, -2, 2, 0, -1, 1, 0, 0, 0, 0, 1, -1, 0, 2, -2, 1, -2, 1, 1, -1, 0, 1, 0, -1, 1, 1, -2, 1, 2, -3], ctildes: [0.05389773537422629, -0.04400731938323928, 0.034087921803667175, -0.024103799597047493, 0.013916335603723816, -0.031117871011248136, 0.03936134060576412, -0.04174900787362429, 0.03936134060576412, -0.031117871011248136, 0.013916335603723816, -0.024103799597047493, 0.034087921803667175, -0.04400731938323928, 0.05389773537422629]}
    - {mu0: 0, rank: 3, ndensity: 1, num_ms_combs: 15, mus: [0, 0, 1], ns: [1, 1, 1], ls: [1, 2, 3], ms_combs: [-1, -2, 3, -1, -1, 2, -1, 0, 1, -1, 1, 0, -1, 2, -1, 0, -2, 2, 0, -1, 1, 0, 0, 0, 0, 1, -1, 0, 2, -2, 1, -2, 1, 1, -1, 0, 1, 0, -1, 1, 1, -2, 1, 2, -3], ctildes: [-0.053619659802019076, 0.043780271615205375, -0.03391205136504681, 0.023979440422793166, -0.013844536798835927, 0.030957324010019934, -0.03915826292103778, 0.04153361145347909, -0.03915826292103778, 0.030957324010019934, -0.013844536798835927, 0.023979440422793166, -0.03391205136504681, 0.043780271615205375, -0.053619659802019076]}
    - {mu0: 0, rank: 3, ndensity: 1, num_ms_combs: 15, mus: [0, 1, 1], ns: [1, 1, 1], ls: [1, 2, 3], ms_combs: [-1, -2, 3, -1, -1, 2, -1, 0, 1, -1, 1, 0, -1, 2, -1, 0, -2, 2, 0, -1, 1, 0, 0, 0, 0, 1, -1, 0, 2, -2, 1, -2, 1, 1, -1, 0, 1, 0, -1, 1, 1, -2, 1, 2, -3], ctildes: [-0.0011553027975525533, 0.0009433008426650408, -0.0007306776648237736, 0.0005166671087897231, -0.00029829790329837435, 0.0006670143593893169, -0.0008437138703791225, 0.0008948937326688951, -0.0008437138703791225, 0.0006670143593893169, -0.00029829790329837435, 0.0005166671087897231, -0.0007306776648237736, 0.0009433008426650408, -0.0011553027975525533]}
    - {mu0: 0, rank: 3, ndensity: 1, num_ms_combs: 15, mus: [1, 1, 1], ns: [1, 1, 1], ls: [1, 2, 3], ms_combs: [-1, -2, 3, -1, -1, 2, -1, 0, 1, -1, 1, 0, -1, 2, -1, 0, -2, 2, 0, -1, 1, 0, 0, 0, 0, 1, -1, 0, 2, -2, 1, -2, 1, 1, -1, 0, 1, 0, -1, 1, 1, -2, 1, 2, -3], ctildes: [-0.04665106155036744, 0.038090434615846686, -0.029504722733627798, 0.020862988598539543, -0.012045252445158213, 0.026934002064886768, -0.034069118313690167, 0.03613575825507827, -0.034069118313690167, 0.026934002064886768, -0.012045252445158213, 0.020862988598539543, -0.029504722733627798, 0.038090434615846686, -0.04665106155036744]}
    - {mu0: 0, rank: 3, ndensity: 1, num_ms_combs: 15, mus: [0, 0, 1], ns: [1, 1, 1], ls: [1, 3, 2], ms_combs: [-1, -1, 2, -1, 0, 1, -1, 1, 0, -1, 2, -1, -1, 3, -2, 0, -2, 2, 0, -1, 1, 0, 0, 0, 0, 1, -1, 0, 2, -2, 1, -3, 2, 1, -2, 1, 1, -1, 0, 1, 0, -1, 1, 1, -2], ctildes: [-0.007331237223270573, 0.01269807497175072, -0.017957790635927885, 0.02318340884740015, -0.02839375932553551, 0.016393144054786205, -0.020735872199429288, 0.021993712229520398, -0.020735872199429288, 0.016393144054786205, -0.02839375932553551, 0.02318340884740015, -0.017957790635927885, 0.01269807497175072, -0.007331237223270573]}
    - {mu0: 0, rank: 3, ndensity: 1, num_ms_combs: 21, mus: [0, 0, 0], ns: [1, 1, 1], ls: [1, 3, 4], ms_combs: [-1, -3, 4, -1, -2, 3, -1, -1, 2, -1, 0, 1, -1, 1, 0, -1, 2, -1, -1, 3, -2, 0, -3, 3, 0, -2, 2, 0, -1, 1, 0, 0, 0, 0, 1, -1, 0, 2, -2, 0, 3, -3, 1, -3, 2, 1, -2, 1, 1, -1, 0, 1, 0, -1, 1, 1, -2, 1, 2, -3, 1, 3, -4], ctildes: [-0.003928795481914854, 0.003402436531143558, -0.0028755838820835886, 0.0023479041874023597, -0.0018186789413371666, 0.00128600017826759, -0.0007424725226367818, 0.001964397740957427, -0.00257200035653518, 0.0028755838820835886, -0.0029698900905471273, 0.0028755838820835886, -0.00257200035653518, 0.001964397740957427, -0.0007424725226367818, 0.00128600017826759, -0.0018186789413371666, 0.0023479041874023597, -0.0028755838820835886, 0.003402436531143558, -0.003928795481914854]}
    - {mu0: 0, rank: 3, ndensity: 1, num_ms_combs: 21, mus: [0, 0, 1], ns: [1, 1, 1], ls: [1, 3, 4], ms_combs: [-1, -3, 4, -1, -2, 3, -1, -1, 2, -1, 0, 1, -1, 1, 0, -1, 2, -1, -1, 3, -2, 0, -3, 3, 0, -2, 2, 0, -1, 1, 0, 0, 0, 0, 1, -1, 0, 2, -2, 0, 3, -3, 1, -3, 2, 1, -2, 1, 1, -1, 0, 1, 0, -1, 1, 1, -2, 1, 2, -3, 1, 3, -4], ctildes: [0.001019614480193424, -0.0008830119997496576, 0.0007462813930325093, -0.0006093361485987634, 0.00047198979736823304, -0.00033374717755831925, 0.00019268901593656664, -0.000509807240096712, 0.0006674943551166385, -0.0007462813930325093, 0.0007707560637462666, -0.0007462813930325093, 0.0006674943551166385, -0.000509807240096712, 0.00019268901593656664, -0.00033374717755831925, 0.00047198979736823304, -0.0006093361485987634, 0.0007462813930325093, -0.0008830119997496576, 0.001019614480193424]}
    - {mu0: 0, rank: 3, ndensity: 1, num_ms_combs: 21, mus: [0, 1, 1], ns: [1, 1, 1], ls: [1, 3, 4], ms_combs: [-1, -3, 4, -1, -2, 3, -1, -1, 2, -1, 0, 1, -1, 1, 0, -1, 2, -1, -1, 3, -2, 0, -3, 3, 0, -2, 2, 0, -1, 1, 0, 0, 0, 0, 1, -1, 0, 2, -2, 0, 3, -3, 1, -3, 2, 1, -2, 1, 1, -1, 0, 1, 0, -1, 1, 1, -2, 1, 2, -3, 1, 3, -4], ctildes: [0.025834325925108387, -0.022373181472458956, 0.018908790639956728, -0.015438961457142575, 0.01195896929222077, -0.008456268059267847, 0.0048822284663408546, -0.012917162962554194, 0.016912536118535694, -0.018908790639956728, 0.019528913865363418, -0.018908790639956728, 0.016912536118535694, -0.012917162962554194, 0.0048822284663408546, -0.008456268059267847, 0.01195896929222077, -0.015438961457142575, 0.018908790639956728, -0.022373181472458956, 0.025834325925108387]}
    - {mu0: 0, rank: 3, ndensity: 1, num_ms_combs: 21, mus: [1, 1, 1], ns: [1, 1, 1], ls: [1, 3, 4], ms_combs: [-1, -3, 4, -1, -2, 3, -1, -1, 2, -1, 0, 1, -1, 1, 0, -1, 2, -1, -1, 3, -2, 0, -3, 3, 0, -2, 2, 0, -1, 1, 0, 0, 0, 0, 1, -1, 0, 2, -2, 0, 3, -3, 1, -3, 2, 1, -2, 1, 1, -1, 0, 1, 0, -1, 1, 1, -2, 1, 2, -3, 1, 3, -4], ctildes: [-0.00037317776714787857, 0.0003231814110455251, -0.0002731381608694384, 0.00022301635352749974, -0.0001727477415434933, 0.00012215109625502102, -7.052396579096141e-05, 0.00018658888357393928, -0.00024430219251004204, 0.0002731381608694384, -0.00028209586316384563, 0.0002731381608694384, -0.00024430219251004204, 0.00018658888357393928, -7.052396579096141e-05, 0.00012215109625502102, -0.0001727477415434933, 0.00022301635352749974, -0.0002731381608694384, 0.0003231814110455251, -0.00037317776714787857]}
    - {mu0: 0, rank: 3, ndensity: 1, num_ms_combs: 21, mus: [0, 0, 1], ns: [1, 1, 1], ls: [1, 4, 3], ms_combs: [-1, -2, 3, -1, -1, 2, -1, 0, 1, -1, 1, 0, -1, 2, -1, -1, 3, -2, -1, 4, -3, 0, -3, 3, 0, -2, 2, 0, -1, 1, 0, 0, 0, 0, 1, -1, 0, 2, -2, 0, 3, -3, 1, -4, 3, 1, -3, 2, 1, -2, 1, 1, -1, 0, 1, 0, -1, 1, 1, -2, 1, 2, -3], ctildes: [-0.0003155747467638924, 0.0005465914771384993, -0.0007729971532401973, 0.000997934936008198, -0.0012222157349870476, 0.001446145162224557, -0.0016698646771322067, 0.0008349323385661034, -0.0010931829542769986, 0.0012222157349870476, -0.0012622989870555697, 0.0012222157349870476, -0.0010931829542769986, 0.0008349323385661034, -0.0016698646771322067, 0.001446145162224557, -0.0012222157349870476, 0.000997934936008198, -0.0007729971532401973, 0.0005465914771384993, -0.0003155747467638924]}
    - {mu0: 0, rank: 3, ndensity: 1, num_ms_combs: 5, mus: [0, 1, 1], ns: [1, 1, 1], ls: [2, 0, 2], ms_combs: [-2, 0, 2, -1, 0, 1, 0, 0, 0, 1, 0, -1, 2, 0, -2], ctildes: [0.04120180630045878, -0.04120180630045878, 0.04120180630045878, -0.04120180630045878, 0.04120180630045878]}
    - {mu0: 0, rank: 3, ndensity: 1, num_ms_combs: 9, mus: [0, 1, 1], ns: [1, 1, 1], ls: [2, 1, 1], ms_combs: [-2, 1, 1, -1, 0, 1, -1, 1, 0, 0, -1, 1, 0, 0, 0, 0, 1, -1, 1, -1, 0, 1, 0, -1, 2, -1, -1], ctildes: [-0.0032938500276826085, 0.0023291035478068345, 0.0023291035478068345, -0.0013447085466044913, -0.0026894170932089826, -0.0013447085466044913, 0.0023291035478068345, 0.0023291035478068345, -0.0032938500276826085]}
    - {mu0: 0, rank: 3, ndensity: 1, num_ms_combs: 15, mus: [0, 1, 1], ns: [1, 1, 1], ls: [2, 1, 3], ms_combs: [-2, -1, 3, -2, 0, 2, -2, 1, 1, -1, -1, 2, -1, 0, 1, -1, 1, 0, 0, -1, 1, 0, 0, 0, 0, 1, -1, 1, -1, 0, 1, 0, -1, 1, 1, -2, 2, -1, -1, 2, 0, -2, 2, 1, -3], ctildes: [0.0038612859718687442, -0.00222931442250561, 0.0009969797631269716, -0.0031527269896261126, 0.0028198845695409955, -0.0017268195520014655, 0.0024420917383033594, -0.002990939365496065, 0.0024420917383033594, -0.0017268195520014655, 0.0028198845695409955, -0.0031527269896261126, 0.0009969797631269716, -0.00222931442250561, 0.0038612859718687442]}
    - {mu0: 0, rank: 3, ndensity: 1, num_ms_combs: 5, mus: [0, 0, 1], ns: [1, 1, 1], ls: [2, 2, 0], ms_combs: [-2, 2, 0, -1, 1, 0, 0, 0, 0, 1, -1, 0, 2, -2, 0], ctildes: [-0.021874101718085785, 0.021874101718085785, -0.021874101718085785, 0.021874101718085785, -0.021874101718085785]}
    - {mu0: 0, rank: 3, ndensity: 1, num_ms_combs: 19, mus: [0, 0, 0], ns: [1, 1, 1], ls: [2, 2, 2], ms_combs: [-2, 0, 2, -2, 1, 1, -2, 2, 0, -1, -1, 2, -1, 0, 1, -1, 1, 0, -1, 2, -1, 0, -2, 2, 0, -1, 1, 0, 0, 0, 0, 1, -1, 0, 2, -2, 1, -2, 1, 1, -1, 0, 1, 0, -1, 1, 1, -2, 2, -2, 0, 2, -1, -1, 2, 0, -2], ctildes: [0.012207349166655293, -0.014950888452811027, 0.012207349166655293, -0.014950888452811027, 0.0061036745833276465, 0.0061036745833276465, -0.014950888452811027, 0.012207349166655293, 0.0061036745833276465, -0.012207349166655293, 0.0061036745833276465, 0.012207349166655293, -0.014950888452811027, 0.0061036745833276465, 0.0061036745833276465, -0.014950888452811027, 0.012207349166655293, -0.014950888452811027, 0.012207349166655293]}
    - {mu0: 0, rank: 3, ndensity: 1, num_ms_combs: 19, mus: [0, 0, 1], ns: [1, 1, 1], ls: [2, 2, 2], ms_combs: [-2, 0, 2, -2, 1, 1, -2, 2, 0, -1, -1, 2, -1, 0, 1, -1, 1, 0, -1, 2, -1, 0, -2, 2, 0, -1, 1, 0, 0, 0, 0, 1, -1, 0, 2, -2, 1, -2, 1, 1, -1, 0, 1, 0, -1, 1, 1, -2, 2, -2, 0, 2, -1, -1, 2, 0, -2], ctildes: [-0.046441945906290714, 0.05687953570403864, -0.046441945906290714, 0.05687953570403864, -0.023220972953145357, -0.023220972953145357, 0.05687953570403864, -0.046441945906290714, -0.023220972953145357, 0.046441945906290714, -0.023220972953145357, -0.046441945906290714, 0.05687953570403864, -0.023220972953145357, -0.023220972953145357, 0.05687953570403864, -0.046441945906290714, 0.05687953570403864, -0.046441945906290714]}
    - {mu0: 0, rank: 3, ndensity: 1, num_ms_combs: 19, mus: [0, 1, 1], ns: [1, 1, 1], ls: [2, 2, 2], ms_combs: [-2, 0, 2, -2, 1, 1, -2, 2, 0, -1, -1, 2, -1, 0, 1, -1, 1, 0, -1, 2, -1, 0, -2, 2, 0, -1, 1, 0, 0, 0, 0, 1, -1, 0, 2, -2, 1, -2, 1, 1, -1, 0, 1, 0, -1, 1, 1, -2, 2, -2, 0, 2, -1, -1, 2, 0, -2], ctildes: [0.03300609964074582, -0.040424051712970165, 0.03300609964074582, -0.040424051712970165, 0.01650304982037291, 0.01650304982037291, -0.040424051712970165, 0.03300609964074582, 0.01650304982037291, -0.03300609964074582, 0.01650304982037291, 0.03300609964074582, -0.040424051712970165, 0.01650304982037291, 0.01650304982037291, -0.040424051712970165, 0.03300609964074582, -0.040424051712970165, 0.03300609964074582]}
    - {mu0: 0, rank: 3, ndensity: 1, num_ms_combs: 19, mus: [1, 1, 1], ns: [1, 1, 1], ls: [2, 2, 2], ms_combs: [-2, 0, 2, -2, 1, 1, -2, 2, 0, -1, -1, 2, -1, 0, 1, -1, 1, 0, -1, 2, -1, 0, -2, 2, 0, -1, 1, 0, 0, 0, 0, 1, -1, 0, 2, -2, 1, -2, 1, 1, -1, 0, 1, 0, -1, 1, 1, -2, 2, -2, 0, 2, -1, -1, 2, 0, -2], ctildes: [-0.012669289388802397, 0.015516647377119766, -0.012669289388802397, 0.015516647377119766, -0.006334644694401198, -0.006334644694401198, 0.015516647377119766, -0.012669289388802397, -0.006334644694401198, 0.012669289388802397, -0.006334644694401198, -0.012669289388802397, 0.015516647377119766, -0.006334644694401198, -0.006334644694401198, 0.015516647377119766, -0.012669289388802397, 0.015516647377119766, -0.012669289388802397]}
    - {mu0: 0, rank: 3, ndensity: 1, num_ms_combs: 25, mus: [0, 0, 0], ns: [1, 1, 1], ls: [2, 2, 4], ms_combs: [-2, -2, 4, -2, -1, 3, -2, 0, 2, -2, 1, 1, -2, 2, 0, -1, -2, 3, -1, -1, 2, -1, 0, 1, -1, 1, 0, -1, 2, -1, 0, -2, 2, 0, -1, 1, 0, 0, 0, 0, 1, -1, 0, 2, -2, 1, -2, 1, 1, -1, 0, 1, 0, -1, 1, 1, -2, 1, 2, -3, 2, -2, 0, 2, -1, -1, 2, 0, -2, 2, 1, -3, 2, 2, -4], ctildes: [-0.0029983366347946004, 0.002120144111952072, -0.0013879601831762811, 0.0008013391114548181, -0.0003583697767283873, 0.002120144111952072, -0.0022665293474275813, 0.0019628720632578183, -0.0014334791069135493, 0.0008013391114548181, -0.0013879601831762811, 0.0019628720632578183, -0.00215021859335228, 0.0019628720632578183, -0.0013879601831762811, 0.0008013391114548181, -0.0014334791069135493, 0.0019628720632578183, -0.0022665293474275813, 0.002120144111952072, -0.0003583697767283873, 0.0008013391114548181, -0.0013879601831762811, 0.002120144111952072, -0.0029983366347946004]}
    - {mu0: 0, rank: 3, ndensity: 1, num_ms_combs: 25, mus: [0, 0, 1], ns: [1, 1, 1], ls: [2, 2, 4], ms_combs: [-2, -2, 4, -2, -1, 3, -2, 0, 2, -2, 1, 1, -2, 2, 0, -1, -2, 3, -1, -1, 2, -1, 0, 1, -1, 1, 0, -1, 2, -1, 0, -2, 2, 0, -1, 1, 0, 0, 0, 0, 1, -1, 0, 2, -2, 1, -2, 1, 1, -1, 0, 1, 0, -1, 1, 1, -2, 1, 2, -3, 2, -2, 0, 2, -1, -1, 2, 0, -2, 2, 1, -3, 2, 2, -4], ctildes: [0.0017746743517864645, -0.001254884236115864, 0.0008215146057315635, -0.00047430163500625136, 0.00021211415817519731, -0.001254884236115864, 0.001341527650288871, -0.0011617970664392929, 0.0008484566327007893, -0.00047430163500625136, 0.0008215146057315635, -0.0011617970664392929, 0.0012726849093841223, -0.0011617970664392929, 0.0008215146057315635, -0.00047430163500625136, 0.0008484566327007893, -0.0011617970664392929, 0.001341527650288871, -0.001254884236115864, 0.00021211415817519731, -0.00047430163500625136, 0.0008215146057315635, -0.001254884236115864, 0.0017746743517864645]}
    - {mu0: 0, rank: 3, ndensity: 1, num_ms_combs: 25, mus: [0, 1, 1], ns: [1, 1, 1], ls: [2, 2, 4], ms_combs: [-2, -2, 4, -2, -1, 3, -2, 0, 2, -2, 1, 1, -2, 2, 0, -1, -2, 3, -1, -1, 2, -1, 0, 1, -1, 1, 0, -1, 2, -1, 0, -2, 2, 0, -1, 1, 0, 0, 0, 0, 1, -1, 0, 2, -2, 1, -2, 1, 1, -1, 0, 1, 0, -1, 1, 1, -2, 1, 2, -3, 2, -2, 0, 2, -1, -1, 2, 0, -2, 2, 1, -3, 2, 2, -4], ctildes: [0.006331455490245918, -0.0044770149962334305, 0.002930894423272856, -0.001692152528135641, 0.0007567536827166803, -0.0044770149962334305, 0.004786130254369162, -0.004144910533841845, 0.003027014730866721, -0.001692152528135641, 0.002930894423272856, -0.004144910533841845, 0.004540521954781027, -0.004144910533841845, 0.002930894423272856, -0.001692152528135641, 0.003027014730866721, -0.004144910533841845, 0.004786130254369162, -0.0044770149962334305, 0.0007567536827166803, -0.001692152528135641, 0.002930894423272856, -0.0044770149962334305, 0.006331455490245918]}
    - {mu0: 0, rank: 3, ndensity: 1, num_ms_combs: 25, mus: [1, 1, 1], ns: [1, 1, 1], ls: [2, 2, 4], ms_combs: [-2, -2, 4, -2, -1, 3, -2, 0, 2, -2, 1, 1, -2, 2, 0, -1, -2, 3, -1, -1, 2, -1, 0, 1, -1, 1, 0, -1, 2, -1, 0, -2, 2, 0, -1, 1, 0, 0, 0, 0, 1, -1, 0, 2, -2, 1, -2, 1, 1, -1, 0, 1, 0, -1, 1, 1, -2, 1, 2, -3, 2, -2, 0, 2, -1, -1, 2, 0, -2, 2, 1, -3, 2, 2, -4], ctildes: [0.01322563438142285, -0.009351935514914396, 0.006122279168269474, -0.003534699199765374, 0.001580765676995598, -0.009351935514914396, 0.009997639396450101, -0.008658210003806127, 0.006323062707982392, -0.003534699199765374, 0.006122279168269474, -0.008658210003806127, 0.009484593766357633, -0.008658210003806127, 0.006122279168269474, -0.003534699199765374, 0.006323062707982392, -0.008658210003806127, 0.009997639396450101, -0.009351935514914396, 0.001580765676995598, -0.003534699199765374, 0.006122279168269474, -0.009351935514914396, 0.01322563438142285]}
    - {mu0: 0, rank: 3, ndensity: 1, num_ms_combs: 15, mus: [0, 0, 1], ns: [1, 1, 1], ls: [2, 3, 1], ms_combs: [-2, 1, 1, -2, 2, 0, -2, 3, -1, -1, 0, 1, -1, 1, 0, -1, 2, -1, 0, -1, 1, 0, 0, 0, 0, 1, -1, 1, -2, 1, 1, -1, 0, 1, 0, -1, 2, -3, 1, 2, -2, 0, 2, -1, -1], ctildes: [-0.010473438790843411, 0.023419320043593855, -0.04056345351832302, 0.01814052917018979, -0.029623357994449196, 0.033119919964849205, -0.025654581255013117, 0.031420313973723156, -0.025654581255013117, 0.033119919964849205, -0.029623357994449196, 0.01814052917018979, -0.04056345351832302, 0.023419320043593855, -0.010473438790843411]}
    - {mu0: 0, rank: 3, ndensity: 1, num_ms_combs: 29, mus: [0, 0, 0], ns: [1, 1, 1], ls: [2, 3, 3], ms_combs: [-2, -1, 3, -2, 0, 2, -2, 1, 1, -2, 2, 0, -2, 3, -1, -1, -2, 3, -1, -1, 2, -1, 0, 1, -1, 1, 0, -1, 2, -1, -1, 3, -2, 0, -3, 3, 0, -2, 2, 0, -1, 1, 0, 0, 0, 0, 1, -1, 0, 2, -2, 0, 3, -3, 1, -3, 2, 1, -2, 1, 1, -1, 0, 1, 0, -1, 1, 1, -2, 1, 2, -3, 2, -3, 1, 2, -2, 0, 2, -1, -1, 2, 0, -2, 2, 1, -3], ctildes: [0.023594012955227704, -0.03336696995264476, 0.03655168639782356, -0.03336696995264476, 0.023594012955227704, -0.03730540761306904, 0.028896644569568086, -0.01055156270823931, -0.01055156270823931, 0.028896644569568086, -0.03730540761306904, 0.03730540761306904, -0.0, -0.022383245479236216, 0.029844326546152627, -0.022383245479236216, -0.0, 0.03730540761306904, -0.03730540761306904, 0.028896644569568086, -0.01055156270823931, -0.01055156270823931, 0.028896644569568086, -0.03730540761306904, 0.023594012955227704, -0.03336696995264476, 0.03655168639782356, -0.03336696995264476, 0.023594012955227704]}
    - {mu0: 0, rank: 3, ndensity: 1, num_ms_combs: 29, mus: [0, 0, 1], ns: [1, 1, 1], ls: [2, 3, 3], ms_combs: [-2, -1, 3, -2, 0, 2, -2, 1, 1, -2, 2, 0, -2, 3, -1, -1, -2, 3, -1, -1, 2, -1, 0, 1, -1, 1, 0, -1, 2, -1, -1, 3, -2, 0, -3, 3, 0, -2, 2, 0, -1, 1, 0, 0, 0, 0, 1, -1, 0, 2, -2, 0, 3, -3, 1, -3, 2, 1, -2, 1, 1, -1, 0, 1, 0, -1, 1, 1, -2, 1, 2, -3, 2, -3, 1, 2, -2, 0, 2, -1, -1, 2, 0, -2, 2, 1, -3], ctildes: [-0.04884398751269273, 0.06907582304019486, -0.07566877738734057, 0.06907582304019486, -0.04884398751269273, 0.07722912024615657, -0.05982141949286227, 0.021843693912461073, 0.021843693912461073, -0.05982141949286227, 0.07722912024615657, -0.07722912024615657, 0.0, 0.04633747403445038, -0.06178329714030347, 0.04633747403445038, 0.0, -0.07722912024615657, 0.07722912024615657, -0.05982141949286227, 0.021843693912461073, 0.021843693912461073, -0.05982141949286227, 0.07722912024615657, -0.04884398751269273, 0.06907582304019486, -0.07566877738734057, 0.06907582304019486, -0.04884398751269273]}
    - {mu0: 0, rank: 3, ndensity: 1, num_ms_combs: 29, mus: [0, 1, 1], ns: [1, 1, 1], ls: [2, 3, 3], ms_combs: [-2, -1, 3, -2, 0, 2, -2, 1, 1, -2, 2, 0, -2, 3, -1, -1, -2, 3, -1, -1, 2, -1, 0, 1, -1, 1, 0, -1, 2, -1, -1, 3, -2, 0, -3, 3, 0, -2, 2, 0, -1, 1, 0, 0, 0, 0, 1, -1, 0, 2, -2, 0, 3, -3, 1, -3, 2, 1, -2, 1, 1, -1, 0, 1, 0, -1, 1, 1, -2, 1, 2, -3, 2, -3, 1, 2, -2, 0, 2, -1, -1, 2, 0, -2, 2, 1, -3], ctildes: [0.03026520425597533, -0.042801458274016574, 0.046886651152972934, -0.042801458274016574, 0.03026520425597533, -0.04785348653509948, 0.037067151394291425, -0.013535009970138968, -0.013535009970138968, 0.037067151394291425, -0.04785348653509948, 0.04785348653509948, -0.0, -0.028712093090150746, 0.03828278981262511, -0.028712093090150746, -0.0, 0.04785348653509948, -0.04785348653509948, 0.037067151394291425, -0.013535009970138968, -0.013535009970138968, 0.037067151394291425, -0.04785348653509948, 0.03026520425597533, -0.042801458274016574, 0.046886651152972934, -0.042801458274016574, 0.03026520425597533]}
    - {mu0: 0, rank: 3, ndensity: 1, num_ms_combs: 29, mus: [1, 1, 1], ns: [1, 1, 1], ls: [2, 3, 3], ms_combs: [-2, -1, 3, -2, 0, 2, -2, 1, 1, -2, 2, 0, -2, 3, -1, -1, -2, 3, -1, -1, 2, -1, 0, 1, -1, 1, 0, -1, 2, -1, -1, 3, -2, 0, -3, 3, 0, -2, 2, 0, -1, 1, 0, 0, 0, 0, 1, -1, 0, 2, -2, 0, 3, -3, 1, -3, 2, 1, -2, 1, 1, -1, 0, 1, 0, -1, 1, 1, -2, 1, 2, -3, 2, -3, 1, 2, -2, 0, 2, -1, -1, 2, 0, -2, 2, 1, -3], ctildes: [-0.023020621142543506, 0.03255607155137525, -0.03566339165287774, 0.03255607155137525, -0.023020621142543506, 0.03639879561218679, -0.02819438593125686, 0.010295134110043267, 0.010295134110043267, -0.02819438593125686, 0.03639879561218679, -0.03639879561218679, 0.0, 0.02183927825655776, -0.02911903693437228, 0.02183927825655776, 0.0, -0.03639879561218679, 0.03639879561218679, -0.02819438593125686, 0.010295134110043267, 0.010295134110043267, -0.02819438593125686, 0.03639879561218679, -0.023020621142543506, 0.03255607155137525, -0.03566339165287774, 0.03255607155137525, -0.023020621142543506]}
    - {mu0: 0, rank: 3, ndensity: 1, num_ms_combs: 25, mus: [0, 0, 1], ns: [1, 1, 1], ls: [2, 4, 2], ms_combs: [-2, 0, 2, -2, 1, 1, -2, 2, 0, -2, 3, -1, -2, 4, -2, -1, -1, 2, -1, 0, 1, -1, 1, 0, -1, 2, -1, -1, 3, -2, 0, -2, 2, 0, -1, 1, 0, 0, 0, 0, 1, -1, 0, 2, -2, 1, -3, 2, 1, -2, 1, 1, -1, 0, 1, 0, -1, 1, 1, -2, 2, -4, 2, 2, -3, 1, 2, -2, 0, 2, -1, -1, 2, 0, -2], ctildes: [0.001656589689077841, -0.0037042471400102806, 0.006415944305602174, -0.009800516403147589, 0.01386002233459559, -0.0037042471400102806, 0.006626358756311364, -0.009073514593261944, 0.010477192527835842, -0.009800516403147589, 0.006415944305602174, -0.009073514593261944, 0.009939537824671387, -0.009073514593261944, 0.006415944305602174, -0.009800516403147589, 0.010477192527835842, -0.009073514593261944, 0.006626358756311364, -0.0037042471400102806, 0.01386002233459559, -0.009800516403147589, 0.006415944305602174, -0.0037042471400102806, 0.001656589689077841]}
    - {mu0: 0, rank: 3, ndensity: 1, num_ms_combs: 39, mus: [0, 0, 0], ns: [1, 1, 1], ls: [2, 4, 4], ms_combs: [-2, -2, 4, -2, -1, 3, -2, 0, 2, -2, 1, 1, -2, 2, 0, -2, 3, -1, -2, 4, -2, -1, -3, 4, -1, -2, 3, -1, -1, 2, -1, 0, 1, -1, 1, 0, -1, 2, -1, -1, 3, -2, -1, 4, -3, 0, -4, 4, 0, -3, 3, 0, -2, 2, 0, -1, 1, 0, 0, 0, 0, 1, -1, 0, 2, -2, 0, 3, -3, 0, 4, -4, 1, -4, 3, 1, -3, 2, 1, -2, 1, 1, -1, 0, 1, 0, -1, 1, 1, -2, 1, 2, -3, 1, 3, -4, 2, -4, 2, 2, -3, 1, 2, -2, 0, 2, -1, -1, 2, 0, -2, 2, 1, -3, 2, 2, -4], ctildes: [-0.019281149896135597, 0.028921725496612545, -0.03456807353494721, 0.03643794861235742, -0.03456807353494721, 0.028921725496612545, -0.019281149896135597, 0.036071730480677515, -0.03408458094451874, 0.023188969781123874, -0.00814777343814558, -0.00814777343814558, 0.023188969781123874, -0.03408458094451874, 0.036071730480677515, -0.04165204427472161, 0.010413011068680403, 0.011900584824102344, -0.025288743403626628, 0.02975146206025586, -0.025288743403626628, 0.011900584824102344, 0.010413011068680403, -0.04165204427472161, 0.036071730480677515, -0.03408458094451874, 0.023188969781123874, -0.00814777343814558, -0.00814777343814558, 0.023188969781123874, -0.03408458094451874, 0.036071730480677515, -0.019281149896135597, 0.028921725496612545, -0.03456807353494721, 0.03643794861235742, -0.03456807353494721, 0.028921725496612545, -0.019281149896135597]}
    - {mu0: 0, rank: 3, ndensity: 1, num_ms_combs: 39, mus: [0, 0, 1], ns: [1, 1, 1], ls: [2, 4, 4], ms_combs: [-2, -2, 4, -2, -1, 3, -2, 0, 2, -2, 1, 1, -2, 2, 0, -2, 3, -1, -2, 4, -2, -1, -3, 4, -1, -2, 3, -1, -1, 2, -1, 0, 1, -1, 1, 0, -1, 2, -1, -1, 3, -2, -1, 4, -3, 0, -4, 4, 0, -3, 3, 0, -2, 2, 0, -1, 1, 0, 0, 0, 0, 1, -1, 0, 2, -2, 0, 3, -3, 0, 4, -4, 1, -4, 3, 1, -3, 2, 1, -2, 1, 1, -1, 0, 1, 0, -1, 1, 1, -2, 1, 2, -3, 1, 3, -4, 2, -4, 2, 2, -3, 1, 2, -2, 0, 2, -1, -1, 2, 0, -2, 2, 1, -3, 2, 2, -4], ctildes: [0.034343674335939475, -0.05151551266598344, 0.0615728141890011, -0.06490344441870212, 0.0615728141890011, -0.05151551266598344, 0.034343674335939475, -0.06425113497045434, 0.060711614926562754, -0.04130430138445614, 0.0145128521395279, 0.0145128521395279, -0.04130430138445614, 0.060711614926562754, -0.06425113497045434, 0.0741908159888262, -0.01854770399720655, -0.02119737732489231, 0.04504442797747038, -0.05299344331223078, 0.04504442797747038, -0.02119737732489231, -0.01854770399720655, 0.0741908159888262, -0.06425113497045434, 0.060711614926562754, -0.04130430138445614, 0.0145128521395279, 0.0145128521395279, -0.04130430138445614, 0.060711614926562754, -0.06425113497045434, 0.034343674335939475, -0.05151551266598344, 0.0615728141890011, -0.06490344441870212, 0.0615728141890011, -0.05151551266598344, 0.034343674335939475]}
    - {mu0: 0, rank: 3, ndensity: 1, num_ms_combs: 39, mus: [0, 1, 1], ns: [1, 1, 1], ls: [2, 4, 4], ms_combs: [-2, -2, 4, -2, -1, 3, -2, 0, 2, -2, 1, 1, -2, 2, 0, -2, 3, -1, -2, 4, -2, -1, -3, 4, -1, -2, 3, -1, -1, 2, -1, 0, 1, -1, 1, 0, -1, 2, -1, -1, 3, -2, -1, 4, -3, 0, -4, 4, 0, -3, 3, 0, -2, 2, 0, -1, 1, 0, 0, 0, 0, 1, -1, 0, 2, -2, 0, 3, -3, 0, 4, -4, 1, -4, 3, 1, -3, 2, 1, -2, 1, 1, -1, 0, 1, 0, -1, 1, 1, -2, 1, 2, -3, 1, 3, -4, 2, -4, 2, 2, -3, 1, 2, -2, 0, 2, -1, -1, 2, 0, -2, 2, 1, -3, 2, 2, -4], ctildes: [-0.018146200478197087, 0.027219301331301914, -0.03253328747970228, 0.03429309580060904, -0.03253328747970228, 0.027219301331301914, -0.018146200478197087, 0.033948434425534815, -0.03207825479114897, 0.021823993734702746, -0.007668169743815524, -0.007668169743815524, 0.021823993734702746, -0.03207825479114897, 0.033948434425534815, -0.03920027331395443, 0.009800068328488608, 0.011200078791422733, -0.023800168045779592, 0.02800019697855683, -0.023800168045779592, 0.011200078791422733, 0.009800068328488608, -0.03920027331395443, 0.033948434425534815, -0.03207825479114897, 0.021823993734702746, -0.007668169743815524, -0.007668169743815524, 0.021823993734702746, -0.03207825479114897, 0.033948434425534815, -0.018146200478197087, 0.027219301331301914, -0.03253328747970228, 0.03429309580060904, -0.03253328747970228, 0.027219301331301914, -0.018146200478197087]}
    - {mu0: 0, rank: 3, ndensity: 1, num_ms_combs: 39, mus: [1, 1, 1], ns: [1, 1, 1], ls: [2, 4, 4], ms_combs: [-2, -2, 4, -2, -1, 3, -2, 0, 2, -2, 1, 1, -2, 2, 0, -2, 3, -1, -2, 4, -2, -1, -3, 4, -1, -2, 3, -1, -1, 2, -1, 0, 1, -1, 1, 0, -1, 2, -1, -1, 3, -2, -1, 4, -3, 0, -4, 4, 0, -3, 3, 0, -2, 2, 0, -1, 1, 0, 0, 0, 0, 1, -1, 0, 2, -2, 0, 3, -3, 0, 4, -4, 1, -4, 3, 1, -3, 2, 1, -2, 1, 1, -1, 0, 1, 0, -1, 1, 1, -2, 1, 2, -3, 1, 3, -4, 2, -4, 2, 2, -3, 1, 2, -2, 0, 2, -1, -1, 2, 0, -2, 2, 1, -3, 2, 2, -4], ctildes: [0.014429608123537229, -0.021644412673555165, 0.025870021102573283, -0.02726939638632676, 0.025870021102573283, -0.021644412673555165, 0.014429608123537229, -0.02699532641869822, 0.025508185390071766, -0.017354138551520088, 0.006097622726089069, 0.006097622726089069, -0.017354138551520088, 0.025508185390071766, -0.02699532641869822, 0.031171516204482937, -0.007792879051120734, -0.008906148044994348, 0.01892556508386231, -0.02226537011248587, 0.01892556508386231, -0.008906148044994348, -0.007792879051120734, 0.031171516204482937, -0.02699532641869822, 0.025508185390071766, -0.017354138551520088, 0.006097622726089069, 0.006097622726089069, -0.017354138551520088, 0.025508185390071766, -0.02699532641869822, 0.014429608123537229, -0.021644412673555165, 0.025870021102573283, -0.02726939638632676, 0.025870021102573283, -0.021644412673555165, 0.014429608123537229]}
    - {mu0: 0, rank: 3, ndensity: 1, num_ms_combs: 7, mus: [0, 1, 1], ns: [1, 1, 1], ls: [3, 0, 3], ms_combs: [-3, 0, 3, -2, 0, 2, -1, 0, 1, 0, 0, 0, 1, 0, -1, 2, 0, -2, 3, 0, -3], ctildes: [-0.0018232592397249918, 0.0018232592397249918, -0.0018232592397249918, 0.0018232592397249918, -0.0018232592397249918, 0.0018232592397249918, -0.0018232592397249918]}
    - {mu0: 0, rank: 3, ndensity: 1, num_ms_combs: 15, mus: [0, 1, 1], ns: [1, 1, 1], ls: [3, 1, 2], ms_combs: [-3, 1, 2, -2, 0, 2, -2, 1, 1, -1, -1, 2, -1, 0, 1, -1, 1, 0, 0, -1, 1, 0, 0, 0, 0, 1, -1, 1, -1, 0, 1, 0, -1, 1, 1, -2, 2, -1, -1, 2, 0, -2, 3, -1, -2], ctildes: [0.005578521311822401, -0.003220760675926268, -0.00455484386034094, 0.001440368026760727, 0.004073976385357006, 0.003528166757604193, -0.0024947905290344657, -0.004321104190248133, -0.0024947905290344657, 0.003528166757604193, 0.004073976385357006, 0.001440368026760727, -0.00455484386034094, -0.003220760675926268, 0.005578521311822401]}
    - {mu0: 0, rank: 3, ndensity: 1, num_ms_combs: 21, mus: [0, 1, 1], ns: [1, 1, 1], ls: [3, 1, 4], ms_combs: [-3, -1, 4, -3, 0, 3, -3, 1, 2, -2, -1, 3, -2, 0, 2, -2, 1, 1, -1, -1, 2, -1, 0, 1, -1, 1, 0, 0, -1, 1, 0, 0, 0, 0, 1, -1, 1, -1, 0, 1, 0, -1, 1, 1, -2, 2, -1, -1, 2, 0, -2, 2, 1, -3, 3, -1, -2, 3, 0, -3, 3, 1, -4], ctildes: [0.010143733909458958, -0.005071866954729479, 0.0019169854321461166, -0.008784730835345325, 0.006640632568384697, -0.0033203162841923487, 0.007424453084528641, -0.007424453084528641, 0.00469563644444767, -0.006062039989494712, 0.007667941728584466, -0.006062039989494712, 0.00469563644444767, -0.007424453084528641, 0.007424453084528641, -0.0033203162841923487, 0.006640632568384697, -0.008784730835345325, 0.0019169854321461166, -0.005071866954729479, 0.010143733909458958]}
    - {mu0: 0, rank: 3, ndensity: 1, num_ms_combs: 29, mus: [0, 1, 1], ns: [1, 1, 1], ls: [3, 2, 3], ms_combs: [-3, 0, 3, -3, 1, 2, -3, 2, 1, -2, -1, 3, -2, 0, 2, -2, 1, 1, -2, 2, 0, -1, -2, 3, -1, -1, 2, -1, 0, 1, -1, 1, 0, -1, 2, -1, 0, -2, 2, 0, -1, 1, 0, 0, 0, 0, 1, -1, 0, 2, -2, 1, -2, 1, 1, -1, 0, 1, 0, -1, 1, 1, -2, 1, 2, -3, 2, -2, 0, 2, -1, -1, 2, 0, -2, 2, 1, -3, 3, -2, -1, 3, -1, -2, 3, 0, -3], ctildes: [0.08687899550465666, -0.08687899550465666, 0.05494710490057567, -0.08687899550465666, -0.0, 0.06729618074940082, -0.07770693360563317, 0.05494710490057567, 0.06729618074940082, -0.05212739942530302, -0.024573090813115234, 0.08512368585222611, -0.07770693360563317, -0.024573090813115234, 0.06950319746497984, -0.024573090813115234, -0.07770693360563317, 0.08512368585222611, -0.024573090813115234, -0.05212739942530302, 0.06729618074940082, 0.05494710490057567, -0.07770693360563317, 0.06729618074940082, -0.0, -0.08687899550465666, 0.05494710490057567, -0.08687899550465666, 0.08687899550465666]}
    - {mu0: 0, rank: 3, ndensity: 1, num_ms_combs: 7, mus: [0, 0, 1], ns: [1, 1, 1], ls: [3, 3, 0], ms_combs: [-3, 3, 0, -2, 2, 0, -1, 1, 0, 0, 0, 0, 1, -1, 0, 2, -2, 0, 3, -3, 0], ctildes: [0.00603707682787057, -0.00603707682787057, 0.00603707682787057, -0.00603707682787057, 0.00603707682787057, -0.00603707682787057, 0.00603707682787057]}
    - {mu0: 0, rank: 3, ndensity: 1, num_ms_combs: 29, mus: [0, 0, 1], ns: [1, 1, 1], ls: [3, 3, 2], ms_combs: [-3, 1, 2, -3, 2, 1, -3, 3, 0, -2, 0, 2, -2, 1, 1, -2, 2, 0, -2, 3, -1, -1, -1, 2, -1, 0, 1, -1, 1, 0, -1, 2, -1, -1, 3, -2, 0, -2, 2, 0, -1, 1, 0, 0, 0, 0, 1, -1, 0, 2, -2, 1, -3, 2, 1, -2, 1, 1, -1, 0, 1, 0, -1, 1, 1, -2, 2, -3, 1, 2, -2, 0, 2, -1, -1, 2, 0, -2, 3, -3, 0, 3, -2, -1, 3, -1, -2], ctildes: [-0.02580733504306546, 0.040804979374098306, -0.040804979374098306, 0.03649707977078166, -0.0316073992771962, -0.0, 0.040804979374098306, -0.03998055011022128, 0.01154139162155332, 0.024482987126013236, -0.0316073992771962, -0.02580733504306546, 0.03649707977078166, 0.01154139162155332, -0.032643982003941405, 0.01154139162155332, 0.03649707977078166, -0.02580733504306546, -0.0316073992771962, 0.024482987126013236, 0.01154139162155332, -0.03998055011022128, 0.040804979374098306, -0.0, -0.0316073992771962, 0.03649707977078166, -0.040804979374098306, 0.040804979374098306, -0.02580733504306546]}
    - {mu0: 0, rank: 3, ndensity: 1, num_ms_combs: 43, mus: [0, 0, 0], ns: [1, 1, 1], ls: [3, 3, 4], ms_combs: [-3, -1, 4, -3, 0, 3, -3, 1, 2, -3, 2, 1, -3, 3, 0, -2, -2, 4, -2, -1, 3, -2, 0, 2, -2, 1, 1, -2, 2, 0, -2, 3, -1, -1, -3, 4, -1, -2, 3, -1, -1, 2, -1, 0, 1, -1, 1, 0, -1, 2, -1, -1, 3, -2, 0, -3, 3, 0, -2, 2, 0, -1, 1, 0, 0, 0, 0, 1, -1, 0, 2, -2, 0, 3, -3, 1, -3, 2, 1, -2, 1, 1, -1, 0, 1, 0, -1, 1, 1, -2, 1, 2, -3, 1, 3, -4, 2, -3, 1, 2, -2, 0, 2, -1, -1, 2, 0, -2, 2, 1, -3, 2, 2, -4, 3, -3, 0, 3, -2, -1, 3, -1, -2, 3, 0, -3, 3, 1, -4], ctildes: [-0.010162606658988944, 0.012446600408565935, -0.011523313326856655, 0.00858897085519049, -0.0047043731660842405, 0.01311986993645615, -0.005867383969251738, -0.0027160711212058865, 0.008870651099488548, -0.010976870285900314, 0.00858897085519049, -0.010162606658988944, -0.005867383969251738, 0.00991768948031833, -0.006073319336462372, -0.001568124388694747, 0.008870651099488548, -0.011523313326856655, 0.012446600408565935, -0.0027160711212058865, -0.006073319336462372, 0.009408746332168481, -0.006073319336462372, -0.0027160711212058865, 0.012446600408565935, -0.011523313326856655, 0.008870651099488548, -0.001568124388694747, -0.006073319336462372, 0.00991768948031833, -0.005867383969251738, -0.010162606658988944, 0.00858897085519049, -0.010976870285900314, 0.008870651099488548, -0.0027160711212058865, -0.005867383969251738, 0.01311986993645615, -0.0047043731660842405, 0.00858897085519049, -0.011523313326856655, 0.012446600408565935, -0.010162606658988944]}
    - {mu0: 0, rank: 3, ndensity: 1, num_ms_combs: 43, mus: [0, 0, 1], ns: [1, 1, 1], ls: [3, 3, 4], ms_combs: [-3, -1, 4, -3, 0, 3, -3, 1, 2, -3, 2, 1, -3, 3, 0, -2, -2, 4, -2, -1, 3, -2, 0, 2, -2, 1, 1, -2, 2, 0, -2, 3, -1, -1, -3, 4, -1, -2, 3, -1, -1, 2, -1, 0, 1, -1, 1, 0, -1, 2, -1, -1, 3, -2, 0, -3, 3, 0, -2, 2, 0, -1, 1, 0, 0, 0, 0, 1, -1, 0, 2, -2, 0, 3, -3, 1, -3, 2, 1, -2, 1, 1, -1, 0, 1, 0, -1, 1, 1, -2, 1, 2, -3, 1, 3, -4, 2, -3, 1, 2, -2, 0, 2, -1, -1, 2, 0, -2, 2, 1, -3, 2, 2, -4, 3, -3, 0, 3, -2, -1, 3, -1, -2, 3, 0, -3, 3, 1, -4], ctildes: [0.01132385475831472, -0.013868833065256457, 0.012840044963509309, -0.009570404695487002, 0.005241926628591074, -0.014619034918270652, 0.006537830903875692, 0.0030264277583334476, -0.009884271627638361, 0.012231161648714456, -0.009570404695487002, 0.01132385475831472, 0.006537830903875692, -0.011050951688054776, 0.006767297837522165, 0.0017473088761970248, -0.009884271627638361, 0.012840044963509309, -0.013868833065256457, 0.0030264277583334476, 0.006767297837522165, -0.010483853257182148, 0.006767297837522165, 0.0030264277583334476, -0.013868833065256457, 0.012840044963509309, -0.009884271627638361, 0.0017473088761970248, 0.006767297837522165, -0.011050951688054776, 0.006537830903875692, 0.01132385475831472, -0.009570404695487002, 0.012231161648714456, -0.009884271627638361, 0.0030264277583334476, 0.006537830903875692, -0.014619034918270652, 0.005241926628591074, -0.009570404695487002, 0.012840044963509309, -0.013868833065256457, 0.01132385475831472]}
    - {mu0: 0, rank: 3, ndensity: 1, num_ms_combs: 43, mus: [0, 1, 1], ns: [1, 1, 1], ls: [3, 3, 4], ms_combs: [-3, -1, 4, -3, 0, 3, -3, 1, 2, -3, 2, 1, -3, 3, 0, -2, -2, 4, -2, -1, 3, -2, 0, 2, -2, 1, 1, -2, 2, 0, -2, 3, -1, -1, -3, 4, -1, -2, 3, -1, -1, 2, -1, 0, 1, -1, 1, 0, -1, 2, -1, -1, 3, -2, 0, -3, 3, 0, -2, 2, 0, -1, 1, 0, 0, 0, 0, 1, -1, 0, 2, -2, 0, 3, -3, 1, -3, 2, 1, -2, 1, 1, -1, 0, 1, 0, -1, 1, 1, -2, 1, 2, -3, 1, 3, -4, 2, -3, 1, 2, -2, 0, 2, -1, -1, 2, 0, -2, 2, 1, -3, 2, 2, -4, 3, -3, 0, 3, -2, -1, 3, -1, -2, 3, 0, -3, 3, 1, -4], ctildes: [-0.027896037475174364, 0.0341655288929995, -0.031631134726624384, 0.02357645640428746, -0.012913357226338502, 0.0360136326926586, -0.01610578551150652, -0.007455530291077528, 0.024349659866216653, -0.030131165667496903, 0.02357645640428746, -0.027896037475174364, -0.01610578551150652, 0.02722374747874257, -0.01667107165451495, -0.0043044524087795, 0.024349659866216653, -0.031631134726624384, 0.0341655288929995, -0.007455530291077528, -0.01667107165451495, 0.025826714452677004, -0.01667107165451495, -0.007455530291077528, 0.0341655288929995, -0.031631134726624384, 0.024349659866216653, -0.0043044524087795, -0.01667107165451495, 0.02722374747874257, -0.01610578551150652, -0.027896037475174364, 0.02357645640428746, -0.030131165667496903, 0.024349659866216653, -0.007455530291077528, -0.01610578551150652, 0.0360136326926586, -0.012913357226338502, 0.02357645640428746, -0.031631134726624384, 0.0341655288929995, -0.027896037475174364]}
    - {mu0: 0, rank: 3, ndensity: 1, num_ms_combs: 43, mus: [1, 1, 1], ns: [1, 1, 1], ls: [3, 3, 4], ms_combs: [-3, -1, 4, -3, 0, 3, -3, 1, 2, -3, 2, 1, -3, 3, 0, -2, -2, 4, -2, -1, 3, -2, 0, 2, -2, 1, 1, -2, 2, 0, -2, 3, -1, -1, -3, 4, -1, -2, 3, -1, -1, 2, -1, 0, 1, -1, 1, 0, -1, 2, -1, -1, 3, -2, 0, -3, 3, 0, -2, 2, 0, -1, 1, 0, 0, 0, 0, 1, -1, 0, 2, -2, 0, 3, -3, 1, -3, 2, 1, -2, 1, 1, -1, 0, 1, 0, -1, 1, 1, -2, 1, 2, -3, 1, 3, -4, 2, -3, 1, 2, -2, 0, 2, -1, -1, 2, 0, -2, 2, 1, -3, 2, 2, -4, 3, -3, 0, 3, -2, -1, 3, -1, -2, 3, 0, -3, 3, 1, -4], ctildes: [0.012377491716853949, -0.015159269528920518, 0.014034757030345488, -0.010460890515957133, 0.005729665808200304, -0.01597927450247721, 0.007146148514444246, 0.0033080241057422445, -0.01080396144328824, 0.013369219689373317, -0.010460890515957133, 0.012377491716853949, 0.007146148514444246, -0.012079196166112607, 0.007396966379130792, 0.0019098886027334348, -0.01080396144328824, 0.014034757030345488, -0.015159269528920518, 0.0033080241057422445, 0.007396966379130792, -0.011459331616400607, 0.007396966379130792, 0.0033080241057422445, -0.015159269528920518, 0.014034757030345488, -0.01080396144328824, 0.0019098886027334348, 0.007396966379130792, -0.012079196166112607, 0.007146148514444246, 0.012377491716853949, -0.010460890515957133, 0.013369219689373317, -0.01080396144328824, 0.0033080241057422445, 0.007146148514444246, -0.01597927450247721, 0.005729665808200304, -0.010460890515957133, 0.014034757030345488, -0.015159269528920518, 0.012377491716853949]}
    - {mu0: 0, rank: 3, ndensity: 1, num_ms_combs: 21, mus: [0, 0, 1], ns: [1, 1, 1], ls: [3, 4, 1], ms_combs: [-3, 2, 1, -3, 3, 0, -3, 4, -1, -2, 1, 1, -2, 2, 0, -2, 3, -1, -1, 0, 1, -1, 1, 0, -1, 2, -1, 0, -1, 1, 0, 0, 0, 0, 1, -1, 1, -2, 1, 1, -1, 0, 1, 0, -1, 2, -3, 1, 2, -2, 0, 2, -1, -1, 3, -4, 1, 3, -3, 0, 3, -2, -1], ctildes: [0.0015430788939256813, -0.004082602830296695, 0.00816520566059339, -0.002672690957122505, 0.00534538191424501, -0.007071275823762369, 0.003779755792478154, -0.005976318839902076, 0.005976318839902076, -0.00487964410411579, 0.006172315575702725, -0.00487964410411579, 0.005976318839902076, -0.005976318839902076, 0.003779755792478154, -0.007071275823762369, 0.00534538191424501, -0.002672690957122505, 0.00816520566059339, -0.004082602830296695, 0.0015430788939256813]}
    - {mu0: 0, rank: 3, ndensity: 1, num_ms_combs: 43, mus: [0, 0, 1], ns: [1, 1, 1], ls: [3, 4, 3], ms_combs: [-3, 0, 3, -3, 1, 2, -3, 2, 1, -3, 3, 0, -3, 4, -1, -2, -1, 3, -2, 0, 2, -2, 1, 1, -2, 2, 0, -2, 3, -1, -2, 4, -2, -1, -2, 3, -1, -1, 2, -1, 0, 1, -1, 1, 0, -1, 2, -1, -1, 3, -2, -1, 4, -3, 0, -3, 3, 0, -2, 2, 0, -1, 1, 0, 0, 0, 0, 1, -1, 0, 2, -2, 0, 3, -3, 1, -4, 3, 1, -3, 2, 1, -2, 1, 1, -1, 0, 1, 0, -1, 1, 1, -2, 1, 2, -3, 2, -4, 2, 2, -3, 1, 2, -2, 0, 2, -1, -1, 2, 0, -2, 2, 1, -3, 3, -4, 1, 3, -3, 0, 3, -2, -1, 3, -1, -2, 3, 0, -3], ctildes: [0.006365387047079927, -0.01162155337155869, 0.01559194961807657, -0.016841230863542687, 0.013750807609285787, -0.01162155337155869, 0.014852570365058878, -0.012002688905491176, 0.003675057640869249, 0.007939032172740404, -0.017752216332448115, 0.01559194961807657, -0.012002688905491176, 0.0021217956823599755, 0.008217678928152736, -0.013419414218690978, 0.007939032172740404, 0.013750807609285787, -0.016841230863542687, 0.003675057640869249, 0.008217678928152736, -0.012730774094159854, 0.008217678928152736, 0.003675057640869249, -0.016841230863542687, 0.013750807609285787, 0.007939032172740404, -0.013419414218690978, 0.008217678928152736, 0.0021217956823599755, -0.012002688905491176, 0.01559194961807657, -0.017752216332448115, 0.007939032172740404, 0.003675057640869249, -0.012002688905491176, 0.014852570365058878, -0.01162155337155869, 0.013750807609285787, -0.016841230863542687, 0.01559194961807657, -0.01162155337155869, 0.006365387047079927]}
    - {mu0: 0, rank: 3, ndensity: 1, num_ms_combs: 9, mus: [0, 1, 1], ns: [1, 1, 1], ls: [4, 0, 4], ms_combs: [-4, 0, 4, -3, 0, 3, -2, 0, 2, -1, 0, 1, 0, 0, 0, 1, 0, -1, 2, 0, -2, 3, 0, -3, 4, 0, -4], ctildes: [-0.047823411937355446, 0.047823411937355446, -0.047823411937355446, 0.047823411937355446, -0.047823411937355446, 0.047823411937355446, -0.047823411937355446, 0.047823411937355446, -0.047823411937355446]}
    - {mu0: 0, rank: 3, ndensity: 1, num_ms_combs: 21, mus: [0, 1, 1], ns: [1, 1, 1], ls: [4, 1, 3], ms_combs: [-4, 1, 3, -3, 0, 3, -3, 1, 2, -2, -1, 3, -2, 0, 2, -2, 1, 1, -1, -1, 2, -1, 0, 1, -1, 1, 0, 0, -1, 1, 0, 0, 0, 0, 1, -1, 1, -1, 0, 1, 0, -1, 1, 1, -2, 2, -1, -1, 2, 0, -2, 2, 1, -3, 3, -1, -2, 3, 0, -3, 4, -1, -3], ctildes: [0.02175265871281076, -0.01087632935640538, -0.018838354145605165, 0.0041108659035328215, 0.014240456751195217, 0.015921315134505058, -0.007120228375597609, -0.015921315134505058, -0.012999698944382382, 0.010069524489424858, 0.016443463614131286, 0.010069524489424858, -0.012999698944382382, -0.015921315134505058, -0.007120228375597609, 0.015921315134505058, 0.014240456751195217, 0.0041108659035328215, -0.018838354145605165, -0.01087632935640538, 0.02175265871281076]}
    - {mu0: 0, rank: 3, ndensity: 1, num_ms_combs: 25, mus: [0, 1, 1], ns: [1, 1, 1], ls: [4, 2, 2], ms_combs: [-4, 2, 2, -3, 1, 2, -3, 2, 1, -2, 0, 2, -2, 1, 1, -2, 2, 0, -1, -1, 2, -1, 0, 1, -1, 1, 0, -1, 2, -1, 0, -2, 2, 0, -1, 1, 0, 0, 0, 0, 1, -1, 0, 2, -2, 1, -2, 1, 1, -1, 0, 1, 0, -1, 1, 1, -2, 2, -2, 0, 2, -1, -1, 2, 0, -2, 3, -2, -1, 3, -1, -2, 4, -2, -2], ctildes: [-0.0025285713526856574, 0.0017879700638482373, 0.0017879700638482373, -0.0011705012142064265, -0.0019114203601484268, -0.0011705012142064265, 0.0006757891852828006, 0.00165533853516455, 0.00165533853516455, 0.0006757891852828006, -0.00030222211262251125, -0.001208888450490045, -0.00181333261921709, -0.001208888450490045, -0.00030222211262251125, 0.0006757891852828006, 0.00165533853516455, 0.00165533853516455, 0.0006757891852828006, -0.0011705012142064265, -0.0019114203601484268, -0.0011705012142064265, 0.0017879700638482373, 0.0017879700638482373, -0.0025285713526856574]}
    - {mu0: 0, rank: 3, ndensity: 1, num_ms_combs: 39, mus: [0, 1, 1], ns: [1, 1, 1], ls: [4, 2, 4], ms_combs: [-4, 0, 4, -4, 1, 3, -4, 2, 2, -3, -1, 4, -3, 0, 3, -3, 1, 2, -3, 2, 1, -2, -2, 4, -2, -1, 3, -2, 0, 2, -2, 1, 1, -2, 2, 0, -1, -2, 3, -1, -1, 2, -1, 0, 1, -1, 1, 0, -1, 2, -1, 0, -2, 2, 0, -1, 1, 0, 0, 0, 0, 1, -1, 0, 2, -2, 1, -2, 1, 1, -1, 0, 1, 0, -1, 1, 1, -2, 1, 2, -3, 2, -2, 0, 2, -1, -1, 2, 0, -2, 2, 1, -3, 2, 2, -4, 3, -2, -1, 3, -1, -2, 3, 0, -3, 3, 1, -4, 4, -2, -2, 4, -1, -3, 4, 0, -4], ctildes: [-0.07292260991793409, 0.06315283623434784, -0.033756609000303604, 0.06315283623434784, 0.018230652479483522, -0.059673820186104225, 0.05063491464266531, -0.033756609000303604, -0.059673820186104225, 0.020835032710506782, 0.04059825219128359, -0.060520298244599535, 0.05063491464266531, 0.04059825219128359, -0.04427444565203682, -0.014264771741112, 0.06379399520808819, -0.060520298244599535, -0.014264771741112, 0.052087581776266954, -0.014264771741112, -0.060520298244599535, 0.06379399520808819, -0.014264771741112, -0.04427444565203682, 0.04059825219128359, 0.05063491464266531, -0.060520298244599535, 0.04059825219128359, 0.020835032710506782, -0.059673820186104225, -0.033756609000303604, 0.05063491464266531, -0.059673820186104225, 0.018230652479483522, 0.06315283623434784, -0.033756609000303604, 0.06315283623434784, -0.07292260991793409]}
    - {mu0: 0, rank: 3, ndensity: 1, num_ms_combs: 43, mus: [0, 1, 1], ns: [1, 1, 1], ls: [4, 3, 3], ms_combs: [-4, 1, 3, -4, 2, 2, -4, 3, 1, -3, 0, 3, -3, 1, 2, -3, 2, 1, -3, 3, 0, -2, -1, 3, -2, 0, 2, -2, 1, 1, -2, 2, 0, -2, 3, -1, -1, -2, 3, -1, -1, 2, -1, 0, 1, -1, 1, 0, -1, 2, -1, -1, 3, -2, 0, -3, 3, 0, -2, 2, 0, -1, 1, 0, 0, 0, 0, 1, -1, 0, 2, -2, 0, 3, -3, 1, -3, 2, 1, -2, 1, 1, -1, 0, 1, 0, -1, 1, 1, -2, 1, 2, -3, 2, -3, 1, 2, -2, 0, 2, -1, -1, 2, 0, -2, 2, 1, -3, 3, -3, 0, 3, -2, -1, 3, -1, -2, 3, 0, -3, 4, -3, -1, 4, -2, -2, 4, -1, -3], ctildes: [-0.012002613190925559, 0.015495307037538639, -0.012002613190925559, 0.014700138745136523, -0.006929711693105832, -0.006929711693105832, 0.014700138745136523, -0.013609683552826088, -0.00320783306486826, 0.011713351149425337, -0.00320783306486826, -0.013609683552826088, 0.010144059444357301, 0.010476739714279724, -0.007172932987240016, -0.007172932987240016, 0.010476739714279724, 0.010144059444357301, -0.005556130280306968, -0.012964304501098683, -0.0018520434267689891, 0.011112260560613936, -0.0018520434267689891, -0.012964304501098683, -0.005556130280306968, 0.010144059444357301, 0.010476739714279724, -0.007172932987240016, -0.007172932987240016, 0.010476739714279724, 0.010144059444357301, -0.013609683552826088, -0.00320783306486826, 0.011713351149425337, -0.00320783306486826, -0.013609683552826088, 0.014700138745136523, -0.006929711693105832, -0.006929711693105832, 0.014700138745136523, -0.012002613190925559, 0.015495307037538639, -0.012002613190925559]}
    - {mu0: 0, rank: 3, ndensity: 1, num_ms_combs: 9, mus: [0, 0, 1], ns: [1, 1, 1], ls: [4, 4, 0], ms_combs: [-4, 4, 0, -3, 3, 0, -2, 2, 0, -1, 1, 0, 0, 0, 0, 1, -1, 0, 2, -2, 0, 3, -3, 0, 4, -4, 0], ctildes: [0.016973880594408398, -0.016973880594408398, 0.016973880594408398, -0.016973880594408398, 0.016973880594408398, -0.016973880594408398, 0.016973880594408398, -0.016973880594408398, 0.016973880594408398]}
    - {mu0: 0, rank: 3, ndensity: 1, num_ms_combs: 39, mus: [0, 0, 1], ns: [1, 1, 1], ls: [4, 4, 2], ms_combs: [-4, 2, 2, -4, 3, 1, -4, 4, 0, -3, 1, 2, -3, 2, 1, -3, 3, 0, -3, 4, -1, -2, 0, 2, -2, 1, 1, -2, 2, 0, -2, 3, -1, -2, 4, -2, -1, -1, 2, -1, 0, 1, -1, 1, 0, -1, 2, -1, -1, 3, -2, 0, -2, 2, 0, -1, 1, 0, 0, 0, 0, 1, -1, 0, 2, -2, 1, -3, 2, 1, -2, 1, 1, -1, 0, 1, 0, -1, 1, 1, -2, 2, -4, 2, 2, -3, 1, 2, -2, 0, 2, -1, -1, 2, 0, -2, 3, -4, 1, 3, -3, 0, 3, -2, -1, 3, -1, -2, 4, -4, 0, 4, -3, -1, 4, -2, -2], ctildes: [0.014012602232520564, -0.026215179788925753, 0.03027068052149667, -0.02101890382292009, 0.024771016127695594, -0.0075676701303741675, -0.026215179788925753, 0.025122395033442445, -0.016852615714063483, -0.008648766405158187, 0.024771016127695594, 0.014012602232520564, -0.026481331216875355, 0.005921405089556578, 0.018378629085100396, -0.016852615714063483, -0.02101890382292009, 0.025122395033442445, 0.005921405089556578, -0.021621916012895467, 0.005921405089556578, 0.025122395033442445, -0.02101890382292009, -0.016852615714063483, 0.018378629085100396, 0.005921405089556578, -0.026481331216875355, 0.014012602232520564, 0.024771016127695594, -0.008648766405158187, -0.016852615714063483, 0.025122395033442445, -0.026215179788925753, -0.0075676701303741675, 0.024771016127695594, -0.02101890382292009, 0.03027068052149667, -0.026215179788925753, 0.014012602232520564]}
    - {mu0: 0, rank: 3, ndensity: 1, num_ms_combs: 61, mus: [0, 0, 0], ns: [1, 1, 1], ls: [4, 4, 4], ms_combs: [-4, 0, 4, -4, 1, 3, -4, 2, 2, -4, 3, 1, -4, 4, 0, -3, -1, 4, -3, 0, 3, -3, 1, 2, -3, 2, 1, -3, 3, 0, -3, 4, -1, -2, -2, 4, -2, -1, 3, -2, 0, 2, -2, 1, 1, -2, 2, 0, -2, 3, -1, -2, 4, -2, -1, -3, 4, -1, -2, 3, -1, -1, 2, -1, 0, 1, -1, 1, 0, -1, 2, -1, -1, 3, -2, -1, 4, -3, 0, -4, 4, 0, -3, 3, 0, -2, 2, 0, -1, 1, 0, 0, 0, 0, 1, -1, 0, 2, -2, 0, 3, -3, 0, 4, -4, 1, -4, 3, 1, -3, 2, 1, -2, 1, 1, -1, 0, 1, 0, -1, 1, 1, -2, 1, 2, -3, 1, 3, -4, 2, -4, 2, 2, -3, 1, 2, -2, 0, 2, -1, -1, 2, 0, -2, 2, 1, -3, 2, 2, -4, 3, -4, 1, 3, -3, 0, 3, -2, -1, 3, -1, -2, 3, 0, -3, 3, 1, -4, 4, -4, 0, 4, -3, -1, 4, -2, -2, 4, -1, -3, 4, 0, -4], ctildes: [0.001095281571451072, -0.0017317920966869284, 0.001963667913064281, -0.0017317920966869284, 0.001095281571451072, -0.0017317920966869284, 0.0016429223962977162, -0.0006545559188599493, -0.0006545559188599493, 0.0016429223962977162, -0.0017317920966869284, 0.001963667913064281, -0.0006545559188599493, -0.0008605783943348886, 0.001484393337506248, -0.0008605783943348886, -0.0006545559188599493, 0.001963667913064281, -0.0017317920966869284, -0.0006545559188599493, 0.001484393337506248, -0.0007041096095907665, -0.0007041096095907665, 0.001484393337506248, -0.0006545559188599493, -0.0017317920966869284, 0.001095281571451072, 0.0016429223962977162, -0.0008605783943348886, -0.0007041096095907665, 0.001408219219181533, -0.0007041096095907665, -0.0008605783943348886, 0.0016429223962977162, 0.001095281571451072, -0.0017317920966869284, -0.0006545559188599493, 0.001484393337506248, -0.0007041096095907665, -0.0007041096095907665, 0.001484393337506248, -0.0006545559188599493, -0.0017317920966869284, 0.001963667913064281, -0.0006545559188599493, -0.0008605783943348886, 0.001484393337506248, -0.0008605783943348886, -0.0006545559188599493, 0.001963667913064281, -0.0017317920966869284, 0.0016429223962977162, -0.0006545559188599493, -0.0006545559188599493, 0.0016429223962977162, -0.0017317920966869284, 0.001095281571451072, -0.0017317920966869284, 0.001963667913064281, -0.0017317920966869284, 0.001095281571451072]}
