elements: [In, P] 
E0: [-2.842722, -0.742372] 
deltaSplineBins: 0.001000 
embeddings:
  0: {ndensity: 1, FS_parameters: [1.0, 1.0], npoti: FinnisSinclair, rho_core_cutoff: 100000, drho_core_cutoff: 250}
  1: {ndensity: 1, FS_parameters: [1.0, 1.0], npoti: FinnisSinclair, rho_core_cutoff: 100000, drho_core_cutoff: 250}
bonds:
  [0, 0]: {nradmax: 12, lmax: 5, nradbasemax: 12, radbasename: ChebExpCos, radparameters: [1.737], radcoefficients: [[[1, 0, 0, 0, 0, 0, 0, 0, 0, 0, 0, 0], [1, 0, 0, 0, 0, 0, 0, 0, 0, 0, 0, 0], [1, 0, 0, 0, 0, 0, 0, 0, 0, 0, 0, 0], [1, 0, 0, 0, 0, 0, 0, 0, 0, 0, 0, 0], [1, 0, 0, 0, 0, 0, 0, 0, 0, 0, 0, 0], [1, 0, 0, 0, 0, 0, 0, 0, 0, 0, 0, 0]], [[0, 1, 0, 0, 0, 0, 0, 0, 0, 0, 0, 0], [0, 1, 0, 0, 0, 0, 0, 0, 0, 0, 0, 0], [0, 1, 0, 0, 0, 0, 0, 0, 0, 0, 0, 0], [0, 1, 0, 0, 0, 0, 0, 0, 0, 0, 0, 0], [0, 1, 0, 0, 0, 0, 0, 0, 0, 0, 0, 0], [0, 1, 0, 0, 0, 0, 0, 0, 0, 0, 0, 0]], [[0, 0, 1, 0, 0, 0, 0, 0, 0, 0, 0, 0], [0, 0, 1, 0, 0, 0, 0, 0, 0, 0, 0, 0], [0, 0, 1, 0, 0, 0, 0, 0, 0, 0, 0, 0], [0, 0, 1, 0, 0, 0, 0, 0, 0, 0, 0, 0], [0, 0, 1, 0, 0, 0, 0, 0, 0, 0, 0, 0], [0, 0, 1, 0, 0, 0, 0, 0, 0, 0, 0, 0]], [[0, 0, 0, 1, 0, 0, 0, 0, 0, 0, 0, 0], [0, 0, 0, 1, 0, 0, 0, 0, 0, 0, 0, 0], [0, 0, 0, 1, 0, 0, 0, 0, 0, 0, 0, 0], [0, 0, 0, 1, 0, 0, 0, 0, 0, 0, 0, 0], [0, 0, 0, 1, 0, 0, 0, 0, 0, 0, 0, 0], [0, 0, 0, 1, 0, 0, 0, 0, 0, 0, 0, 0]], [[0, 0, 0, 0, 1, 0, 0, 0, 0, 0, 0, 0], [0, 0, 0, 0, 1, 0, 0, 0, 0, 0, 0, 0], [0, 0, 0, 0, 1, 0, 0, 0, 0, 0, 0, 0], [0, 0, 0, 0, 1, 0, 0, 0, 0, 0, 0, 0], [0, 0, 0, 0, 1, 0, 0, 0, 0, 0, 0, 0], [0, 0, 0, 0, 1, 0, 0, 0, 0, 0, 0, 0]], [[0, 0, 0, 0, 0, 1, 0, 0, 0, 0, 0, 0], [0, 0, 0, 0, 0, 1, 0, 0, 0, 0, 0, 0], [0, 0, 0, 0, 0, 1, 0, 0, 0, 0, 0, 0], [0, 0, 0, 0, 0, 1, 0, 0, 0, 0, 0, 0], [0, 0, 0, 0, 0, 1, 0, 0, 0, 0, 0, 0], [0, 0, 0, 0, 0, 1, 0, 0, 0, 0, 0, 0]], [[0, 0, 0, 0, 0, 0, 1, 0, 0, 0, 0, 0], [0, 0, 0, 0, 0, 0, 1, 0, 0, 0, 0, 0], [0, 0, 0, 0, 0, 0, 1, 0, 0, 0, 0, 0], [0, 0, 0, 0, 0, 0, 1, 0, 0, 0, 0, 0], [0, 0, 0, 0, 0, 0, 1, 0, 0, 0, 0, 0], [0, 0, 0, 0, 0, 0, 1, 0, 0, 0, 0, 0]], [[0, 0, 0, 0, 0, 0, 0, 1, 0, 0, 0, 0], [0, 0, 0, 0, 0, 0, 0, 1, 0, 0, 0, 0], [0, 0, 0, 0, 0, 0, 0, 1, 0, 0, 0, 0], [0, 0, 0, 0, 0, 0, 0, 1, 0, 0, 0, 0], [0, 0, 0, 0, 0, 0, 0, 1, 0, 0, 0, 0], [0, 0, 0, 0, 0, 0, 0, 1, 0, 0, 0, 0]], [[0, 0, 0, 0, 0, 0, 0, 0, 1, 0, 0, 0], [0, 0, 0, 0, 0, 0, 0, 0, 1, 0, 0, 0], [0, 0, 0, 0, 0, 0, 0, 0, 1, 0, 0, 0], [0, 0, 0, 0, 0, 0, 0, 0, 1, 0, 0, 0], [0, 0, 0, 0, 0, 0, 0, 0, 1, 0, 0, 0], [0, 0, 0, 0, 0, 0, 0, 0, 1, 0, 0, 0]], [[0, 0, 0, 0, 0, 0, 0, 0, 0, 1, 0, 0], [0, 0, 0, 0, 0, 0, 0, 0, 0, 1, 0, 0], [0, 0, 0, 0, 0, 0, 0, 0, 0, 1, 0, 0], [0, 0, 0, 0, 0, 0, 0, 0, 0, 1, 0, 0], [0, 0, 0, 0, 0, 0, 0, 0, 0, 1, 0, 0], [0, 0, 0, 0, 0, 0, 0, 0, 0, 1, 0, 0]], [[0, 0, 0, 0, 0, 0, 0, 0, 0, 0, 1, 0], [0, 0, 0, 0, 0, 0, 0, 0, 0, 0, 1, 0], [0, 0, 0, 0, 0, 0, 0, 0, 0, 0, 1, 0], [0, 0, 0, 0, 0, 0, 0, 0, 0, 0, 1, 0], [0, 0, 0, 0, 0, 0, 0, 0, 0, 0, 1, 0], [0, 0, 0, 0, 0, 0, 0, 0, 0, 0, 1, 0]], [[0, 0, 0, 0, 0, 0, 0, 0, 0, 0, 0, 1], [0, 0, 0, 0, 0, 0, 0, 0, 0, 0, 0, 1], [0, 0, 0, 0, 0, 0, 0, 0, 0, 0, 0, 1], [0, 0, 0, 0, 0, 0, 0, 0, 0, 0, 0, 1], [0, 0, 0, 0, 0, 0, 0, 0, 0, 0, 0, 1], [0, 0, 0, 0, 0, 0, 0, 0, 0, 0, 0, 1]]], prehc: 0, lambdahc: 1.737, rcut: 5.790, dcut: 0.01, rcut_in: 1.705, dcut_in: 0.01, inner_cutoff_type: distance}
  [0, 1]: {nradmax: 12, lmax: 5, nradbasemax: 12, radbasename: ChebExpCos, radparameters: [1.502], radcoefficients: [[[1, 0, 0, 0, 0, 0, 0, 0, 0, 0, 0, 0], [1, 0, 0, 0, 0, 0, 0, 0, 0, 0, 0, 0], [1, 0, 0, 0, 0, 0, 0, 0, 0, 0, 0, 0], [1, 0, 0, 0, 0, 0, 0, 0, 0, 0, 0, 0], [1, 0, 0, 0, 0, 0, 0, 0, 0, 0, 0, 0], [1, 0, 0, 0, 0, 0, 0, 0, 0, 0, 0, 0]], [[0, 1, 0, 0, 0, 0, 0, 0, 0, 0, 0, 0], [0, 1, 0, 0, 0, 0, 0, 0, 0, 0, 0, 0], [0, 1, 0, 0, 0, 0, 0, 0, 0, 0, 0, 0], [0, 1, 0, 0, 0, 0, 0, 0, 0, 0, 0, 0], [0, 1, 0, 0, 0, 0, 0, 0, 0, 0, 0, 0], [0, 1, 0, 0, 0, 0, 0, 0, 0, 0, 0, 0]], [[0, 0, 1, 0, 0, 0, 0, 0, 0, 0, 0, 0], [0, 0, 1, 0, 0, 0, 0, 0, 0, 0, 0, 0], [0, 0, 1, 0, 0, 0, 0, 0, 0, 0, 0, 0], [0, 0, 1, 0, 0, 0, 0, 0, 0, 0, 0, 0], [0, 0, 1, 0, 0, 0, 0, 0, 0, 0, 0, 0], [0, 0, 1, 0, 0, 0, 0, 0, 0, 0, 0, 0]], [[0, 0, 0, 1, 0, 0, 0, 0, 0, 0, 0, 0], [0, 0, 0, 1, 0, 0, 0, 0, 0, 0, 0, 0], [0, 0, 0, 1, 0, 0, 0, 0, 0, 0, 0, 0], [0, 0, 0, 1, 0, 0, 0, 0, 0, 0, 0, 0], [0, 0, 0, 1, 0, 0, 0, 0, 0, 0, 0, 0], [0, 0, 0, 1, 0, 0, 0, 0, 0, 0, 0, 0]], [[0, 0, 0, 0, 1, 0, 0, 0, 0, 0, 0, 0], [0, 0, 0, 0, 1, 0, 0, 0, 0, 0, 0, 0], [0, 0, 0, 0, 1, 0, 0, 0, 0, 0, 0, 0], [0, 0, 0, 0, 1, 0, 0, 0, 0, 0, 0, 0], [0, 0, 0, 0, 1, 0, 0, 0, 0, 0, 0, 0], [0, 0, 0, 0, 1, 0, 0, 0, 0, 0, 0, 0]], [[0, 0, 0, 0, 0, 1, 0, 0, 0, 0, 0, 0], [0, 0, 0, 0, 0, 1, 0, 0, 0, 0, 0, 0], [0, 0, 0, 0, 0, 1, 0, 0, 0, 0, 0, 0], [0, 0, 0, 0, 0, 1, 0, 0, 0, 0, 0, 0], [0, 0, 0, 0, 0, 1, 0, 0, 0, 0, 0, 0], [0, 0, 0, 0, 0, 1, 0, 0, 0, 0, 0, 0]], [[0, 0, 0, 0, 0, 0, 1, 0, 0, 0, 0, 0], [0, 0, 0, 0, 0, 0, 1, 0, 0, 0, 0, 0], [0, 0, 0, 0, 0, 0, 1, 0, 0, 0, 0, 0], [0, 0, 0, 0, 0, 0, 1, 0, 0, 0, 0, 0], [0, 0, 0, 0, 0, 0, 1, 0, 0, 0, 0, 0], [0, 0, 0, 0, 0, 0, 1, 0, 0, 0, 0, 0]], [[0, 0, 0, 0, 0, 0, 0, 1, 0, 0, 0, 0], [0, 0, 0, 0, 0, 0, 0, 1, 0, 0, 0, 0], [0, 0, 0, 0, 0, 0, 0, 1, 0, 0, 0, 0], [0, 0, 0, 0, 0, 0, 0, 1, 0, 0, 0, 0], [0, 0, 0, 0, 0, 0, 0, 1, 0, 0, 0, 0], [0, 0, 0, 0, 0, 0, 0, 1, 0, 0, 0, 0]], [[0, 0, 0, 0, 0, 0, 0, 0, 1, 0, 0, 0], [0, 0, 0, 0, 0, 0, 0, 0, 1, 0, 0, 0], [0, 0, 0, 0, 0, 0, 0, 0, 1, 0, 0, 0], [0, 0, 0, 0, 0, 0, 0, 0, 1, 0, 0, 0], [0, 0, 0, 0, 0, 0, 0, 0, 1, 0, 0, 0], [0, 0, 0, 0, 0, 0, 0, 0, 1, 0, 0, 0]], [[0, 0, 0, 0, 0, 0, 0, 0, 0, 1, 0, 0], [0, 0, 0, 0, 0, 0, 0, 0, 0, 1, 0, 0], [0, 0, 0, 0, 0, 0, 0, 0, 0, 1, 0, 0], [0, 0, 0, 0, 0, 0, 0, 0, 0, 1, 0, 0], [0, 0, 0, 0, 0, 0, 0, 0, 0, 1, 0, 0], [0, 0, 0, 0, 0, 0, 0, 0, 0, 1, 0, 0]], [[0, 0, 0, 0, 0, 0, 0, 0, 0, 0, 1, 0], [0, 0, 0, 0, 0, 0, 0, 0, 0, 0, 1, 0], [0, 0, 0, 0, 0, 0, 0, 0, 0, 0, 1, 0], [0, 0, 0, 0, 0, 0, 0, 0, 0, 0, 1, 0], [0, 0, 0, 0, 0, 0, 0, 0, 0, 0, 1, 0], [0, 0, 0, 0, 0, 0, 0, 0, 0, 0, 1, 0]], [[0, 0, 0, 0, 0, 0, 0, 0, 0, 0, 0, 1], [0, 0, 0, 0, 0, 0, 0, 0, 0, 0, 0, 1], [0, 0, 0, 0, 0, 0, 0, 0, 0, 0, 0, 1], [0, 0, 0, 0, 0, 0, 0, 0, 0, 0, 0, 1], [0, 0, 0, 0, 0, 0, 0, 0, 0, 0, 0, 1], [0, 0, 0, 0, 0, 0, 0, 0, 0, 0, 0, 1]]], prehc: 0, lambdahc: 1.502, rcut: 5.007, dcut: 0.01, rcut_in: 1.403, dcut_in: 0.01, inner_cutoff_type: distance}
  [1, 0]: {nradmax: 12, lmax: 5, nradbasemax: 12, radbasename: ChebExpCos, radparameters: [1.502], radcoefficients: [[[1, 0, 0, 0, 0, 0, 0, 0, 0, 0, 0, 0], [1, 0, 0, 0, 0, 0, 0, 0, 0, 0, 0, 0], [1, 0, 0, 0, 0, 0, 0, 0, 0, 0, 0, 0], [1, 0, 0, 0, 0, 0, 0, 0, 0, 0, 0, 0], [1, 0, 0, 0, 0, 0, 0, 0, 0, 0, 0, 0], [1, 0, 0, 0, 0, 0, 0, 0, 0, 0, 0, 0]], [[0, 1, 0, 0, 0, 0, 0, 0, 0, 0, 0, 0], [0, 1, 0, 0, 0, 0, 0, 0, 0, 0, 0, 0], [0, 1, 0, 0, 0, 0, 0, 0, 0, 0, 0, 0], [0, 1, 0, 0, 0, 0, 0, 0, 0, 0, 0, 0], [0, 1, 0, 0, 0, 0, 0, 0, 0, 0, 0, 0], [0, 1, 0, 0, 0, 0, 0, 0, 0, 0, 0, 0]], [[0, 0, 1, 0, 0, 0, 0, 0, 0, 0, 0, 0], [0, 0, 1, 0, 0, 0, 0, 0, 0, 0, 0, 0], [0, 0, 1, 0, 0, 0, 0, 0, 0, 0, 0, 0], [0, 0, 1, 0, 0, 0, 0, 0, 0, 0, 0, 0], [0, 0, 1, 0, 0, 0, 0, 0, 0, 0, 0, 0], [0, 0, 1, 0, 0, 0, 0, 0, 0, 0, 0, 0]], [[0, 0, 0, 1, 0, 0, 0, 0, 0, 0, 0, 0], [0, 0, 0, 1, 0, 0, 0, 0, 0, 0, 0, 0], [0, 0, 0, 1, 0, 0, 0, 0, 0, 0, 0, 0], [0, 0, 0, 1, 0, 0, 0, 0, 0, 0, 0, 0], [0, 0, 0, 1, 0, 0, 0, 0, 0, 0, 0, 0], [0, 0, 0, 1, 0, 0, 0, 0, 0, 0, 0, 0]], [[0, 0, 0, 0, 1, 0, 0, 0, 0, 0, 0, 0], [0, 0, 0, 0, 1, 0, 0, 0, 0, 0, 0, 0], [0, 0, 0, 0, 1, 0, 0, 0, 0, 0, 0, 0], [0, 0, 0, 0, 1, 0, 0, 0, 0, 0, 0, 0], [0, 0, 0, 0, 1, 0, 0, 0, 0, 0, 0, 0], [0, 0, 0, 0, 1, 0, 0, 0, 0, 0, 0, 0]], [[0, 0, 0, 0, 0, 1, 0, 0, 0, 0, 0, 0], [0, 0, 0, 0, 0, 1, 0, 0, 0, 0, 0, 0], [0, 0, 0, 0, 0, 1, 0, 0, 0, 0, 0, 0], [0, 0, 0, 0, 0, 1, 0, 0, 0, 0, 0, 0], [0, 0, 0, 0, 0, 1, 0, 0, 0, 0, 0, 0], [0, 0, 0, 0, 0, 1, 0, 0, 0, 0, 0, 0]], [[0, 0, 0, 0, 0, 0, 1, 0, 0, 0, 0, 0], [0, 0, 0, 0, 0, 0, 1, 0, 0, 0, 0, 0], [0, 0, 0, 0, 0, 0, 1, 0, 0, 0, 0, 0], [0, 0, 0, 0, 0, 0, 1, 0, 0, 0, 0, 0], [0, 0, 0, 0, 0, 0, 1, 0, 0, 0, 0, 0], [0, 0, 0, 0, 0, 0, 1, 0, 0, 0, 0, 0]], [[0, 0, 0, 0, 0, 0, 0, 1, 0, 0, 0, 0], [0, 0, 0, 0, 0, 0, 0, 1, 0, 0, 0, 0], [0, 0, 0, 0, 0, 0, 0, 1, 0, 0, 0, 0], [0, 0, 0, 0, 0, 0, 0, 1, 0, 0, 0, 0], [0, 0, 0, 0, 0, 0, 0, 1, 0, 0, 0, 0], [0, 0, 0, 0, 0, 0, 0, 1, 0, 0, 0, 0]], [[0, 0, 0, 0, 0, 0, 0, 0, 1, 0, 0, 0], [0, 0, 0, 0, 0, 0, 0, 0, 1, 0, 0, 0], [0, 0, 0, 0, 0, 0, 0, 0, 1, 0, 0, 0], [0, 0, 0, 0, 0, 0, 0, 0, 1, 0, 0, 0], [0, 0, 0, 0, 0, 0, 0, 0, 1, 0, 0, 0], [0, 0, 0, 0, 0, 0, 0, 0, 1, 0, 0, 0]], [[0, 0, 0, 0, 0, 0, 0, 0, 0, 1, 0, 0], [0, 0, 0, 0, 0, 0, 0, 0, 0, 1, 0, 0], [0, 0, 0, 0, 0, 0, 0, 0, 0, 1, 0, 0], [0, 0, 0, 0, 0, 0, 0, 0, 0, 1, 0, 0], [0, 0, 0, 0, 0, 0, 0, 0, 0, 1, 0, 0], [0, 0, 0, 0, 0, 0, 0, 0, 0, 1, 0, 0]], [[0, 0, 0, 0, 0, 0, 0, 0, 0, 0, 1, 0], [0, 0, 0, 0, 0, 0, 0, 0, 0, 0, 1, 0], [0, 0, 0, 0, 0, 0, 0, 0, 0, 0, 1, 0], [0, 0, 0, 0, 0, 0, 0, 0, 0, 0, 1, 0], [0, 0, 0, 0, 0, 0, 0, 0, 0, 0, 1, 0], [0, 0, 0, 0, 0, 0, 0, 0, 0, 0, 1, 0]], [[0, 0, 0, 0, 0, 0, 0, 0, 0, 0, 0, 1], [0, 0, 0, 0, 0, 0, 0, 0, 0, 0, 0, 1], [0, 0, 0, 0, 0, 0, 0, 0, 0, 0, 0, 1], [0, 0, 0, 0, 0, 0, 0, 0, 0, 0, 0, 1], [0, 0, 0, 0, 0, 0, 0, 0, 0, 0, 0, 1], [0, 0, 0, 0, 0, 0, 0, 0, 0, 0, 0, 1]]], prehc: 0, lambdahc: 1.502, rcut: 5.007, dcut: 0.01, rcut_in: 1.403, dcut_in: 0.01, inner_cutoff_type: distance}
  [1, 1]: {nradmax: 12, lmax: 5, nradbasemax: 12, radbasename: ChebExpCos, radparameters: [1.267], radcoefficients: [[[1, 0, 0, 0, 0, 0, 0, 0, 0, 0, 0, 0], [1, 0, 0, 0, 0, 0, 0, 0, 0, 0, 0, 0], [1, 0, 0, 0, 0, 0, 0, 0, 0, 0, 0, 0], [1, 0, 0, 0, 0, 0, 0, 0, 0, 0, 0, 0], [1, 0, 0, 0, 0, 0, 0, 0, 0, 0, 0, 0], [1, 0, 0, 0, 0, 0, 0, 0, 0, 0, 0, 0]], [[0, 1, 0, 0, 0, 0, 0, 0, 0, 0, 0, 0], [0, 1, 0, 0, 0, 0, 0, 0, 0, 0, 0, 0], [0, 1, 0, 0, 0, 0, 0, 0, 0, 0, 0, 0], [0, 1, 0, 0, 0, 0, 0, 0, 0, 0, 0, 0], [0, 1, 0, 0, 0, 0, 0, 0, 0, 0, 0, 0], [0, 1, 0, 0, 0, 0, 0, 0, 0, 0, 0, 0]], [[0, 0, 1, 0, 0, 0, 0, 0, 0, 0, 0, 0], [0, 0, 1, 0, 0, 0, 0, 0, 0, 0, 0, 0], [0, 0, 1, 0, 0, 0, 0, 0, 0, 0, 0, 0], [0, 0, 1, 0, 0, 0, 0, 0, 0, 0, 0, 0], [0, 0, 1, 0, 0, 0, 0, 0, 0, 0, 0, 0], [0, 0, 1, 0, 0, 0, 0, 0, 0, 0, 0, 0]], [[0, 0, 0, 1, 0, 0, 0, 0, 0, 0, 0, 0], [0, 0, 0, 1, 0, 0, 0, 0, 0, 0, 0, 0], [0, 0, 0, 1, 0, 0, 0, 0, 0, 0, 0, 0], [0, 0, 0, 1, 0, 0, 0, 0, 0, 0, 0, 0], [0, 0, 0, 1, 0, 0, 0, 0, 0, 0, 0, 0], [0, 0, 0, 1, 0, 0, 0, 0, 0, 0, 0, 0]], [[0, 0, 0, 0, 1, 0, 0, 0, 0, 0, 0, 0], [0, 0, 0, 0, 1, 0, 0, 0, 0, 0, 0, 0], [0, 0, 0, 0, 1, 0, 0, 0, 0, 0, 0, 0], [0, 0, 0, 0, 1, 0, 0, 0, 0, 0, 0, 0], [0, 0, 0, 0, 1, 0, 0, 0, 0, 0, 0, 0], [0, 0, 0, 0, 1, 0, 0, 0, 0, 0, 0, 0]], [[0, 0, 0, 0, 0, 1, 0, 0, 0, 0, 0, 0], [0, 0, 0, 0, 0, 1, 0, 0, 0, 0, 0, 0], [0, 0, 0, 0, 0, 1, 0, 0, 0, 0, 0, 0], [0, 0, 0, 0, 0, 1, 0, 0, 0, 0, 0, 0], [0, 0, 0, 0, 0, 1, 0, 0, 0, 0, 0, 0], [0, 0, 0, 0, 0, 1, 0, 0, 0, 0, 0, 0]], [[0, 0, 0, 0, 0, 0, 1, 0, 0, 0, 0, 0], [0, 0, 0, 0, 0, 0, 1, 0, 0, 0, 0, 0], [0, 0, 0, 0, 0, 0, 1, 0, 0, 0, 0, 0], [0, 0, 0, 0, 0, 0, 1, 0, 0, 0, 0, 0], [0, 0, 0, 0, 0, 0, 1, 0, 0, 0, 0, 0], [0, 0, 0, 0, 0, 0, 1, 0, 0, 0, 0, 0]], [[0, 0, 0, 0, 0, 0, 0, 1, 0, 0, 0, 0], [0, 0, 0, 0, 0, 0, 0, 1, 0, 0, 0, 0], [0, 0, 0, 0, 0, 0, 0, 1, 0, 0, 0, 0], [0, 0, 0, 0, 0, 0, 0, 1, 0, 0, 0, 0], [0, 0, 0, 0, 0, 0, 0, 1, 0, 0, 0, 0], [0, 0, 0, 0, 0, 0, 0, 1, 0, 0, 0, 0]], [[0, 0, 0, 0, 0, 0, 0, 0, 1, 0, 0, 0], [0, 0, 0, 0, 0, 0, 0, 0, 1, 0, 0, 0], [0, 0, 0, 0, 0, 0, 0, 0, 1, 0, 0, 0], [0, 0, 0, 0, 0, 0, 0, 0, 1, 0, 0, 0], [0, 0, 0, 0, 0, 0, 0, 0, 1, 0, 0, 0], [0, 0, 0, 0, 0, 0, 0, 0, 1, 0, 0, 0]], [[0, 0, 0, 0, 0, 0, 0, 0, 0, 1, 0, 0], [0, 0, 0, 0, 0, 0, 0, 0, 0, 1, 0, 0], [0, 0, 0, 0, 0, 0, 0, 0, 0, 1, 0, 0], [0, 0, 0, 0, 0, 0, 0, 0, 0, 1, 0, 0], [0, 0, 0, 0, 0, 0, 0, 0, 0, 1, 0, 0], [0, 0, 0, 0, 0, 0, 0, 0, 0, 1, 0, 0]], [[0, 0, 0, 0, 0, 0, 0, 0, 0, 0, 1, 0], [0, 0, 0, 0, 0, 0, 0, 0, 0, 0, 1, 0], [0, 0, 0, 0, 0, 0, 0, 0, 0, 0, 1, 0], [0, 0, 0, 0, 0, 0, 0, 0, 0, 0, 1, 0], [0, 0, 0, 0, 0, 0, 0, 0, 0, 0, 1, 0], [0, 0, 0, 0, 0, 0, 0, 0, 0, 0, 1, 0]], [[0, 0, 0, 0, 0, 0, 0, 0, 0, 0, 0, 1], [0, 0, 0, 0, 0, 0, 0, 0, 0, 0, 0, 1], [0, 0, 0, 0, 0, 0, 0, 0, 0, 0, 0, 1], [0, 0, 0, 0, 0, 0, 0, 0, 0, 0, 0, 1], [0, 0, 0, 0, 0, 0, 0, 0, 0, 0, 0, 1], [0, 0, 0, 0, 0, 0, 0, 0, 0, 0, 0, 1]]], prehc: 0, lambdahc: 1.267, rcut: 4.224, dcut: 0.01, rcut_in: 1.100, dcut_in: 0.01, inner_cutoff_type: distance}
functions:
  0:
    - {mu0: 0, rank: 1, ndensity: 1, num_ms_combs: 1, mus: [0], ns: [1], ls: [0], ms_combs: [0], ctildes: [-0.3583192259520729]}
    - {mu0: 0, rank: 1, ndensity: 1, num_ms_combs: 1, mus: [1], ns: [1], ls: [0], ms_combs: [0], ctildes: [0.35158157394653244]}
    - {mu0: 0, rank: 1, ndensity: 1, num_ms_combs: 1, mus: [0], ns: [2], ls: [0], ms_combs: [0], ctildes: [1.3801388287674854]}
    - {mu0: 0, rank: 1, ndensity: 1, num_ms_combs: 1, mus: [1], ns: [2], ls: [0], ms_combs: [0], ctildes: [0.8534629849309567]}
    - {mu0: 0, rank: 1, ndensity: 1, num_ms_combs: 1, mus: [0], ns: [3], ls: [0], ms_combs: [0], ctildes: [0.5734900984898559]}
    - {mu0: 0, rank: 1, ndensity: 1, num_ms_combs: 1, mus: [1], ns: [3], ls: [0], ms_combs: [0], ctildes: [-0.373263627065171]}
    - {mu0: 0, rank: 1, ndensity: 1, num_ms_combs: 1, mus: [0], ns: [4], ls: [0], ms_combs: [0], ctildes: [1.4031301627637731]}
    - {mu0: 0, rank: 1, ndensity: 1, num_ms_combs: 1, mus: [1], ns: [4], ls: [0], ms_combs: [0], ctildes: [-1.7161570813550497]}
    - {mu0: 0, rank: 1, ndensity: 1, num_ms_combs: 1, mus: [0], ns: [5], ls: [0], ms_combs: [0], ctildes: [-0.29309266081827445]}
    - {mu0: 0, rank: 1, ndensity: 1, num_ms_combs: 1, mus: [1], ns: [5], ls: [0], ms_combs: [0], ctildes: [2.2828663546742973]}
    - {mu0: 0, rank: 1, ndensity: 1, num_ms_combs: 1, mus: [0], ns: [6], ls: [0], ms_combs: [0], ctildes: [-1.9429196113503622]}
    - {mu0: 0, rank: 1, ndensity: 1, num_ms_combs: 1, mus: [1], ns: [6], ls: [0], ms_combs: [0], ctildes: [0.6884215519243639]}
    - {mu0: 0, rank: 1, ndensity: 1, num_ms_combs: 1, mus: [0], ns: [7], ls: [0], ms_combs: [0], ctildes: [0.10879988364831661]}
    - {mu0: 0, rank: 1, ndensity: 1, num_ms_combs: 1, mus: [1], ns: [7], ls: [0], ms_combs: [0], ctildes: [0.4654076024071401]}
    - {mu0: 0, rank: 1, ndensity: 1, num_ms_combs: 1, mus: [0], ns: [8], ls: [0], ms_combs: [0], ctildes: [-0.6604864633882244]}
    - {mu0: 0, rank: 1, ndensity: 1, num_ms_combs: 1, mus: [1], ns: [8], ls: [0], ms_combs: [0], ctildes: [-0.6525924280849722]}
    - {mu0: 0, rank: 1, ndensity: 1, num_ms_combs: 1, mus: [0], ns: [9], ls: [0], ms_combs: [0], ctildes: [0.0667353394019301]}
    - {mu0: 0, rank: 1, ndensity: 1, num_ms_combs: 1, mus: [1], ns: [9], ls: [0], ms_combs: [0], ctildes: [-0.028121145617774346]}
    - {mu0: 0, rank: 1, ndensity: 1, num_ms_combs: 1, mus: [0], ns: [10], ls: [0], ms_combs: [0], ctildes: [0.5303762602270581]}
    - {mu0: 0, rank: 1, ndensity: 1, num_ms_combs: 1, mus: [1], ns: [10], ls: [0], ms_combs: [0], ctildes: [0.49952042936706675]}
    - {mu0: 0, rank: 1, ndensity: 1, num_ms_combs: 1, mus: [0], ns: [11], ls: [0], ms_combs: [0], ctildes: [-0.32743270188802853]}
    - {mu0: 0, rank: 1, ndensity: 1, num_ms_combs: 1, mus: [1], ns: [11], ls: [0], ms_combs: [0], ctildes: [-0.27138469035526214]}
    - {mu0: 0, rank: 1, ndensity: 1, num_ms_combs: 1, mus: [0], ns: [12], ls: [0], ms_combs: [0], ctildes: [-0.2812775865277217]}
    - {mu0: 0, rank: 1, ndensity: 1, num_ms_combs: 1, mus: [1], ns: [12], ls: [0], ms_combs: [0], ctildes: [-0.10041580274230455]}
    - {mu0: 0, rank: 2, ndensity: 1, num_ms_combs: 1, mus: [0, 0], ns: [1, 1], ls: [0, 0], ms_combs: [0, 0], ctildes: [0.663354632145456]}
    - {mu0: 0, rank: 2, ndensity: 1, num_ms_combs: 1, mus: [0, 1], ns: [1, 1], ls: [0, 0], ms_combs: [0, 0], ctildes: [-0.670960341431055]}
    - {mu0: 0, rank: 2, ndensity: 1, num_ms_combs: 1, mus: [1, 1], ns: [1, 1], ls: [0, 0], ms_combs: [0, 0], ctildes: [-1.5490847159298937]}
    - {mu0: 0, rank: 2, ndensity: 1, num_ms_combs: 1, mus: [0, 0], ns: [1, 2], ls: [0, 0], ms_combs: [0, 0], ctildes: [-0.6185999767367321]}
    - {mu0: 0, rank: 2, ndensity: 1, num_ms_combs: 1, mus: [0, 1], ns: [1, 2], ls: [0, 0], ms_combs: [0, 0], ctildes: [-0.8964220478901552]}
    - {mu0: 0, rank: 2, ndensity: 1, num_ms_combs: 1, mus: [1, 1], ns: [1, 2], ls: [0, 0], ms_combs: [0, 0], ctildes: [0.7789901576331886]}
    - {mu0: 0, rank: 2, ndensity: 1, num_ms_combs: 1, mus: [0, 0], ns: [1, 3], ls: [0, 0], ms_combs: [0, 0], ctildes: [0.6005247341854556]}
    - {mu0: 0, rank: 2, ndensity: 1, num_ms_combs: 1, mus: [0, 1], ns: [1, 3], ls: [0, 0], ms_combs: [0, 0], ctildes: [0.578920631802248]}
    - {mu0: 0, rank: 2, ndensity: 1, num_ms_combs: 1, mus: [1, 1], ns: [1, 3], ls: [0, 0], ms_combs: [0, 0], ctildes: [0.6605002446949584]}
    - {mu0: 0, rank: 2, ndensity: 1, num_ms_combs: 1, mus: [0, 0], ns: [1, 4], ls: [0, 0], ms_combs: [0, 0], ctildes: [-2.304623097709282]}
    - {mu0: 0, rank: 2, ndensity: 1, num_ms_combs: 1, mus: [0, 1], ns: [1, 4], ls: [0, 0], ms_combs: [0, 0], ctildes: [-0.05770814471622998]}
    - {mu0: 0, rank: 2, ndensity: 1, num_ms_combs: 1, mus: [1, 1], ns: [1, 4], ls: [0, 0], ms_combs: [0, 0], ctildes: [1.191360112385155]}
    - {mu0: 0, rank: 2, ndensity: 1, num_ms_combs: 1, mus: [0, 0], ns: [1, 5], ls: [0, 0], ms_combs: [0, 0], ctildes: [0.11683528988396574]}
    - {mu0: 0, rank: 2, ndensity: 1, num_ms_combs: 1, mus: [0, 1], ns: [1, 5], ls: [0, 0], ms_combs: [0, 0], ctildes: [0.7680580396781806]}
    - {mu0: 0, rank: 2, ndensity: 1, num_ms_combs: 1, mus: [1, 1], ns: [1, 5], ls: [0, 0], ms_combs: [0, 0], ctildes: [0.14919953724802326]}
    - {mu0: 0, rank: 2, ndensity: 1, num_ms_combs: 1, mus: [0, 1], ns: [2, 1], ls: [0, 0], ms_combs: [0, 0], ctildes: [0.6536604525681469]}
    - {mu0: 0, rank: 2, ndensity: 1, num_ms_combs: 1, mus: [0, 0], ns: [2, 2], ls: [0, 0], ms_combs: [0, 0], ctildes: [-1.2572358266674541]}
    - {mu0: 0, rank: 2, ndensity: 1, num_ms_combs: 1, mus: [0, 1], ns: [2, 2], ls: [0, 0], ms_combs: [0, 0], ctildes: [-0.6569412622202435]}
    - {mu0: 0, rank: 2, ndensity: 1, num_ms_combs: 1, mus: [1, 1], ns: [2, 2], ls: [0, 0], ms_combs: [0, 0], ctildes: [0.306339935553126]}
    - {mu0: 0, rank: 2, ndensity: 1, num_ms_combs: 1, mus: [0, 0], ns: [2, 3], ls: [0, 0], ms_combs: [0, 0], ctildes: [-1.267527541450363]}
    - {mu0: 0, rank: 2, ndensity: 1, num_ms_combs: 1, mus: [0, 1], ns: [2, 3], ls: [0, 0], ms_combs: [0, 0], ctildes: [-0.2743316862770371]}
    - {mu0: 0, rank: 2, ndensity: 1, num_ms_combs: 1, mus: [1, 1], ns: [2, 3], ls: [0, 0], ms_combs: [0, 0], ctildes: [0.26164590974872226]}
    - {mu0: 0, rank: 2, ndensity: 1, num_ms_combs: 1, mus: [0, 0], ns: [2, 4], ls: [0, 0], ms_combs: [0, 0], ctildes: [-0.1164673809503256]}
    - {mu0: 0, rank: 2, ndensity: 1, num_ms_combs: 1, mus: [0, 1], ns: [2, 4], ls: [0, 0], ms_combs: [0, 0], ctildes: [0.6102739858970381]}
    - {mu0: 0, rank: 2, ndensity: 1, num_ms_combs: 1, mus: [1, 1], ns: [2, 4], ls: [0, 0], ms_combs: [0, 0], ctildes: [0.1562575227490015]}
    - {mu0: 0, rank: 2, ndensity: 1, num_ms_combs: 1, mus: [0, 0], ns: [2, 5], ls: [0, 0], ms_combs: [0, 0], ctildes: [-0.2831612561919883]}
    - {mu0: 0, rank: 2, ndensity: 1, num_ms_combs: 1, mus: [0, 1], ns: [2, 5], ls: [0, 0], ms_combs: [0, 0], ctildes: [0.3782377702573285]}
    - {mu0: 0, rank: 2, ndensity: 1, num_ms_combs: 1, mus: [1, 1], ns: [2, 5], ls: [0, 0], ms_combs: [0, 0], ctildes: [0.719119450166545]}
    - {mu0: 0, rank: 2, ndensity: 1, num_ms_combs: 1, mus: [0, 1], ns: [3, 1], ls: [0, 0], ms_combs: [0, 0], ctildes: [0.4140620078651409]}
    - {mu0: 0, rank: 2, ndensity: 1, num_ms_combs: 1, mus: [0, 1], ns: [3, 2], ls: [0, 0], ms_combs: [0, 0], ctildes: [-1.6919120499869678]}
    - {mu0: 0, rank: 2, ndensity: 1, num_ms_combs: 1, mus: [0, 0], ns: [3, 3], ls: [0, 0], ms_combs: [0, 0], ctildes: [0.6864332919703884]}
    - {mu0: 0, rank: 2, ndensity: 1, num_ms_combs: 1, mus: [0, 1], ns: [3, 3], ls: [0, 0], ms_combs: [0, 0], ctildes: [-0.7920478469804948]}
    - {mu0: 0, rank: 2, ndensity: 1, num_ms_combs: 1, mus: [1, 1], ns: [3, 3], ls: [0, 0], ms_combs: [0, 0], ctildes: [-0.1756916500717125]}
    - {mu0: 0, rank: 2, ndensity: 1, num_ms_combs: 1, mus: [0, 0], ns: [3, 4], ls: [0, 0], ms_combs: [0, 0], ctildes: [1.8497594492100689]}
    - {mu0: 0, rank: 2, ndensity: 1, num_ms_combs: 1, mus: [0, 1], ns: [3, 4], ls: [0, 0], ms_combs: [0, 0], ctildes: [0.6240392891841111]}
    - {mu0: 0, rank: 2, ndensity: 1, num_ms_combs: 1, mus: [1, 1], ns: [3, 4], ls: [0, 0], ms_combs: [0, 0], ctildes: [-0.28560307137195196]}
    - {mu0: 0, rank: 2, ndensity: 1, num_ms_combs: 1, mus: [0, 0], ns: [3, 5], ls: [0, 0], ms_combs: [0, 0], ctildes: [-0.08858091341443242]}
    - {mu0: 0, rank: 2, ndensity: 1, num_ms_combs: 1, mus: [0, 1], ns: [3, 5], ls: [0, 0], ms_combs: [0, 0], ctildes: [-0.49833867450888647]}
    - {mu0: 0, rank: 2, ndensity: 1, num_ms_combs: 1, mus: [1, 1], ns: [3, 5], ls: [0, 0], ms_combs: [0, 0], ctildes: [-0.48449043477558007]}
    - {mu0: 0, rank: 2, ndensity: 1, num_ms_combs: 1, mus: [0, 1], ns: [4, 1], ls: [0, 0], ms_combs: [0, 0], ctildes: [0.17633596371433669]}
    - {mu0: 0, rank: 2, ndensity: 1, num_ms_combs: 1, mus: [0, 1], ns: [4, 2], ls: [0, 0], ms_combs: [0, 0], ctildes: [-1.3010619511142067]}
    - {mu0: 0, rank: 2, ndensity: 1, num_ms_combs: 1, mus: [0, 1], ns: [4, 3], ls: [0, 0], ms_combs: [0, 0], ctildes: [0.1310965473212491]}
    - {mu0: 0, rank: 2, ndensity: 1, num_ms_combs: 1, mus: [0, 0], ns: [4, 4], ls: [0, 0], ms_combs: [0, 0], ctildes: [-0.19392050480155376]}
    - {mu0: 0, rank: 2, ndensity: 1, num_ms_combs: 1, mus: [0, 1], ns: [4, 4], ls: [0, 0], ms_combs: [0, 0], ctildes: [0.556247464963235]}
    - {mu0: 0, rank: 2, ndensity: 1, num_ms_combs: 1, mus: [1, 1], ns: [4, 4], ls: [0, 0], ms_combs: [0, 0], ctildes: [-0.25383874971885234]}
    - {mu0: 0, rank: 2, ndensity: 1, num_ms_combs: 1, mus: [0, 0], ns: [4, 5], ls: [0, 0], ms_combs: [0, 0], ctildes: [-1.703733311203905]}
    - {mu0: 0, rank: 2, ndensity: 1, num_ms_combs: 1, mus: [0, 1], ns: [4, 5], ls: [0, 0], ms_combs: [0, 0], ctildes: [-0.7585529707848764]}
    - {mu0: 0, rank: 2, ndensity: 1, num_ms_combs: 1, mus: [1, 1], ns: [4, 5], ls: [0, 0], ms_combs: [0, 0], ctildes: [-2.158799417571572]}
    - {mu0: 0, rank: 2, ndensity: 1, num_ms_combs: 1, mus: [0, 1], ns: [5, 1], ls: [0, 0], ms_combs: [0, 0], ctildes: [-0.19765740619550343]}
    - {mu0: 0, rank: 2, ndensity: 1, num_ms_combs: 1, mus: [0, 1], ns: [5, 2], ls: [0, 0], ms_combs: [0, 0], ctildes: [0.2836754823724732]}
    - {mu0: 0, rank: 2, ndensity: 1, num_ms_combs: 1, mus: [0, 1], ns: [5, 3], ls: [0, 0], ms_combs: [0, 0], ctildes: [1.353328176878108]}
    - {mu0: 0, rank: 2, ndensity: 1, num_ms_combs: 1, mus: [0, 1], ns: [5, 4], ls: [0, 0], ms_combs: [0, 0], ctildes: [-0.8262955415684701]}
    - {mu0: 0, rank: 2, ndensity: 1, num_ms_combs: 1, mus: [0, 0], ns: [5, 5], ls: [0, 0], ms_combs: [0, 0], ctildes: [1.4582134134907392]}
    - {mu0: 0, rank: 2, ndensity: 1, num_ms_combs: 1, mus: [0, 1], ns: [5, 5], ls: [0, 0], ms_combs: [0, 0], ctildes: [0.16736902139382437]}
    - {mu0: 0, rank: 2, ndensity: 1, num_ms_combs: 1, mus: [1, 1], ns: [5, 5], ls: [0, 0], ms_combs: [0, 0], ctildes: [1.328688044941373]}
    - {mu0: 0, rank: 2, ndensity: 1, num_ms_combs: 3, mus: [0, 0], ns: [1, 1], ls: [1, 1], ms_combs: [-1, 1, 0, 0, 1, -1], ctildes: [-0.3416517289112349, 0.3416517289112349, -0.3416517289112349]}
    - {mu0: 0, rank: 2, ndensity: 1, num_ms_combs: 3, mus: [0, 1], ns: [1, 1], ls: [1, 1], ms_combs: [-1, 1, 0, 0, 1, -1], ctildes: [0.07578124152098237, -0.07578124152098237, 0.07578124152098237]}
    - {mu0: 0, rank: 2, ndensity: 1, num_ms_combs: 3, mus: [1, 1], ns: [1, 1], ls: [1, 1], ms_combs: [-1, 1, 0, 0, 1, -1], ctildes: [-0.2548453293952296, 0.2548453293952296, -0.2548453293952296]}
    - {mu0: 0, rank: 2, ndensity: 1, num_ms_combs: 3, mus: [0, 0], ns: [1, 2], ls: [1, 1], ms_combs: [-1, 1, 0, 0, 1, -1], ctildes: [-0.10047392502680916, 0.10047392502680916, -0.10047392502680916]}
    - {mu0: 0, rank: 2, ndensity: 1, num_ms_combs: 3, mus: [0, 1], ns: [1, 2], ls: [1, 1], ms_combs: [-1, 1, 0, 0, 1, -1], ctildes: [-0.6097550783657911, 0.6097550783657911, -0.6097550783657911]}
    - {mu0: 0, rank: 2, ndensity: 1, num_ms_combs: 3, mus: [1, 1], ns: [1, 2], ls: [1, 1], ms_combs: [-1, 1, 0, 0, 1, -1], ctildes: [-0.5130495425510285, 0.5130495425510285, -0.5130495425510285]}
    - {mu0: 0, rank: 2, ndensity: 1, num_ms_combs: 3, mus: [0, 0], ns: [1, 3], ls: [1, 1], ms_combs: [-1, 1, 0, 0, 1, -1], ctildes: [0.1456718700373922, -0.1456718700373922, 0.1456718700373922]}
    - {mu0: 0, rank: 2, ndensity: 1, num_ms_combs: 3, mus: [0, 1], ns: [1, 3], ls: [1, 1], ms_combs: [-1, 1, 0, 0, 1, -1], ctildes: [-0.409562373884323, 0.409562373884323, -0.409562373884323]}
    - {mu0: 0, rank: 2, ndensity: 1, num_ms_combs: 3, mus: [1, 1], ns: [1, 3], ls: [1, 1], ms_combs: [-1, 1, 0, 0, 1, -1], ctildes: [-0.4371068559575428, 0.4371068559575428, -0.4371068559575428]}
    - {mu0: 0, rank: 2, ndensity: 1, num_ms_combs: 3, mus: [0, 0], ns: [1, 4], ls: [1, 1], ms_combs: [-1, 1, 0, 0, 1, -1], ctildes: [0.602794413632911, -0.602794413632911, 0.602794413632911]}
    - {mu0: 0, rank: 2, ndensity: 1, num_ms_combs: 3, mus: [0, 1], ns: [1, 4], ls: [1, 1], ms_combs: [-1, 1, 0, 0, 1, -1], ctildes: [1.0346600291370767, -1.0346600291370767, 1.0346600291370767]}
    - {mu0: 0, rank: 2, ndensity: 1, num_ms_combs: 3, mus: [1, 1], ns: [1, 4], ls: [1, 1], ms_combs: [-1, 1, 0, 0, 1, -1], ctildes: [0.14920805397265594, -0.14920805397265594, 0.14920805397265594]}
    - {mu0: 0, rank: 2, ndensity: 1, num_ms_combs: 3, mus: [0, 0], ns: [1, 5], ls: [1, 1], ms_combs: [-1, 1, 0, 0, 1, -1], ctildes: [-0.4232169960125713, 0.4232169960125713, -0.4232169960125713]}
    - {mu0: 0, rank: 2, ndensity: 1, num_ms_combs: 3, mus: [0, 1], ns: [1, 5], ls: [1, 1], ms_combs: [-1, 1, 0, 0, 1, -1], ctildes: [-0.011703865663874078, 0.011703865663874078, -0.011703865663874078]}
    - {mu0: 0, rank: 2, ndensity: 1, num_ms_combs: 3, mus: [1, 1], ns: [1, 5], ls: [1, 1], ms_combs: [-1, 1, 0, 0, 1, -1], ctildes: [0.2916816167329085, -0.2916816167329085, 0.2916816167329085]}
    - {mu0: 0, rank: 2, ndensity: 1, num_ms_combs: 3, mus: [0, 1], ns: [2, 1], ls: [1, 1], ms_combs: [-1, 1, 0, 0, 1, -1], ctildes: [-0.08762758669017727, 0.08762758669017727, -0.08762758669017727]}
    - {mu0: 0, rank: 2, ndensity: 1, num_ms_combs: 3, mus: [0, 0], ns: [2, 2], ls: [1, 1], ms_combs: [-1, 1, 0, 0, 1, -1], ctildes: [-0.35246277112849606, 0.35246277112849606, -0.35246277112849606]}
    - {mu0: 0, rank: 2, ndensity: 1, num_ms_combs: 3, mus: [0, 1], ns: [2, 2], ls: [1, 1], ms_combs: [-1, 1, 0, 0, 1, -1], ctildes: [-0.19592436756265094, 0.19592436756265094, -0.19592436756265094]}
    - {mu0: 0, rank: 2, ndensity: 1, num_ms_combs: 3, mus: [1, 1], ns: [2, 2], ls: [1, 1], ms_combs: [-1, 1, 0, 0, 1, -1], ctildes: [0.007822079332366417, -0.007822079332366417, 0.007822079332366417]}
    - {mu0: 0, rank: 2, ndensity: 1, num_ms_combs: 3, mus: [0, 0], ns: [2, 3], ls: [1, 1], ms_combs: [-1, 1, 0, 0, 1, -1], ctildes: [-0.5606141680165447, 0.5606141680165447, -0.5606141680165447]}
    - {mu0: 0, rank: 2, ndensity: 1, num_ms_combs: 3, mus: [0, 1], ns: [2, 3], ls: [1, 1], ms_combs: [-1, 1, 0, 0, 1, -1], ctildes: [-0.5264650163105427, 0.5264650163105427, -0.5264650163105427]}
    - {mu0: 0, rank: 2, ndensity: 1, num_ms_combs: 3, mus: [1, 1], ns: [2, 3], ls: [1, 1], ms_combs: [-1, 1, 0, 0, 1, -1], ctildes: [0.18147203941233617, -0.18147203941233617, 0.18147203941233617]}
    - {mu0: 0, rank: 2, ndensity: 1, num_ms_combs: 3, mus: [0, 0], ns: [2, 4], ls: [1, 1], ms_combs: [-1, 1, 0, 0, 1, -1], ctildes: [0.22867388212252307, -0.22867388212252307, 0.22867388212252307]}
    - {mu0: 0, rank: 2, ndensity: 1, num_ms_combs: 3, mus: [0, 1], ns: [2, 4], ls: [1, 1], ms_combs: [-1, 1, 0, 0, 1, -1], ctildes: [-0.6116478184122967, 0.6116478184122967, -0.6116478184122967]}
    - {mu0: 0, rank: 2, ndensity: 1, num_ms_combs: 3, mus: [1, 1], ns: [2, 4], ls: [1, 1], ms_combs: [-1, 1, 0, 0, 1, -1], ctildes: [-0.10791088485259284, 0.10791088485259284, -0.10791088485259284]}
    - {mu0: 0, rank: 2, ndensity: 1, num_ms_combs: 3, mus: [0, 0], ns: [2, 5], ls: [1, 1], ms_combs: [-1, 1, 0, 0, 1, -1], ctildes: [0.2589406281387866, -0.2589406281387866, 0.2589406281387866]}
    - {mu0: 0, rank: 2, ndensity: 1, num_ms_combs: 3, mus: [0, 1], ns: [2, 5], ls: [1, 1], ms_combs: [-1, 1, 0, 0, 1, -1], ctildes: [-0.4416020936305854, 0.4416020936305854, -0.4416020936305854]}
    - {mu0: 0, rank: 2, ndensity: 1, num_ms_combs: 3, mus: [1, 1], ns: [2, 5], ls: [1, 1], ms_combs: [-1, 1, 0, 0, 1, -1], ctildes: [-0.3782639798878044, 0.3782639798878044, -0.3782639798878044]}
    - {mu0: 0, rank: 2, ndensity: 1, num_ms_combs: 3, mus: [0, 1], ns: [3, 1], ls: [1, 1], ms_combs: [-1, 1, 0, 0, 1, -1], ctildes: [-0.010180663020462687, 0.010180663020462687, -0.010180663020462687]}
    - {mu0: 0, rank: 2, ndensity: 1, num_ms_combs: 3, mus: [0, 1], ns: [3, 2], ls: [1, 1], ms_combs: [-1, 1, 0, 0, 1, -1], ctildes: [-0.1260992456724803, 0.1260992456724803, -0.1260992456724803]}
    - {mu0: 0, rank: 2, ndensity: 1, num_ms_combs: 3, mus: [0, 0], ns: [3, 3], ls: [1, 1], ms_combs: [-1, 1, 0, 0, 1, -1], ctildes: [-0.7807263334633241, 0.7807263334633241, -0.7807263334633241]}
    - {mu0: 0, rank: 2, ndensity: 1, num_ms_combs: 3, mus: [0, 1], ns: [3, 3], ls: [1, 1], ms_combs: [-1, 1, 0, 0, 1, -1], ctildes: [-0.4332948795282545, 0.4332948795282545, -0.4332948795282545]}
    - {mu0: 0, rank: 2, ndensity: 1, num_ms_combs: 3, mus: [1, 1], ns: [3, 3], ls: [1, 1], ms_combs: [-1, 1, 0, 0, 1, -1], ctildes: [0.7081622624539226, -0.7081622624539226, 0.7081622624539226]}
    - {mu0: 0, rank: 2, ndensity: 1, num_ms_combs: 3, mus: [0, 0], ns: [3, 4], ls: [1, 1], ms_combs: [-1, 1, 0, 0, 1, -1], ctildes: [0.6917824531607971, -0.6917824531607971, 0.6917824531607971]}
    - {mu0: 0, rank: 2, ndensity: 1, num_ms_combs: 3, mus: [0, 1], ns: [3, 4], ls: [1, 1], ms_combs: [-1, 1, 0, 0, 1, -1], ctildes: [-0.7717393598985625, 0.7717393598985625, -0.7717393598985625]}
    - {mu0: 0, rank: 2, ndensity: 1, num_ms_combs: 3, mus: [1, 1], ns: [3, 4], ls: [1, 1], ms_combs: [-1, 1, 0, 0, 1, -1], ctildes: [0.05530063228602048, -0.05530063228602048, 0.05530063228602048]}
    - {mu0: 0, rank: 2, ndensity: 1, num_ms_combs: 3, mus: [0, 0], ns: [3, 5], ls: [1, 1], ms_combs: [-1, 1, 0, 0, 1, -1], ctildes: [0.2474737244643119, -0.2474737244643119, 0.2474737244643119]}
    - {mu0: 0, rank: 2, ndensity: 1, num_ms_combs: 3, mus: [0, 1], ns: [3, 5], ls: [1, 1], ms_combs: [-1, 1, 0, 0, 1, -1], ctildes: [-0.20203738870111826, 0.20203738870111826, -0.20203738870111826]}
    - {mu0: 0, rank: 2, ndensity: 1, num_ms_combs: 3, mus: [1, 1], ns: [3, 5], ls: [1, 1], ms_combs: [-1, 1, 0, 0, 1, -1], ctildes: [-0.20815649102340364, 0.20815649102340364, -0.20815649102340364]}
    - {mu0: 0, rank: 2, ndensity: 1, num_ms_combs: 3, mus: [0, 1], ns: [4, 1], ls: [1, 1], ms_combs: [-1, 1, 0, 0, 1, -1], ctildes: [-0.13906614415216914, 0.13906614415216914, -0.13906614415216914]}
    - {mu0: 0, rank: 2, ndensity: 1, num_ms_combs: 3, mus: [0, 1], ns: [4, 2], ls: [1, 1], ms_combs: [-1, 1, 0, 0, 1, -1], ctildes: [0.43870262340242283, -0.43870262340242283, 0.43870262340242283]}
    - {mu0: 0, rank: 2, ndensity: 1, num_ms_combs: 3, mus: [0, 1], ns: [4, 3], ls: [1, 1], ms_combs: [-1, 1, 0, 0, 1, -1], ctildes: [0.7643200996870136, -0.7643200996870136, 0.7643200996870136]}
    - {mu0: 0, rank: 2, ndensity: 1, num_ms_combs: 3, mus: [0, 0], ns: [4, 4], ls: [1, 1], ms_combs: [-1, 1, 0, 0, 1, -1], ctildes: [0.16515890698004046, -0.16515890698004046, 0.16515890698004046]}
    - {mu0: 0, rank: 2, ndensity: 1, num_ms_combs: 3, mus: [0, 1], ns: [4, 4], ls: [1, 1], ms_combs: [-1, 1, 0, 0, 1, -1], ctildes: [-0.21582700238029578, 0.21582700238029578, -0.21582700238029578]}
    - {mu0: 0, rank: 2, ndensity: 1, num_ms_combs: 3, mus: [1, 1], ns: [4, 4], ls: [1, 1], ms_combs: [-1, 1, 0, 0, 1, -1], ctildes: [-0.13467900799862603, 0.13467900799862603, -0.13467900799862603]}
    - {mu0: 0, rank: 2, ndensity: 1, num_ms_combs: 3, mus: [0, 0], ns: [4, 5], ls: [1, 1], ms_combs: [-1, 1, 0, 0, 1, -1], ctildes: [-1.2780967818202986, 1.2780967818202986, -1.2780967818202986]}
    - {mu0: 0, rank: 2, ndensity: 1, num_ms_combs: 3, mus: [0, 1], ns: [4, 5], ls: [1, 1], ms_combs: [-1, 1, 0, 0, 1, -1], ctildes: [0.9067465267906818, -0.9067465267906818, 0.9067465267906818]}
    - {mu0: 0, rank: 2, ndensity: 1, num_ms_combs: 3, mus: [1, 1], ns: [4, 5], ls: [1, 1], ms_combs: [-1, 1, 0, 0, 1, -1], ctildes: [0.4664934407338776, -0.4664934407338776, 0.4664934407338776]}
    - {mu0: 0, rank: 2, ndensity: 1, num_ms_combs: 3, mus: [0, 1], ns: [5, 1], ls: [1, 1], ms_combs: [-1, 1, 0, 0, 1, -1], ctildes: [0.7411135105574043, -0.7411135105574043, 0.7411135105574043]}
    - {mu0: 0, rank: 2, ndensity: 1, num_ms_combs: 3, mus: [0, 1], ns: [5, 2], ls: [1, 1], ms_combs: [-1, 1, 0, 0, 1, -1], ctildes: [0.29274144729764223, -0.29274144729764223, 0.29274144729764223]}
    - {mu0: 0, rank: 2, ndensity: 1, num_ms_combs: 3, mus: [0, 1], ns: [5, 3], ls: [1, 1], ms_combs: [-1, 1, 0, 0, 1, -1], ctildes: [0.2806309336856092, -0.2806309336856092, 0.2806309336856092]}
    - {mu0: 0, rank: 2, ndensity: 1, num_ms_combs: 3, mus: [0, 1], ns: [5, 4], ls: [1, 1], ms_combs: [-1, 1, 0, 0, 1, -1], ctildes: [-1.13746587172088, 1.13746587172088, -1.13746587172088]}
    - {mu0: 0, rank: 2, ndensity: 1, num_ms_combs: 3, mus: [0, 0], ns: [5, 5], ls: [1, 1], ms_combs: [-1, 1, 0, 0, 1, -1], ctildes: [0.3328364450446723, -0.3328364450446723, 0.3328364450446723]}
    - {mu0: 0, rank: 2, ndensity: 1, num_ms_combs: 3, mus: [0, 1], ns: [5, 5], ls: [1, 1], ms_combs: [-1, 1, 0, 0, 1, -1], ctildes: [0.23219586421221547, -0.23219586421221547, 0.23219586421221547]}
    - {mu0: 0, rank: 2, ndensity: 1, num_ms_combs: 3, mus: [1, 1], ns: [5, 5], ls: [1, 1], ms_combs: [-1, 1, 0, 0, 1, -1], ctildes: [-0.8838236593018965, 0.8838236593018965, -0.8838236593018965]}
    - {mu0: 0, rank: 2, ndensity: 1, num_ms_combs: 5, mus: [0, 0], ns: [1, 1], ls: [2, 2], ms_combs: [-2, 2, -1, 1, 0, 0, 1, -1, 2, -2], ctildes: [0.4914772728117756, -0.4914772728117756, 0.4914772728117756, -0.4914772728117756, 0.4914772728117756]}
    - {mu0: 0, rank: 2, ndensity: 1, num_ms_combs: 5, mus: [0, 1], ns: [1, 1], ls: [2, 2], ms_combs: [-2, 2, -1, 1, 0, 0, 1, -1, 2, -2], ctildes: [0.2429311281056328, -0.2429311281056328, 0.2429311281056328, -0.2429311281056328, 0.2429311281056328]}
    - {mu0: 0, rank: 2, ndensity: 1, num_ms_combs: 5, mus: [1, 1], ns: [1, 1], ls: [2, 2], ms_combs: [-2, 2, -1, 1, 0, 0, 1, -1, 2, -2], ctildes: [0.1397379263341664, -0.1397379263341664, 0.1397379263341664, -0.1397379263341664, 0.1397379263341664]}
    - {mu0: 0, rank: 2, ndensity: 1, num_ms_combs: 5, mus: [0, 0], ns: [1, 2], ls: [2, 2], ms_combs: [-2, 2, -1, 1, 0, 0, 1, -1, 2, -2], ctildes: [-0.3312038992732364, 0.3312038992732364, -0.3312038992732364, 0.3312038992732364, -0.3312038992732364]}
    - {mu0: 0, rank: 2, ndensity: 1, num_ms_combs: 5, mus: [0, 1], ns: [1, 2], ls: [2, 2], ms_combs: [-2, 2, -1, 1, 0, 0, 1, -1, 2, -2], ctildes: [-0.9380343474665768, 0.9380343474665768, -0.9380343474665768, 0.9380343474665768, -0.9380343474665768]}
    - {mu0: 0, rank: 2, ndensity: 1, num_ms_combs: 5, mus: [1, 1], ns: [1, 2], ls: [2, 2], ms_combs: [-2, 2, -1, 1, 0, 0, 1, -1, 2, -2], ctildes: [-0.3704321116919452, 0.3704321116919452, -0.3704321116919452, 0.3704321116919452, -0.3704321116919452]}
    - {mu0: 0, rank: 2, ndensity: 1, num_ms_combs: 5, mus: [0, 0], ns: [1, 3], ls: [2, 2], ms_combs: [-2, 2, -1, 1, 0, 0, 1, -1, 2, -2], ctildes: [0.014248624956377636, -0.014248624956377636, 0.014248624956377636, -0.014248624956377636, 0.014248624956377636]}
    - {mu0: 0, rank: 2, ndensity: 1, num_ms_combs: 5, mus: [0, 1], ns: [1, 3], ls: [2, 2], ms_combs: [-2, 2, -1, 1, 0, 0, 1, -1, 2, -2], ctildes: [-0.6148739465492532, 0.6148739465492532, -0.6148739465492532, 0.6148739465492532, -0.6148739465492532]}
    - {mu0: 0, rank: 2, ndensity: 1, num_ms_combs: 5, mus: [1, 1], ns: [1, 3], ls: [2, 2], ms_combs: [-2, 2, -1, 1, 0, 0, 1, -1, 2, -2], ctildes: [-0.5672914687476066, 0.5672914687476066, -0.5672914687476066, 0.5672914687476066, -0.5672914687476066]}
    - {mu0: 0, rank: 2, ndensity: 1, num_ms_combs: 5, mus: [0, 0], ns: [1, 4], ls: [2, 2], ms_combs: [-2, 2, -1, 1, 0, 0, 1, -1, 2, -2], ctildes: [-0.769223719051815, 0.769223719051815, -0.769223719051815, 0.769223719051815, -0.769223719051815]}
    - {mu0: 0, rank: 2, ndensity: 1, num_ms_combs: 5, mus: [0, 1], ns: [1, 4], ls: [2, 2], ms_combs: [-2, 2, -1, 1, 0, 0, 1, -1, 2, -2], ctildes: [0.4335249422873811, -0.4335249422873811, 0.4335249422873811, -0.4335249422873811, 0.4335249422873811]}
    - {mu0: 0, rank: 2, ndensity: 1, num_ms_combs: 5, mus: [1, 1], ns: [1, 4], ls: [2, 2], ms_combs: [-2, 2, -1, 1, 0, 0, 1, -1, 2, -2], ctildes: [0.31852671415519246, -0.31852671415519246, 0.31852671415519246, -0.31852671415519246, 0.31852671415519246]}
    - {mu0: 0, rank: 2, ndensity: 1, num_ms_combs: 5, mus: [0, 0], ns: [1, 5], ls: [2, 2], ms_combs: [-2, 2, -1, 1, 0, 0, 1, -1, 2, -2], ctildes: [-0.18390864462276418, 0.18390864462276418, -0.18390864462276418, 0.18390864462276418, -0.18390864462276418]}
    - {mu0: 0, rank: 2, ndensity: 1, num_ms_combs: 5, mus: [0, 1], ns: [1, 5], ls: [2, 2], ms_combs: [-2, 2, -1, 1, 0, 0, 1, -1, 2, -2], ctildes: [-0.43065393159925486, 0.43065393159925486, -0.43065393159925486, 0.43065393159925486, -0.43065393159925486]}
    - {mu0: 0, rank: 2, ndensity: 1, num_ms_combs: 5, mus: [1, 1], ns: [1, 5], ls: [2, 2], ms_combs: [-2, 2, -1, 1, 0, 0, 1, -1, 2, -2], ctildes: [0.2049332474118077, -0.2049332474118077, 0.2049332474118077, -0.2049332474118077, 0.2049332474118077]}
    - {mu0: 0, rank: 2, ndensity: 1, num_ms_combs: 5, mus: [0, 1], ns: [2, 1], ls: [2, 2], ms_combs: [-2, 2, -1, 1, 0, 0, 1, -1, 2, -2], ctildes: [0.23589153350716727, -0.23589153350716727, 0.23589153350716727, -0.23589153350716727, 0.23589153350716727]}
    - {mu0: 0, rank: 2, ndensity: 1, num_ms_combs: 5, mus: [0, 0], ns: [2, 2], ls: [2, 2], ms_combs: [-2, 2, -1, 1, 0, 0, 1, -1, 2, -2], ctildes: [-0.16781752078549908, 0.16781752078549908, -0.16781752078549908, 0.16781752078549908, -0.16781752078549908]}
    - {mu0: 0, rank: 2, ndensity: 1, num_ms_combs: 5, mus: [0, 1], ns: [2, 2], ls: [2, 2], ms_combs: [-2, 2, -1, 1, 0, 0, 1, -1, 2, -2], ctildes: [0.08133676156390966, -0.08133676156390966, 0.08133676156390966, -0.08133676156390966, 0.08133676156390966]}
    - {mu0: 0, rank: 2, ndensity: 1, num_ms_combs: 5, mus: [1, 1], ns: [2, 2], ls: [2, 2], ms_combs: [-2, 2, -1, 1, 0, 0, 1, -1, 2, -2], ctildes: [0.32442029148407137, -0.32442029148407137, 0.32442029148407137, -0.32442029148407137, 0.32442029148407137]}
    - {mu0: 0, rank: 2, ndensity: 1, num_ms_combs: 5, mus: [0, 0], ns: [2, 3], ls: [2, 2], ms_combs: [-2, 2, -1, 1, 0, 0, 1, -1, 2, -2], ctildes: [-0.07381253678969461, 0.07381253678969461, -0.07381253678969461, 0.07381253678969461, -0.07381253678969461]}
    - {mu0: 0, rank: 2, ndensity: 1, num_ms_combs: 5, mus: [0, 1], ns: [2, 3], ls: [2, 2], ms_combs: [-2, 2, -1, 1, 0, 0, 1, -1, 2, -2], ctildes: [0.23826096999848514, -0.23826096999848514, 0.23826096999848514, -0.23826096999848514, 0.23826096999848514]}
    - {mu0: 0, rank: 2, ndensity: 1, num_ms_combs: 5, mus: [1, 1], ns: [2, 3], ls: [2, 2], ms_combs: [-2, 2, -1, 1, 0, 0, 1, -1, 2, -2], ctildes: [0.3965271592984815, -0.3965271592984815, 0.3965271592984815, -0.3965271592984815, 0.3965271592984815]}
    - {mu0: 0, rank: 2, ndensity: 1, num_ms_combs: 5, mus: [0, 0], ns: [2, 4], ls: [2, 2], ms_combs: [-2, 2, -1, 1, 0, 0, 1, -1, 2, -2], ctildes: [-0.021106726056189185, 0.021106726056189185, -0.021106726056189185, 0.021106726056189185, -0.021106726056189185]}
    - {mu0: 0, rank: 2, ndensity: 1, num_ms_combs: 5, mus: [0, 1], ns: [2, 4], ls: [2, 2], ms_combs: [-2, 2, -1, 1, 0, 0, 1, -1, 2, -2], ctildes: [-0.16809543398970545, 0.16809543398970545, -0.16809543398970545, 0.16809543398970545, -0.16809543398970545]}
    - {mu0: 0, rank: 2, ndensity: 1, num_ms_combs: 5, mus: [1, 1], ns: [2, 4], ls: [2, 2], ms_combs: [-2, 2, -1, 1, 0, 0, 1, -1, 2, -2], ctildes: [-0.28145417492556213, 0.28145417492556213, -0.28145417492556213, 0.28145417492556213, -0.28145417492556213]}
    - {mu0: 0, rank: 2, ndensity: 1, num_ms_combs: 5, mus: [0, 0], ns: [2, 5], ls: [2, 2], ms_combs: [-2, 2, -1, 1, 0, 0, 1, -1, 2, -2], ctildes: [-0.1718106638265892, 0.1718106638265892, -0.1718106638265892, 0.1718106638265892, -0.1718106638265892]}
    - {mu0: 0, rank: 2, ndensity: 1, num_ms_combs: 5, mus: [0, 1], ns: [2, 5], ls: [2, 2], ms_combs: [-2, 2, -1, 1, 0, 0, 1, -1, 2, -2], ctildes: [-0.09672186887171914, 0.09672186887171914, -0.09672186887171914, 0.09672186887171914, -0.09672186887171914]}
    - {mu0: 0, rank: 2, ndensity: 1, num_ms_combs: 5, mus: [1, 1], ns: [2, 5], ls: [2, 2], ms_combs: [-2, 2, -1, 1, 0, 0, 1, -1, 2, -2], ctildes: [-0.5172527452078677, 0.5172527452078677, -0.5172527452078677, 0.5172527452078677, -0.5172527452078677]}
    - {mu0: 0, rank: 2, ndensity: 1, num_ms_combs: 5, mus: [0, 1], ns: [3, 1], ls: [2, 2], ms_combs: [-2, 2, -1, 1, 0, 0, 1, -1, 2, -2], ctildes: [0.08711467462643506, -0.08711467462643506, 0.08711467462643506, -0.08711467462643506, 0.08711467462643506]}
    - {mu0: 0, rank: 2, ndensity: 1, num_ms_combs: 5, mus: [0, 1], ns: [3, 2], ls: [2, 2], ms_combs: [-2, 2, -1, 1, 0, 0, 1, -1, 2, -2], ctildes: [0.15089203218419914, -0.15089203218419914, 0.15089203218419914, -0.15089203218419914, 0.15089203218419914]}
    - {mu0: 0, rank: 2, ndensity: 1, num_ms_combs: 5, mus: [0, 0], ns: [3, 3], ls: [2, 2], ms_combs: [-2, 2, -1, 1, 0, 0, 1, -1, 2, -2], ctildes: [0.5242573268458145, -0.5242573268458145, 0.5242573268458145, -0.5242573268458145, 0.5242573268458145]}
    - {mu0: 0, rank: 2, ndensity: 1, num_ms_combs: 5, mus: [0, 1], ns: [3, 3], ls: [2, 2], ms_combs: [-2, 2, -1, 1, 0, 0, 1, -1, 2, -2], ctildes: [0.5845181660734716, -0.5845181660734716, 0.5845181660734716, -0.5845181660734716, 0.5845181660734716]}
    - {mu0: 0, rank: 2, ndensity: 1, num_ms_combs: 5, mus: [1, 1], ns: [3, 3], ls: [2, 2], ms_combs: [-2, 2, -1, 1, 0, 0, 1, -1, 2, -2], ctildes: [0.4271092874022623, -0.4271092874022623, 0.4271092874022623, -0.4271092874022623, 0.4271092874022623]}
    - {mu0: 0, rank: 2, ndensity: 1, num_ms_combs: 5, mus: [0, 0], ns: [3, 4], ls: [2, 2], ms_combs: [-2, 2, -1, 1, 0, 0, 1, -1, 2, -2], ctildes: [0.43512048666060443, -0.43512048666060443, 0.43512048666060443, -0.43512048666060443, 0.43512048666060443]}
    - {mu0: 0, rank: 2, ndensity: 1, num_ms_combs: 5, mus: [0, 1], ns: [3, 4], ls: [2, 2], ms_combs: [-2, 2, -1, 1, 0, 0, 1, -1, 2, -2], ctildes: [-0.17252663478742972, 0.17252663478742972, -0.17252663478742972, 0.17252663478742972, -0.17252663478742972]}
    - {mu0: 0, rank: 2, ndensity: 1, num_ms_combs: 5, mus: [1, 1], ns: [3, 4], ls: [2, 2], ms_combs: [-2, 2, -1, 1, 0, 0, 1, -1, 2, -2], ctildes: [-0.44470556984557585, 0.44470556984557585, -0.44470556984557585, 0.44470556984557585, -0.44470556984557585]}
    - {mu0: 0, rank: 2, ndensity: 1, num_ms_combs: 5, mus: [0, 0], ns: [3, 5], ls: [2, 2], ms_combs: [-2, 2, -1, 1, 0, 0, 1, -1, 2, -2], ctildes: [0.4766815817013693, -0.4766815817013693, 0.4766815817013693, -0.4766815817013693, 0.4766815817013693]}
    - {mu0: 0, rank: 2, ndensity: 1, num_ms_combs: 5, mus: [0, 1], ns: [3, 5], ls: [2, 2], ms_combs: [-2, 2, -1, 1, 0, 0, 1, -1, 2, -2], ctildes: [0.3299018328600153, -0.3299018328600153, 0.3299018328600153, -0.3299018328600153, 0.3299018328600153]}
    - {mu0: 0, rank: 2, ndensity: 1, num_ms_combs: 5, mus: [1, 1], ns: [3, 5], ls: [2, 2], ms_combs: [-2, 2, -1, 1, 0, 0, 1, -1, 2, -2], ctildes: [-0.47720185734023957, 0.47720185734023957, -0.47720185734023957, 0.47720185734023957, -0.47720185734023957]}
    - {mu0: 0, rank: 2, ndensity: 1, num_ms_combs: 5, mus: [0, 1], ns: [4, 1], ls: [2, 2], ms_combs: [-2, 2, -1, 1, 0, 0, 1, -1, 2, -2], ctildes: [-0.916278889060572, 0.916278889060572, -0.916278889060572, 0.916278889060572, -0.916278889060572]}
    - {mu0: 0, rank: 2, ndensity: 1, num_ms_combs: 5, mus: [0, 1], ns: [4, 2], ls: [2, 2], ms_combs: [-2, 2, -1, 1, 0, 0, 1, -1, 2, -2], ctildes: [0.03891302483906805, -0.03891302483906805, 0.03891302483906805, -0.03891302483906805, 0.03891302483906805]}
    - {mu0: 0, rank: 2, ndensity: 1, num_ms_combs: 5, mus: [0, 1], ns: [4, 3], ls: [2, 2], ms_combs: [-2, 2, -1, 1, 0, 0, 1, -1, 2, -2], ctildes: [0.46212593151369047, -0.46212593151369047, 0.46212593151369047, -0.46212593151369047, 0.46212593151369047]}
    - {mu0: 0, rank: 2, ndensity: 1, num_ms_combs: 5, mus: [0, 0], ns: [4, 4], ls: [2, 2], ms_combs: [-2, 2, -1, 1, 0, 0, 1, -1, 2, -2], ctildes: [-0.5382165356469436, 0.5382165356469436, -0.5382165356469436, 0.5382165356469436, -0.5382165356469436]}
    - {mu0: 0, rank: 2, ndensity: 1, num_ms_combs: 5, mus: [0, 1], ns: [4, 4], ls: [2, 2], ms_combs: [-2, 2, -1, 1, 0, 0, 1, -1, 2, -2], ctildes: [-0.10764823658596102, 0.10764823658596102, -0.10764823658596102, 0.10764823658596102, -0.10764823658596102]}
    - {mu0: 0, rank: 2, ndensity: 1, num_ms_combs: 5, mus: [1, 1], ns: [4, 4], ls: [2, 2], ms_combs: [-2, 2, -1, 1, 0, 0, 1, -1, 2, -2], ctildes: [0.13203095965951037, -0.13203095965951037, 0.13203095965951037, -0.13203095965951037, 0.13203095965951037]}
    - {mu0: 0, rank: 2, ndensity: 1, num_ms_combs: 5, mus: [0, 0], ns: [4, 5], ls: [2, 2], ms_combs: [-2, 2, -1, 1, 0, 0, 1, -1, 2, -2], ctildes: [0.23486184586774428, -0.23486184586774428, 0.23486184586774428, -0.23486184586774428, 0.23486184586774428]}
    - {mu0: 0, rank: 2, ndensity: 1, num_ms_combs: 5, mus: [0, 1], ns: [4, 5], ls: [2, 2], ms_combs: [-2, 2, -1, 1, 0, 0, 1, -1, 2, -2], ctildes: [0.40226595315740443, -0.40226595315740443, 0.40226595315740443, -0.40226595315740443, 0.40226595315740443]}
    - {mu0: 0, rank: 2, ndensity: 1, num_ms_combs: 5, mus: [1, 1], ns: [4, 5], ls: [2, 2], ms_combs: [-2, 2, -1, 1, 0, 0, 1, -1, 2, -2], ctildes: [0.6284593249336206, -0.6284593249336206, 0.6284593249336206, -0.6284593249336206, 0.6284593249336206]}
    - {mu0: 0, rank: 2, ndensity: 1, num_ms_combs: 5, mus: [0, 1], ns: [5, 1], ls: [2, 2], ms_combs: [-2, 2, -1, 1, 0, 0, 1, -1, 2, -2], ctildes: [0.3795034321617214, -0.3795034321617214, 0.3795034321617214, -0.3795034321617214, 0.3795034321617214]}
    - {mu0: 0, rank: 2, ndensity: 1, num_ms_combs: 5, mus: [0, 1], ns: [5, 2], ls: [2, 2], ms_combs: [-2, 2, -1, 1, 0, 0, 1, -1, 2, -2], ctildes: [-0.48086010908200233, 0.48086010908200233, -0.48086010908200233, 0.48086010908200233, -0.48086010908200233]}
    - {mu0: 0, rank: 2, ndensity: 1, num_ms_combs: 5, mus: [0, 1], ns: [5, 3], ls: [2, 2], ms_combs: [-2, 2, -1, 1, 0, 0, 1, -1, 2, -2], ctildes: [-0.19327254347537018, 0.19327254347537018, -0.19327254347537018, 0.19327254347537018, -0.19327254347537018]}
    - {mu0: 0, rank: 2, ndensity: 1, num_ms_combs: 5, mus: [0, 1], ns: [5, 4], ls: [2, 2], ms_combs: [-2, 2, -1, 1, 0, 0, 1, -1, 2, -2], ctildes: [0.3440407372053318, -0.3440407372053318, 0.3440407372053318, -0.3440407372053318, 0.3440407372053318]}
    - {mu0: 0, rank: 2, ndensity: 1, num_ms_combs: 5, mus: [0, 0], ns: [5, 5], ls: [2, 2], ms_combs: [-2, 2, -1, 1, 0, 0, 1, -1, 2, -2], ctildes: [0.20275202493641187, -0.20275202493641187, 0.20275202493641187, -0.20275202493641187, 0.20275202493641187]}
    - {mu0: 0, rank: 2, ndensity: 1, num_ms_combs: 5, mus: [0, 1], ns: [5, 5], ls: [2, 2], ms_combs: [-2, 2, -1, 1, 0, 0, 1, -1, 2, -2], ctildes: [-0.304058102692224, 0.304058102692224, -0.304058102692224, 0.304058102692224, -0.304058102692224]}
    - {mu0: 0, rank: 2, ndensity: 1, num_ms_combs: 5, mus: [1, 1], ns: [5, 5], ls: [2, 2], ms_combs: [-2, 2, -1, 1, 0, 0, 1, -1, 2, -2], ctildes: [-0.5135569934748172, 0.5135569934748172, -0.5135569934748172, 0.5135569934748172, -0.5135569934748172]}
    - {mu0: 0, rank: 2, ndensity: 1, num_ms_combs: 7, mus: [0, 0], ns: [1, 1], ls: [3, 3], ms_combs: [-3, 3, -2, 2, -1, 1, 0, 0, 1, -1, 2, -2, 3, -3], ctildes: [0.21565862032294575, -0.21565862032294575, 0.21565862032294575, -0.21565862032294575, 0.21565862032294575, -0.21565862032294575, 0.21565862032294575]}
    - {mu0: 0, rank: 2, ndensity: 1, num_ms_combs: 7, mus: [0, 1], ns: [1, 1], ls: [3, 3], ms_combs: [-3, 3, -2, 2, -1, 1, 0, 0, 1, -1, 2, -2, 3, -3], ctildes: [-0.08366752791295155, 0.08366752791295155, -0.08366752791295155, 0.08366752791295155, -0.08366752791295155, 0.08366752791295155, -0.08366752791295155]}
    - {mu0: 0, rank: 2, ndensity: 1, num_ms_combs: 7, mus: [1, 1], ns: [1, 1], ls: [3, 3], ms_combs: [-3, 3, -2, 2, -1, 1, 0, 0, 1, -1, 2, -2, 3, -3], ctildes: [-0.20260030833901183, 0.20260030833901183, -0.20260030833901183, 0.20260030833901183, -0.20260030833901183, 0.20260030833901183, -0.20260030833901183]}
    - {mu0: 0, rank: 2, ndensity: 1, num_ms_combs: 7, mus: [0, 0], ns: [1, 2], ls: [3, 3], ms_combs: [-3, 3, -2, 2, -1, 1, 0, 0, 1, -1, 2, -2, 3, -3], ctildes: [-0.47767535122473903, 0.47767535122473903, -0.47767535122473903, 0.47767535122473903, -0.47767535122473903, 0.47767535122473903, -0.47767535122473903]}
    - {mu0: 0, rank: 2, ndensity: 1, num_ms_combs: 7, mus: [0, 1], ns: [1, 2], ls: [3, 3], ms_combs: [-3, 3, -2, 2, -1, 1, 0, 0, 1, -1, 2, -2, 3, -3], ctildes: [-0.2600806987187505, 0.2600806987187505, -0.2600806987187505, 0.2600806987187505, -0.2600806987187505, 0.2600806987187505, -0.2600806987187505]}
    - {mu0: 0, rank: 2, ndensity: 1, num_ms_combs: 7, mus: [1, 1], ns: [1, 2], ls: [3, 3], ms_combs: [-3, 3, -2, 2, -1, 1, 0, 0, 1, -1, 2, -2, 3, -3], ctildes: [-0.32511140906672625, 0.32511140906672625, -0.32511140906672625, 0.32511140906672625, -0.32511140906672625, 0.32511140906672625, -0.32511140906672625]}
    - {mu0: 0, rank: 2, ndensity: 1, num_ms_combs: 7, mus: [0, 0], ns: [1, 3], ls: [3, 3], ms_combs: [-3, 3, -2, 2, -1, 1, 0, 0, 1, -1, 2, -2, 3, -3], ctildes: [-0.5928999796842268, 0.5928999796842268, -0.5928999796842268, 0.5928999796842268, -0.5928999796842268, 0.5928999796842268, -0.5928999796842268]}
    - {mu0: 0, rank: 2, ndensity: 1, num_ms_combs: 7, mus: [0, 1], ns: [1, 3], ls: [3, 3], ms_combs: [-3, 3, -2, 2, -1, 1, 0, 0, 1, -1, 2, -2, 3, -3], ctildes: [-0.2224398066959867, 0.2224398066959867, -0.2224398066959867, 0.2224398066959867, -0.2224398066959867, 0.2224398066959867, -0.2224398066959867]}
    - {mu0: 0, rank: 2, ndensity: 1, num_ms_combs: 7, mus: [1, 1], ns: [1, 3], ls: [3, 3], ms_combs: [-3, 3, -2, 2, -1, 1, 0, 0, 1, -1, 2, -2, 3, -3], ctildes: [0.3540967541510633, -0.3540967541510633, 0.3540967541510633, -0.3540967541510633, 0.3540967541510633, -0.3540967541510633, 0.3540967541510633]}
    - {mu0: 0, rank: 2, ndensity: 1, num_ms_combs: 7, mus: [0, 0], ns: [1, 4], ls: [3, 3], ms_combs: [-3, 3, -2, 2, -1, 1, 0, 0, 1, -1, 2, -2, 3, -3], ctildes: [0.76612165698507, -0.76612165698507, 0.76612165698507, -0.76612165698507, 0.76612165698507, -0.76612165698507, 0.76612165698507]}
    - {mu0: 0, rank: 2, ndensity: 1, num_ms_combs: 7, mus: [0, 1], ns: [1, 4], ls: [3, 3], ms_combs: [-3, 3, -2, 2, -1, 1, 0, 0, 1, -1, 2, -2, 3, -3], ctildes: [0.34035771410951277, -0.34035771410951277, 0.34035771410951277, -0.34035771410951277, 0.34035771410951277, -0.34035771410951277, 0.34035771410951277]}
    - {mu0: 0, rank: 2, ndensity: 1, num_ms_combs: 7, mus: [1, 1], ns: [1, 4], ls: [3, 3], ms_combs: [-3, 3, -2, 2, -1, 1, 0, 0, 1, -1, 2, -2, 3, -3], ctildes: [0.38088343910390626, -0.38088343910390626, 0.38088343910390626, -0.38088343910390626, 0.38088343910390626, -0.38088343910390626, 0.38088343910390626]}
    - {mu0: 0, rank: 2, ndensity: 1, num_ms_combs: 7, mus: [0, 0], ns: [1, 5], ls: [3, 3], ms_combs: [-3, 3, -2, 2, -1, 1, 0, 0, 1, -1, 2, -2, 3, -3], ctildes: [-0.4197155261447468, 0.4197155261447468, -0.4197155261447468, 0.4197155261447468, -0.4197155261447468, 0.4197155261447468, -0.4197155261447468]}
    - {mu0: 0, rank: 2, ndensity: 1, num_ms_combs: 7, mus: [0, 1], ns: [1, 5], ls: [3, 3], ms_combs: [-3, 3, -2, 2, -1, 1, 0, 0, 1, -1, 2, -2, 3, -3], ctildes: [-0.11842853573078282, 0.11842853573078282, -0.11842853573078282, 0.11842853573078282, -0.11842853573078282, 0.11842853573078282, -0.11842853573078282]}
    - {mu0: 0, rank: 2, ndensity: 1, num_ms_combs: 7, mus: [1, 1], ns: [1, 5], ls: [3, 3], ms_combs: [-3, 3, -2, 2, -1, 1, 0, 0, 1, -1, 2, -2, 3, -3], ctildes: [-0.16974652480609842, 0.16974652480609842, -0.16974652480609842, 0.16974652480609842, -0.16974652480609842, 0.16974652480609842, -0.16974652480609842]}
    - {mu0: 0, rank: 2, ndensity: 1, num_ms_combs: 7, mus: [0, 1], ns: [2, 1], ls: [3, 3], ms_combs: [-3, 3, -2, 2, -1, 1, 0, 0, 1, -1, 2, -2, 3, -3], ctildes: [-0.4355118686609176, 0.4355118686609176, -0.4355118686609176, 0.4355118686609176, -0.4355118686609176, 0.4355118686609176, -0.4355118686609176]}
    - {mu0: 0, rank: 2, ndensity: 1, num_ms_combs: 7, mus: [0, 0], ns: [2, 2], ls: [3, 3], ms_combs: [-3, 3, -2, 2, -1, 1, 0, 0, 1, -1, 2, -2, 3, -3], ctildes: [0.1948799027635196, -0.1948799027635196, 0.1948799027635196, -0.1948799027635196, 0.1948799027635196, -0.1948799027635196, 0.1948799027635196]}
    - {mu0: 0, rank: 2, ndensity: 1, num_ms_combs: 7, mus: [0, 1], ns: [2, 2], ls: [3, 3], ms_combs: [-3, 3, -2, 2, -1, 1, 0, 0, 1, -1, 2, -2, 3, -3], ctildes: [-0.032514883176987724, 0.032514883176987724, -0.032514883176987724, 0.032514883176987724, -0.032514883176987724, 0.032514883176987724, -0.032514883176987724]}
    - {mu0: 0, rank: 2, ndensity: 1, num_ms_combs: 7, mus: [1, 1], ns: [2, 2], ls: [3, 3], ms_combs: [-3, 3, -2, 2, -1, 1, 0, 0, 1, -1, 2, -2, 3, -3], ctildes: [-0.4698168092841532, 0.4698168092841532, -0.4698168092841532, 0.4698168092841532, -0.4698168092841532, 0.4698168092841532, -0.4698168092841532]}
    - {mu0: 0, rank: 2, ndensity: 1, num_ms_combs: 7, mus: [0, 0], ns: [2, 3], ls: [3, 3], ms_combs: [-3, 3, -2, 2, -1, 1, 0, 0, 1, -1, 2, -2, 3, -3], ctildes: [0.13917347181136458, -0.13917347181136458, 0.13917347181136458, -0.13917347181136458, 0.13917347181136458, -0.13917347181136458, 0.13917347181136458]}
    - {mu0: 0, rank: 2, ndensity: 1, num_ms_combs: 7, mus: [0, 1], ns: [2, 3], ls: [3, 3], ms_combs: [-3, 3, -2, 2, -1, 1, 0, 0, 1, -1, 2, -2, 3, -3], ctildes: [-0.20311642568584778, 0.20311642568584778, -0.20311642568584778, 0.20311642568584778, -0.20311642568584778, 0.20311642568584778, -0.20311642568584778]}
    - {mu0: 0, rank: 2, ndensity: 1, num_ms_combs: 7, mus: [1, 1], ns: [2, 3], ls: [3, 3], ms_combs: [-3, 3, -2, 2, -1, 1, 0, 0, 1, -1, 2, -2, 3, -3], ctildes: [-0.48145340325155306, 0.48145340325155306, -0.48145340325155306, 0.48145340325155306, -0.48145340325155306, 0.48145340325155306, -0.48145340325155306]}
    - {mu0: 0, rank: 2, ndensity: 1, num_ms_combs: 7, mus: [0, 0], ns: [2, 4], ls: [3, 3], ms_combs: [-3, 3, -2, 2, -1, 1, 0, 0, 1, -1, 2, -2, 3, -3], ctildes: [0.03849184294752934, -0.03849184294752934, 0.03849184294752934, -0.03849184294752934, 0.03849184294752934, -0.03849184294752934, 0.03849184294752934]}
    - {mu0: 0, rank: 2, ndensity: 1, num_ms_combs: 7, mus: [0, 1], ns: [2, 4], ls: [3, 3], ms_combs: [-3, 3, -2, 2, -1, 1, 0, 0, 1, -1, 2, -2, 3, -3], ctildes: [-0.18552095469252428, 0.18552095469252428, -0.18552095469252428, 0.18552095469252428, -0.18552095469252428, 0.18552095469252428, -0.18552095469252428]}
    - {mu0: 0, rank: 2, ndensity: 1, num_ms_combs: 7, mus: [1, 1], ns: [2, 4], ls: [3, 3], ms_combs: [-3, 3, -2, 2, -1, 1, 0, 0, 1, -1, 2, -2, 3, -3], ctildes: [-0.051187975807406375, 0.051187975807406375, -0.051187975807406375, 0.051187975807406375, -0.051187975807406375, 0.051187975807406375, -0.051187975807406375]}
    - {mu0: 0, rank: 2, ndensity: 1, num_ms_combs: 7, mus: [0, 0], ns: [2, 5], ls: [3, 3], ms_combs: [-3, 3, -2, 2, -1, 1, 0, 0, 1, -1, 2, -2, 3, -3], ctildes: [0.2956856980260457, -0.2956856980260457, 0.2956856980260457, -0.2956856980260457, 0.2956856980260457, -0.2956856980260457, 0.2956856980260457]}
    - {mu0: 0, rank: 2, ndensity: 1, num_ms_combs: 7, mus: [0, 1], ns: [2, 5], ls: [3, 3], ms_combs: [-3, 3, -2, 2, -1, 1, 0, 0, 1, -1, 2, -2, 3, -3], ctildes: [-0.08494705081935038, 0.08494705081935038, -0.08494705081935038, 0.08494705081935038, -0.08494705081935038, 0.08494705081935038, -0.08494705081935038]}
    - {mu0: 0, rank: 2, ndensity: 1, num_ms_combs: 7, mus: [1, 1], ns: [2, 5], ls: [3, 3], ms_combs: [-3, 3, -2, 2, -1, 1, 0, 0, 1, -1, 2, -2, 3, -3], ctildes: [0.09931555509371556, -0.09931555509371556, 0.09931555509371556, -0.09931555509371556, 0.09931555509371556, -0.09931555509371556, 0.09931555509371556]}
    - {mu0: 0, rank: 2, ndensity: 1, num_ms_combs: 7, mus: [0, 1], ns: [3, 1], ls: [3, 3], ms_combs: [-3, 3, -2, 2, -1, 1, 0, 0, 1, -1, 2, -2, 3, -3], ctildes: [-0.037417899574200816, 0.037417899574200816, -0.037417899574200816, 0.037417899574200816, -0.037417899574200816, 0.037417899574200816, -0.037417899574200816]}
    - {mu0: 0, rank: 2, ndensity: 1, num_ms_combs: 7, mus: [0, 1], ns: [3, 2], ls: [3, 3], ms_combs: [-3, 3, -2, 2, -1, 1, 0, 0, 1, -1, 2, -2, 3, -3], ctildes: [0.12047627093053474, -0.12047627093053474, 0.12047627093053474, -0.12047627093053474, 0.12047627093053474, -0.12047627093053474, 0.12047627093053474]}
    - {mu0: 0, rank: 2, ndensity: 1, num_ms_combs: 7, mus: [0, 0], ns: [3, 3], ls: [3, 3], ms_combs: [-3, 3, -2, 2, -1, 1, 0, 0, 1, -1, 2, -2, 3, -3], ctildes: [-0.06258814734848513, 0.06258814734848513, -0.06258814734848513, 0.06258814734848513, -0.06258814734848513, 0.06258814734848513, -0.06258814734848513]}
    - {mu0: 0, rank: 2, ndensity: 1, num_ms_combs: 7, mus: [0, 1], ns: [3, 3], ls: [3, 3], ms_combs: [-3, 3, -2, 2, -1, 1, 0, 0, 1, -1, 2, -2, 3, -3], ctildes: [0.12336672073489124, -0.12336672073489124, 0.12336672073489124, -0.12336672073489124, 0.12336672073489124, -0.12336672073489124, 0.12336672073489124]}
    - {mu0: 0, rank: 2, ndensity: 1, num_ms_combs: 7, mus: [1, 1], ns: [3, 3], ls: [3, 3], ms_combs: [-3, 3, -2, 2, -1, 1, 0, 0, 1, -1, 2, -2, 3, -3], ctildes: [0.0824940769003551, -0.0824940769003551, 0.0824940769003551, -0.0824940769003551, 0.0824940769003551, -0.0824940769003551, 0.0824940769003551]}
    - {mu0: 0, rank: 2, ndensity: 1, num_ms_combs: 7, mus: [0, 0], ns: [3, 4], ls: [3, 3], ms_combs: [-3, 3, -2, 2, -1, 1, 0, 0, 1, -1, 2, -2, 3, -3], ctildes: [0.07750272738291307, -0.07750272738291307, 0.07750272738291307, -0.07750272738291307, 0.07750272738291307, -0.07750272738291307, 0.07750272738291307]}
    - {mu0: 0, rank: 2, ndensity: 1, num_ms_combs: 7, mus: [0, 1], ns: [3, 4], ls: [3, 3], ms_combs: [-3, 3, -2, 2, -1, 1, 0, 0, 1, -1, 2, -2, 3, -3], ctildes: [0.0824553111903875, -0.0824553111903875, 0.0824553111903875, -0.0824553111903875, 0.0824553111903875, -0.0824553111903875, 0.0824553111903875]}
    - {mu0: 0, rank: 2, ndensity: 1, num_ms_combs: 7, mus: [1, 1], ns: [3, 4], ls: [3, 3], ms_combs: [-3, 3, -2, 2, -1, 1, 0, 0, 1, -1, 2, -2, 3, -3], ctildes: [0.33666714536886644, -0.33666714536886644, 0.33666714536886644, -0.33666714536886644, 0.33666714536886644, -0.33666714536886644, 0.33666714536886644]}
    - {mu0: 0, rank: 2, ndensity: 1, num_ms_combs: 7, mus: [0, 0], ns: [3, 5], ls: [3, 3], ms_combs: [-3, 3, -2, 2, -1, 1, 0, 0, 1, -1, 2, -2, 3, -3], ctildes: [0.4814415026586083, -0.4814415026586083, 0.4814415026586083, -0.4814415026586083, 0.4814415026586083, -0.4814415026586083, 0.4814415026586083]}
    - {mu0: 0, rank: 2, ndensity: 1, num_ms_combs: 7, mus: [0, 1], ns: [3, 5], ls: [3, 3], ms_combs: [-3, 3, -2, 2, -1, 1, 0, 0, 1, -1, 2, -2, 3, -3], ctildes: [-0.06926784786967168, 0.06926784786967168, -0.06926784786967168, 0.06926784786967168, -0.06926784786967168, 0.06926784786967168, -0.06926784786967168]}
    - {mu0: 0, rank: 2, ndensity: 1, num_ms_combs: 7, mus: [1, 1], ns: [3, 5], ls: [3, 3], ms_combs: [-3, 3, -2, 2, -1, 1, 0, 0, 1, -1, 2, -2, 3, -3], ctildes: [0.21237415510357557, -0.21237415510357557, 0.21237415510357557, -0.21237415510357557, 0.21237415510357557, -0.21237415510357557, 0.21237415510357557]}
    - {mu0: 0, rank: 2, ndensity: 1, num_ms_combs: 7, mus: [0, 1], ns: [4, 1], ls: [3, 3], ms_combs: [-3, 3, -2, 2, -1, 1, 0, 0, 1, -1, 2, -2, 3, -3], ctildes: [0.43508122081146233, -0.43508122081146233, 0.43508122081146233, -0.43508122081146233, 0.43508122081146233, -0.43508122081146233, 0.43508122081146233]}
    - {mu0: 0, rank: 2, ndensity: 1, num_ms_combs: 7, mus: [0, 1], ns: [4, 2], ls: [3, 3], ms_combs: [-3, 3, -2, 2, -1, 1, 0, 0, 1, -1, 2, -2, 3, -3], ctildes: [-0.000707355865921525, 0.000707355865921525, -0.000707355865921525, 0.000707355865921525, -0.000707355865921525, 0.000707355865921525, -0.000707355865921525]}
    - {mu0: 0, rank: 2, ndensity: 1, num_ms_combs: 7, mus: [0, 1], ns: [4, 3], ls: [3, 3], ms_combs: [-3, 3, -2, 2, -1, 1, 0, 0, 1, -1, 2, -2, 3, -3], ctildes: [-0.03744711860118456, 0.03744711860118456, -0.03744711860118456, 0.03744711860118456, -0.03744711860118456, 0.03744711860118456, -0.03744711860118456]}
    - {mu0: 0, rank: 2, ndensity: 1, num_ms_combs: 7, mus: [0, 0], ns: [4, 4], ls: [3, 3], ms_combs: [-3, 3, -2, 2, -1, 1, 0, 0, 1, -1, 2, -2, 3, -3], ctildes: [-0.16290069915423852, 0.16290069915423852, -0.16290069915423852, 0.16290069915423852, -0.16290069915423852, 0.16290069915423852, -0.16290069915423852]}
    - {mu0: 0, rank: 2, ndensity: 1, num_ms_combs: 7, mus: [0, 1], ns: [4, 4], ls: [3, 3], ms_combs: [-3, 3, -2, 2, -1, 1, 0, 0, 1, -1, 2, -2, 3, -3], ctildes: [-0.3745927433459981, 0.3745927433459981, -0.3745927433459981, 0.3745927433459981, -0.3745927433459981, 0.3745927433459981, -0.3745927433459981]}
    - {mu0: 0, rank: 2, ndensity: 1, num_ms_combs: 7, mus: [1, 1], ns: [4, 4], ls: [3, 3], ms_combs: [-3, 3, -2, 2, -1, 1, 0, 0, 1, -1, 2, -2, 3, -3], ctildes: [-0.5054943329791484, 0.5054943329791484, -0.5054943329791484, 0.5054943329791484, -0.5054943329791484, 0.5054943329791484, -0.5054943329791484]}
    - {mu0: 0, rank: 2, ndensity: 1, num_ms_combs: 7, mus: [0, 0], ns: [4, 5], ls: [3, 3], ms_combs: [-3, 3, -2, 2, -1, 1, 0, 0, 1, -1, 2, -2, 3, -3], ctildes: [-0.5396114431192512, 0.5396114431192512, -0.5396114431192512, 0.5396114431192512, -0.5396114431192512, 0.5396114431192512, -0.5396114431192512]}
    - {mu0: 0, rank: 2, ndensity: 1, num_ms_combs: 7, mus: [0, 1], ns: [4, 5], ls: [3, 3], ms_combs: [-3, 3, -2, 2, -1, 1, 0, 0, 1, -1, 2, -2, 3, -3], ctildes: [0.17924069047883404, -0.17924069047883404, 0.17924069047883404, -0.17924069047883404, 0.17924069047883404, -0.17924069047883404, 0.17924069047883404]}
    - {mu0: 0, rank: 2, ndensity: 1, num_ms_combs: 7, mus: [1, 1], ns: [4, 5], ls: [3, 3], ms_combs: [-3, 3, -2, 2, -1, 1, 0, 0, 1, -1, 2, -2, 3, -3], ctildes: [-0.14524081550046078, 0.14524081550046078, -0.14524081550046078, 0.14524081550046078, -0.14524081550046078, 0.14524081550046078, -0.14524081550046078]}
    - {mu0: 0, rank: 2, ndensity: 1, num_ms_combs: 7, mus: [0, 1], ns: [5, 1], ls: [3, 3], ms_combs: [-3, 3, -2, 2, -1, 1, 0, 0, 1, -1, 2, -2, 3, -3], ctildes: [-0.45354282567948145, 0.45354282567948145, -0.45354282567948145, 0.45354282567948145, -0.45354282567948145, 0.45354282567948145, -0.45354282567948145]}
    - {mu0: 0, rank: 2, ndensity: 1, num_ms_combs: 7, mus: [0, 1], ns: [5, 2], ls: [3, 3], ms_combs: [-3, 3, -2, 2, -1, 1, 0, 0, 1, -1, 2, -2, 3, -3], ctildes: [0.322306572760369, -0.322306572760369, 0.322306572760369, -0.322306572760369, 0.322306572760369, -0.322306572760369, 0.322306572760369]}
    - {mu0: 0, rank: 2, ndensity: 1, num_ms_combs: 7, mus: [0, 1], ns: [5, 3], ls: [3, 3], ms_combs: [-3, 3, -2, 2, -1, 1, 0, 0, 1, -1, 2, -2, 3, -3], ctildes: [0.6702778604538812, -0.6702778604538812, 0.6702778604538812, -0.6702778604538812, 0.6702778604538812, -0.6702778604538812, 0.6702778604538812]}
    - {mu0: 0, rank: 2, ndensity: 1, num_ms_combs: 7, mus: [0, 1], ns: [5, 4], ls: [3, 3], ms_combs: [-3, 3, -2, 2, -1, 1, 0, 0, 1, -1, 2, -2, 3, -3], ctildes: [-0.4538843947126175, 0.4538843947126175, -0.4538843947126175, 0.4538843947126175, -0.4538843947126175, 0.4538843947126175, -0.4538843947126175]}
    - {mu0: 0, rank: 2, ndensity: 1, num_ms_combs: 7, mus: [0, 0], ns: [5, 5], ls: [3, 3], ms_combs: [-3, 3, -2, 2, -1, 1, 0, 0, 1, -1, 2, -2, 3, -3], ctildes: [0.22915301209733993, -0.22915301209733993, 0.22915301209733993, -0.22915301209733993, 0.22915301209733993, -0.22915301209733993, 0.22915301209733993]}
    - {mu0: 0, rank: 2, ndensity: 1, num_ms_combs: 7, mus: [0, 1], ns: [5, 5], ls: [3, 3], ms_combs: [-3, 3, -2, 2, -1, 1, 0, 0, 1, -1, 2, -2, 3, -3], ctildes: [0.317195329098147, -0.317195329098147, 0.317195329098147, -0.317195329098147, 0.317195329098147, -0.317195329098147, 0.317195329098147]}
    - {mu0: 0, rank: 2, ndensity: 1, num_ms_combs: 7, mus: [1, 1], ns: [5, 5], ls: [3, 3], ms_combs: [-3, 3, -2, 2, -1, 1, 0, 0, 1, -1, 2, -2, 3, -3], ctildes: [0.15601565937385342, -0.15601565937385342, 0.15601565937385342, -0.15601565937385342, 0.15601565937385342, -0.15601565937385342, 0.15601565937385342]}
    - {mu0: 0, rank: 3, ndensity: 1, num_ms_combs: 1, mus: [0, 0, 0], ns: [1, 1, 1], ls: [0, 0, 0], ms_combs: [0, 0, 0], ctildes: [0.027705544090167677]}
    - {mu0: 0, rank: 3, ndensity: 1, num_ms_combs: 1, mus: [0, 0, 1], ns: [1, 1, 1], ls: [0, 0, 0], ms_combs: [0, 0, 0], ctildes: [-0.004529267695033923]}
    - {mu0: 0, rank: 3, ndensity: 1, num_ms_combs: 1, mus: [0, 1, 1], ns: [1, 1, 1], ls: [0, 0, 0], ms_combs: [0, 0, 0], ctildes: [0.24371073766087648]}
    - {mu0: 0, rank: 3, ndensity: 1, num_ms_combs: 1, mus: [1, 1, 1], ns: [1, 1, 1], ls: [0, 0, 0], ms_combs: [0, 0, 0], ctildes: [0.002040230906004581]}
    - {mu0: 0, rank: 3, ndensity: 1, num_ms_combs: 3, mus: [0, 0, 0], ns: [1, 1, 1], ls: [0, 1, 1], ms_combs: [0, -1, 1, 0, 0, 0, 0, 1, -1], ctildes: [0.04563723407781847, -0.04563723407781847, 0.04563723407781847]}
    - {mu0: 0, rank: 3, ndensity: 1, num_ms_combs: 3, mus: [0, 0, 1], ns: [1, 1, 1], ls: [0, 1, 1], ms_combs: [0, -1, 1, 0, 0, 0, 0, 1, -1], ctildes: [-0.022192159986637885, 0.022192159986637885, -0.022192159986637885]}
    - {mu0: 0, rank: 3, ndensity: 1, num_ms_combs: 3, mus: [0, 1, 1], ns: [1, 1, 1], ls: [0, 1, 1], ms_combs: [0, -1, 1, 0, 0, 0, 0, 1, -1], ctildes: [0.016992611712939004, -0.016992611712939004, 0.016992611712939004]}
    - {mu0: 0, rank: 3, ndensity: 1, num_ms_combs: 3, mus: [1, 1, 1], ns: [1, 1, 1], ls: [0, 1, 1], ms_combs: [0, -1, 1, 0, 0, 0, 0, 1, -1], ctildes: [0.06674627902971453, -0.06674627902971453, 0.06674627902971453]}
    - {mu0: 0, rank: 3, ndensity: 1, num_ms_combs: 5, mus: [0, 0, 0], ns: [1, 1, 1], ls: [0, 2, 2], ms_combs: [0, -2, 2, 0, -1, 1, 0, 0, 0, 0, 1, -1, 0, 2, -2], ctildes: [-0.03744491349516501, 0.03744491349516501, -0.03744491349516501, 0.03744491349516501, -0.03744491349516501]}
    - {mu0: 0, rank: 3, ndensity: 1, num_ms_combs: 5, mus: [0, 0, 1], ns: [1, 1, 1], ls: [0, 2, 2], ms_combs: [0, -2, 2, 0, -1, 1, 0, 0, 0, 0, 1, -1, 0, 2, -2], ctildes: [0.03643888790478715, -0.03643888790478715, 0.03643888790478715, -0.03643888790478715, 0.03643888790478715]}
    - {mu0: 0, rank: 3, ndensity: 1, num_ms_combs: 5, mus: [0, 1, 1], ns: [1, 1, 1], ls: [0, 2, 2], ms_combs: [0, -2, 2, 0, -1, 1, 0, 0, 0, 0, 1, -1, 0, 2, -2], ctildes: [0.012812144254437658, -0.012812144254437658, 0.012812144254437658, -0.012812144254437658, 0.012812144254437658]}
    - {mu0: 0, rank: 3, ndensity: 1, num_ms_combs: 5, mus: [1, 1, 1], ns: [1, 1, 1], ls: [0, 2, 2], ms_combs: [0, -2, 2, 0, -1, 1, 0, 0, 0, 0, 1, -1, 0, 2, -2], ctildes: [-0.001745284420936054, 0.001745284420936054, -0.001745284420936054, 0.001745284420936054, -0.001745284420936054]}
    - {mu0: 0, rank: 3, ndensity: 1, num_ms_combs: 7, mus: [0, 0, 0], ns: [1, 1, 1], ls: [0, 3, 3], ms_combs: [0, -3, 3, 0, -2, 2, 0, -1, 1, 0, 0, 0, 0, 1, -1, 0, 2, -2, 0, 3, -3], ctildes: [-0.033252557391531455, 0.033252557391531455, -0.033252557391531455, 0.033252557391531455, -0.033252557391531455, 0.033252557391531455, -0.033252557391531455]}
    - {mu0: 0, rank: 3, ndensity: 1, num_ms_combs: 7, mus: [0, 0, 1], ns: [1, 1, 1], ls: [0, 3, 3], ms_combs: [0, -3, 3, 0, -2, 2, 0, -1, 1, 0, 0, 0, 0, 1, -1, 0, 2, -2, 0, 3, -3], ctildes: [0.050236535699970095, -0.050236535699970095, 0.050236535699970095, -0.050236535699970095, 0.050236535699970095, -0.050236535699970095, 0.050236535699970095]}
    - {mu0: 0, rank: 3, ndensity: 1, num_ms_combs: 7, mus: [0, 1, 1], ns: [1, 1, 1], ls: [0, 3, 3], ms_combs: [0, -3, 3, 0, -2, 2, 0, -1, 1, 0, 0, 0, 0, 1, -1, 0, 2, -2, 0, 3, -3], ctildes: [-0.02048730799440074, 0.02048730799440074, -0.02048730799440074, 0.02048730799440074, -0.02048730799440074, 0.02048730799440074, -0.02048730799440074]}
    - {mu0: 0, rank: 3, ndensity: 1, num_ms_combs: 7, mus: [1, 1, 1], ns: [1, 1, 1], ls: [0, 3, 3], ms_combs: [0, -3, 3, 0, -2, 2, 0, -1, 1, 0, 0, 0, 0, 1, -1, 0, 2, -2, 0, 3, -3], ctildes: [0.01956824163370628, -0.01956824163370628, 0.01956824163370628, -0.01956824163370628, 0.01956824163370628, -0.01956824163370628, 0.01956824163370628]}
    - {mu0: 0, rank: 3, ndensity: 1, num_ms_combs: 9, mus: [0, 0, 0], ns: [1, 1, 1], ls: [0, 4, 4], ms_combs: [0, -4, 4, 0, -3, 3, 0, -2, 2, 0, -1, 1, 0, 0, 0, 0, 1, -1, 0, 2, -2, 0, 3, -3, 0, 4, -4], ctildes: [-0.0012593772270228106, 0.0012593772270228106, -0.0012593772270228106, 0.0012593772270228106, -0.0012593772270228106, 0.0012593772270228106, -0.0012593772270228106, 0.0012593772270228106, -0.0012593772270228106]}
    - {mu0: 0, rank: 3, ndensity: 1, num_ms_combs: 9, mus: [0, 0, 1], ns: [1, 1, 1], ls: [0, 4, 4], ms_combs: [0, -4, 4, 0, -3, 3, 0, -2, 2, 0, -1, 1, 0, 0, 0, 0, 1, -1, 0, 2, -2, 0, 3, -3, 0, 4, -4], ctildes: [0.007977262874816702, -0.007977262874816702, 0.007977262874816702, -0.007977262874816702, 0.007977262874816702, -0.007977262874816702, 0.007977262874816702, -0.007977262874816702, 0.007977262874816702]}
    - {mu0: 0, rank: 3, ndensity: 1, num_ms_combs: 9, mus: [0, 1, 1], ns: [1, 1, 1], ls: [0, 4, 4], ms_combs: [0, -4, 4, 0, -3, 3, 0, -2, 2, 0, -1, 1, 0, 0, 0, 0, 1, -1, 0, 2, -2, 0, 3, -3, 0, 4, -4], ctildes: [-9.359660515611031e-05, 9.359660515611031e-05, -9.359660515611031e-05, 9.359660515611031e-05, -9.359660515611031e-05, 9.359660515611031e-05, -9.359660515611031e-05, 9.359660515611031e-05, -9.359660515611031e-05]}
    - {mu0: 0, rank: 3, ndensity: 1, num_ms_combs: 9, mus: [1, 1, 1], ns: [1, 1, 1], ls: [0, 4, 4], ms_combs: [0, -4, 4, 0, -3, 3, 0, -2, 2, 0, -1, 1, 0, 0, 0, 0, 1, -1, 0, 2, -2, 0, 3, -3, 0, 4, -4], ctildes: [0.005803724482087984, -0.005803724482087984, 0.005803724482087984, -0.005803724482087984, 0.005803724482087984, -0.005803724482087984, 0.005803724482087984, -0.005803724482087984, 0.005803724482087984]}
    - {mu0: 0, rank: 3, ndensity: 1, num_ms_combs: 11, mus: [0, 0, 0], ns: [1, 1, 1], ls: [0, 5, 5], ms_combs: [0, -5, 5, 0, -4, 4, 0, -3, 3, 0, -2, 2, 0, -1, 1, 0, 0, 0, 0, 1, -1, 0, 2, -2, 0, 3, -3, 0, 4, -4, 0, 5, -5], ctildes: [-0.02805424324536622, 0.02805424324536622, -0.02805424324536622, 0.02805424324536622, -0.02805424324536622, 0.02805424324536622, -0.02805424324536622, 0.02805424324536622, -0.02805424324536622, 0.02805424324536622, -0.02805424324536622]}
    - {mu0: 0, rank: 3, ndensity: 1, num_ms_combs: 11, mus: [0, 0, 1], ns: [1, 1, 1], ls: [0, 5, 5], ms_combs: [0, -5, 5, 0, -4, 4, 0, -3, 3, 0, -2, 2, 0, -1, 1, 0, 0, 0, 0, 1, -1, 0, 2, -2, 0, 3, -3, 0, 4, -4, 0, 5, -5], ctildes: [0.055172341060346256, -0.055172341060346256, 0.055172341060346256, -0.055172341060346256, 0.055172341060346256, -0.055172341060346256, 0.055172341060346256, -0.055172341060346256, 0.055172341060346256, -0.055172341060346256, 0.055172341060346256]}
    - {mu0: 0, rank: 3, ndensity: 1, num_ms_combs: 11, mus: [0, 1, 1], ns: [1, 1, 1], ls: [0, 5, 5], ms_combs: [0, -5, 5, 0, -4, 4, 0, -3, 3, 0, -2, 2, 0, -1, 1, 0, 0, 0, 0, 1, -1, 0, 2, -2, 0, 3, -3, 0, 4, -4, 0, 5, -5], ctildes: [-0.02077512558331366, 0.02077512558331366, -0.02077512558331366, 0.02077512558331366, -0.02077512558331366, 0.02077512558331366, -0.02077512558331366, 0.02077512558331366, -0.02077512558331366, 0.02077512558331366, -0.02077512558331366]}
    - {mu0: 0, rank: 3, ndensity: 1, num_ms_combs: 11, mus: [1, 1, 1], ns: [1, 1, 1], ls: [0, 5, 5], ms_combs: [0, -5, 5, 0, -4, 4, 0, -3, 3, 0, -2, 2, 0, -1, 1, 0, 0, 0, 0, 1, -1, 0, 2, -2, 0, 3, -3, 0, 4, -4, 0, 5, -5], ctildes: [0.02276346401266354, -0.02276346401266354, 0.02276346401266354, -0.02276346401266354, 0.02276346401266354, -0.02276346401266354, 0.02276346401266354, -0.02276346401266354, 0.02276346401266354, -0.02276346401266354, 0.02276346401266354]}
    - {mu0: 0, rank: 3, ndensity: 1, num_ms_combs: 3, mus: [0, 1, 1], ns: [1, 1, 1], ls: [1, 0, 1], ms_combs: [-1, 0, 1, 0, 0, 0, 1, 0, -1], ctildes: [0.06667530797108487, -0.06667530797108487, 0.06667530797108487]}
    - {mu0: 0, rank: 3, ndensity: 1, num_ms_combs: 3, mus: [0, 0, 1], ns: [1, 1, 1], ls: [1, 1, 0], ms_combs: [-1, 1, 0, 0, 0, 0, 1, -1, 0], ctildes: [-0.02884616384898538, 0.02884616384898538, -0.02884616384898538]}
    - {mu0: 0, rank: 3, ndensity: 1, num_ms_combs: 9, mus: [0, 0, 0], ns: [1, 1, 1], ls: [1, 1, 2], ms_combs: [-1, -1, 2, -1, 0, 1, -1, 1, 0, 0, -1, 1, 0, 0, 0, 0, 1, -1, 1, -1, 0, 1, 0, -1, 1, 1, -2], ctildes: [-0.02289357934941722, 0.016188205288625808, -0.009346265348732355, 0.016188205288625808, -0.01869253069746471, 0.016188205288625808, -0.009346265348732355, 0.016188205288625808, -0.02289357934941722]}
    - {mu0: 0, rank: 3, ndensity: 1, num_ms_combs: 9, mus: [0, 0, 1], ns: [1, 1, 1], ls: [1, 1, 2], ms_combs: [-1, -1, 2, -1, 0, 1, -1, 1, 0, 0, -1, 1, 0, 0, 0, 0, 1, -1, 1, -1, 0, 1, 0, -1, 1, 1, -2], ctildes: [0.048280190054402115, -0.03413924996374265, 0.019710306564497862, -0.03413924996374265, 0.039420613128995724, -0.03413924996374265, 0.019710306564497862, -0.03413924996374265, 0.048280190054402115]}
    - {mu0: 0, rank: 3, ndensity: 1, num_ms_combs: 9, mus: [0, 1, 1], ns: [1, 1, 1], ls: [1, 1, 2], ms_combs: [-1, -1, 2, -1, 0, 1, -1, 1, 0, 0, -1, 1, 0, 0, 0, 0, 1, -1, 1, -1, 0, 1, 0, -1, 1, 1, -2], ctildes: [0.056329902544344806, -0.03983125628187764, 0.02299658817925657, -0.03983125628187764, 0.04599317635851314, -0.03983125628187764, 0.02299658817925657, -0.03983125628187764, 0.056329902544344806]}
    - {mu0: 0, rank: 3, ndensity: 1, num_ms_combs: 9, mus: [1, 1, 1], ns: [1, 1, 1], ls: [1, 1, 2], ms_combs: [-1, -1, 2, -1, 0, 1, -1, 1, 0, 0, -1, 1, 0, 0, 0, 0, 1, -1, 1, -1, 0, 1, 0, -1, 1, 1, -2], ctildes: [-0.019719811803010245, 0.013944012722865126, -0.008050580074220227, 0.013944012722865126, -0.016101160148440454, 0.013944012722865126, -0.008050580074220227, 0.013944012722865126, -0.019719811803010245]}
    - {mu0: 0, rank: 3, ndensity: 1, num_ms_combs: 9, mus: [0, 0, 1], ns: [1, 1, 1], ls: [1, 2, 1], ms_combs: [-1, 0, 1, -1, 1, 0, -1, 2, -1, 0, -1, 1, 0, 0, 0, 0, 1, -1, 1, -2, 1, 1, -1, 0, 1, 0, -1], ctildes: [0.03911970086886768, -0.06775731017170403, 0.09582331287714656, -0.06775731017170403, 0.07823940173773536, -0.06775731017170403, 0.09582331287714656, -0.06775731017170403, 0.03911970086886768]}
    - {mu0: 0, rank: 3, ndensity: 1, num_ms_combs: 15, mus: [0, 0, 0], ns: [1, 1, 1], ls: [1, 2, 3], ms_combs: [-1, -2, 3, -1, -1, 2, -1, 0, 1, -1, 1, 0, -1, 2, -1, 0, -2, 2, 0, -1, 1, 0, 0, 0, 0, 1, -1, 0, 2, -2, 1, -2, 1, 1, -1, 0, 1, 0, -1, 1, 1, -2, 1, 2, -3], ctildes: [0.07594502240923695, -0.062008854982963775, 0.04803185082432571, -0.033963645927522546, 0.01960892070772721, -0.04384687770030281, 0.05546240252223726, -0.05882676362023905, 0.05546240252223726, -0.04384687770030281, 0.01960892070772721, -0.033963645927522546, 0.04803185082432571, -0.062008854982963775, 0.07594502240923695]}
    - {mu0: 0, rank: 3, ndensity: 1, num_ms_combs: 15, mus: [0, 0, 1], ns: [1, 1, 1], ls: [1, 2, 3], ms_combs: [-1, -2, 3, -1, -1, 2, -1, 0, 1, -1, 1, 0, -1, 2, -1, 0, -2, 2, 0, -1, 1, 0, 0, 0, 0, 1, -1, 0, 2, -2, 1, -2, 1, 1, -1, 0, 1, 0, -1, 1, 1, -2, 1, 2, -3], ctildes: [-0.10421187114094042, 0.08508864175798732, -0.06590937615098659, 0.046604964757308666, -0.026907389756172406, 0.06016674989196886, -0.07610559008948788, 0.0807221713227816, -0.07610559008948788, 0.06016674989196886, -0.026907389756172406, 0.046604964757308666, -0.06590937615098659, 0.08508864175798732, -0.10421187114094042]}
    - {mu0: 0, rank: 3, ndensity: 1, num_ms_combs: 15, mus: [0, 1, 1], ns: [1, 1, 1], ls: [1, 2, 3], ms_combs: [-1, -2, 3, -1, -1, 2, -1, 0, 1, -1, 1, 0, -1, 2, -1, 0, -2, 2, 0, -1, 1, 0, 0, 0, 0, 1, -1, 0, 2, -2, 1, -2, 1, 1, -1, 0, 1, 0, -1, 1, 1, -2, 1, 2, -3], ctildes: [0.03040527631099625, -0.02482580569040948, 0.01922998571483139, -0.013597652699218437, 0.007850608681976585, -0.017554493889911826, 0.022204874263822904, -0.02355182664529023, 0.022204874263822904, -0.017554493889911826, 0.007850608681976585, -0.013597652699218437, 0.01922998571483139, -0.02482580569040948, 0.03040527631099625]}
    - {mu0: 0, rank: 3, ndensity: 1, num_ms_combs: 15, mus: [1, 1, 1], ns: [1, 1, 1], ls: [1, 2, 3], ms_combs: [-1, -2, 3, -1, -1, 2, -1, 0, 1, -1, 1, 0, -1, 2, -1, 0, -2, 2, 0, -1, 1, 0, 0, 0, 0, 1, -1, 0, 2, -2, 1, -2, 1, 1, -1, 0, 1, 0, -1, 1, 1, -2, 1, 2, -3], ctildes: [-0.09403061618087542, 0.07677568137776278, -0.059470184958032385, 0.04205176920094759, -0.02427860099709783, 0.054288599791966055, -0.06867025275119815, 0.07283580484486107, -0.06867025275119815, 0.054288599791966055, -0.02427860099709783, 0.04205176920094759, -0.059470184958032385, 0.07677568137776278, -0.09403061618087542]}
    - {mu0: 0, rank: 3, ndensity: 1, num_ms_combs: 15, mus: [0, 0, 1], ns: [1, 1, 1], ls: [1, 3, 2], ms_combs: [-1, -1, 2, -1, 0, 1, -1, 1, 0, -1, 2, -1, -1, 3, -2, 0, -2, 2, 0, -1, 1, 0, 0, 0, 0, 1, -1, 0, 2, -2, 1, -3, 2, 1, -2, 1, 1, -1, 0, 1, 0, -1, 1, 1, -2], ctildes: [-0.016984651441048482, 0.029418278361380442, -0.04160373008179531, 0.05371018649328987, -0.0657812713677403, 0.037978833492067425, -0.04803985342549262, 0.05095395561985111, -0.04803985342549262, 0.037978833492067425, -0.0657812713677403, 0.05371018649328987, -0.04160373008179531, 0.029418278361380442, -0.016984651441048482]}
    - {mu0: 0, rank: 3, ndensity: 1, num_ms_combs: 21, mus: [0, 0, 0], ns: [1, 1, 1], ls: [1, 3, 4], ms_combs: [-1, -3, 4, -1, -2, 3, -1, -1, 2, -1, 0, 1, -1, 1, 0, -1, 2, -1, -1, 3, -2, 0, -3, 3, 0, -2, 2, 0, -1, 1, 0, 0, 0, 0, 1, -1, 0, 2, -2, 0, 3, -3, 1, -3, 2, 1, -2, 1, 1, -1, 0, 1, 0, -1, 1, 1, -2, 1, 2, -3, 1, 3, -4], ctildes: [0.0024749891971328464, -0.0021434034164603947, 0.0018115066249611558, -0.0014790888267086826, 0.0011456973908625667, -0.0008101303728775208, 0.00046772897218828375, -0.0012374945985664232, 0.0016202607457550416, -0.0018115066249611558, 0.001870915888753135, -0.0018115066249611558, 0.0016202607457550416, -0.0012374945985664232, 0.00046772897218828375, -0.0008101303728775208, 0.0011456973908625667, -0.0014790888267086826, 0.0018115066249611558, -0.0021434034164603947, 0.0024749891971328464]}
    - {mu0: 0, rank: 3, ndensity: 1, num_ms_combs: 21, mus: [0, 0, 1], ns: [1, 1, 1], ls: [1, 3, 4], ms_combs: [-1, -3, 4, -1, -2, 3, -1, -1, 2, -1, 0, 1, -1, 1, 0, -1, 2, -1, -1, 3, -2, 0, -3, 3, 0, -2, 2, 0, -1, 1, 0, 0, 0, 0, 1, -1, 0, 2, -2, 0, 3, -3, 1, -3, 2, 1, -2, 1, 1, -1, 0, 1, 0, -1, 1, 1, -2, 1, 2, -3, 1, 3, -4], ctildes: [0.019082140153548782, -0.01652561734244094, 0.013966696641195674, -0.011403758983473315, 0.008833314590350992, -0.006246096482281258, 0.0036061853568943405, -0.009541070076774391, 0.012492192964562516, -0.013966696641195674, 0.014424741427577362, -0.013966696641195674, 0.012492192964562516, -0.009541070076774391, 0.0036061853568943405, -0.006246096482281258, 0.008833314590350992, -0.011403758983473315, 0.013966696641195674, -0.01652561734244094, 0.019082140153548782]}
    - {mu0: 0, rank: 3, ndensity: 1, num_ms_combs: 21, mus: [0, 1, 1], ns: [1, 1, 1], ls: [1, 3, 4], ms_combs: [-1, -3, 4, -1, -2, 3, -1, -1, 2, -1, 0, 1, -1, 1, 0, -1, 2, -1, -1, 3, -2, 0, -3, 3, 0, -2, 2, 0, -1, 1, 0, 0, 0, 0, 1, -1, 0, 2, -2, 0, 3, -3, 1, -3, 2, 1, -2, 1, 1, -1, 0, 1, 0, -1, 1, 1, -2, 1, 2, -3, 1, 3, -4], ctildes: [0.027564950869668172, -0.0238719465673039, 0.020175478412180085, -0.016473207595140694, 0.012760092984332541, -0.00902274803957303, 0.005209285823803293, -0.013782475434834086, 0.01804549607914606, -0.020175478412180085, 0.020837143295213172, -0.020175478412180085, 0.01804549607914606, -0.013782475434834086, 0.005209285823803293, -0.00902274803957303, 0.012760092984332541, -0.016473207595140694, 0.020175478412180085, -0.0238719465673039, 0.027564950869668172]}
    - {mu0: 0, rank: 3, ndensity: 1, num_ms_combs: 21, mus: [1, 1, 1], ns: [1, 1, 1], ls: [1, 3, 4], ms_combs: [-1, -3, 4, -1, -2, 3, -1, -1, 2, -1, 0, 1, -1, 1, 0, -1, 2, -1, -1, 3, -2, 0, -3, 3, 0, -2, 2, 0, -1, 1, 0, 0, 0, 0, 1, -1, 0, 2, -2, 0, 3, -3, 1, -3, 2, 1, -2, 1, 1, -1, 0, 1, 0, -1, 1, 1, -2, 1, 2, -3, 1, 3, -4], ctildes: [0.010610309330656674, -0.00918879698358959, 0.00776595132925748, -0.006340872112523732, 0.004911618899371546, -0.0034730389386541426, 0.0020051598946681888, -0.005305154665328337, 0.006946077877308285, -0.00776595132925748, 0.008020639578672755, -0.00776595132925748, 0.006946077877308285, -0.005305154665328337, 0.0020051598946681888, -0.0034730389386541426, 0.004911618899371546, -0.006340872112523732, 0.00776595132925748, -0.00918879698358959, 0.010610309330656674]}
    - {mu0: 0, rank: 3, ndensity: 1, num_ms_combs: 21, mus: [0, 0, 1], ns: [1, 1, 1], ls: [1, 4, 3], ms_combs: [-1, -2, 3, -1, -1, 2, -1, 0, 1, -1, 1, 0, -1, 2, -1, -1, 3, -2, -1, 4, -3, 0, -3, 3, 0, -2, 2, 0, -1, 1, 0, 0, 0, 0, 1, -1, 0, 2, -2, 0, 3, -3, 1, -4, 3, 1, -3, 2, 1, -2, 1, 1, -1, 0, 1, 0, -1, 1, 1, -2, 1, 2, -3], ctildes: [0.00197132287233688, -0.003414431261553693, 0.004828735455102173, -0.006233870056557046, 0.007634900631363432, -0.009033736267704368, 0.010431260629992863, -0.0052156303149964315, 0.006828862523107386, -0.007634900631363432, 0.00788529148934752, -0.007634900631363432, 0.006828862523107386, -0.0052156303149964315, 0.010431260629992863, -0.009033736267704368, 0.007634900631363432, -0.006233870056557046, 0.004828735455102173, -0.003414431261553693, 0.00197132287233688]}
    - {mu0: 0, rank: 3, ndensity: 1, num_ms_combs: 27, mus: [0, 0, 0], ns: [1, 1, 1], ls: [1, 4, 5], ms_combs: [-1, -4, 5, -1, -3, 4, -1, -2, 3, -1, -1, 2, -1, 0, 1, -1, 1, 0, -1, 2, -1, -1, 3, -2, -1, 4, -3, 0, -4, 4, 0, -3, 3, 0, -2, 2, 0, -1, 1, 0, 0, 0, 0, 1, -1, 0, 2, -2, 0, 3, -3, 0, 4, -4, 1, -4, 3, 1, -3, 2, 1, -2, 1, 1, -1, 0, 1, 0, -1, 1, 1, -2, 1, 2, -3, 1, 3, -4, 1, 4, -5], ctildes: [0.014495086174108473, -0.012964798554834712, 0.011433877664681088, -0.009902028359300877, 0.00836874201615482, -0.006833049386939238, 0.00529285688099078, -0.0037426151398582434, 0.002160799938231562, -0.006482399277417356, 0.008643199752926248, -0.009902028359300877, 0.01058571376198156, -0.010803998795695595, 0.01058571376198156, -0.009902028359300877, 0.008643199752926248, -0.006482399277417356, 0.002160799938231562, -0.0037426151398582434, 0.00529285688099078, -0.006833049386939238, 0.00836874201615482, -0.009902028359300877, 0.011433877664681088, -0.012964798554834712, 0.014495086174108473]}
    - {mu0: 0, rank: 3, ndensity: 1, num_ms_combs: 27, mus: [0, 0, 1], ns: [1, 1, 1], ls: [1, 4, 5], ms_combs: [-1, -4, 5, -1, -3, 4, -1, -2, 3, -1, -1, 2, -1, 0, 1, -1, 1, 0, -1, 2, -1, -1, 3, -2, -1, 4, -3, 0, -4, 4, 0, -3, 3, 0, -2, 2, 0, -1, 1, 0, 0, 0, 0, 1, -1, 0, 2, -2, 0, 3, -3, 0, 4, -4, 1, -4, 3, 1, -3, 2, 1, -2, 1, 1, -1, 0, 1, 0, -1, 1, 1, -2, 1, 2, -3, 1, 3, -4, 1, 4, -5], ctildes: [-0.01844416708023987, 0.016496963718239596, -0.014548954555309614, 0.012599764037170471, -0.010648744970767766, 0.008694664043140087, -0.006734857280059981, 0.004762263440688129, -0.002749494180924811, 0.008248481859119798, -0.010997976723699244, 0.012599764037170471, -0.013469714560119962, 0.013747469765199662, -0.013469714560119962, 0.012599764037170471, -0.010997976723699244, 0.008248481859119798, -0.002749494180924811, 0.004762263440688129, -0.006734857280059981, 0.008694664043140087, -0.010648744970767766, 0.012599764037170471, -0.014548954555309614, 0.016496963718239596, -0.01844416708023987]}
    - {mu0: 0, rank: 3, ndensity: 1, num_ms_combs: 27, mus: [0, 1, 1], ns: [1, 1, 1], ls: [1, 4, 5], ms_combs: [-1, -4, 5, -1, -3, 4, -1, -2, 3, -1, -1, 2, -1, 0, 1, -1, 1, 0, -1, 2, -1, -1, 3, -2, -1, 4, -3, 0, -4, 4, 0, -3, 3, 0, -2, 2, 0, -1, 1, 0, 0, 0, 0, 1, -1, 0, 2, -2, 0, 3, -3, 0, 4, -4, 1, -4, 3, 1, -3, 2, 1, -2, 1, 1, -1, 0, 1, 0, -1, 1, 1, -2, 1, 2, -3, 1, 3, -4, 1, 4, -5], ctildes: [0.013608198065186521, -0.01217154175492758, 0.010734290920741109, -0.009296168476814732, 0.007856696920898963, -0.006414966308566261, 0.004969011146402371, -0.0035136216158500495, 0.0020285904606225248, -0.00608577087746379, 0.008114361842490099, -0.009296168476814732, 0.009938022292804742, -0.01014295146243965, 0.009938022292804742, -0.009296168476814732, 0.008114361842490099, -0.00608577087746379, 0.0020285904606225248, -0.0035136216158500495, 0.004969011146402371, -0.006414966308566261, 0.007856696920898963, -0.009296168476814732, 0.010734290920741109, -0.01217154175492758, 0.013608198065186521]}
    - {mu0: 0, rank: 3, ndensity: 1, num_ms_combs: 27, mus: [1, 1, 1], ns: [1, 1, 1], ls: [1, 4, 5], ms_combs: [-1, -4, 5, -1, -3, 4, -1, -2, 3, -1, -1, 2, -1, 0, 1, -1, 1, 0, -1, 2, -1, -1, 3, -2, -1, 4, -3, 0, -4, 4, 0, -3, 3, 0, -2, 2, 0, -1, 1, 0, 0, 0, 0, 1, -1, 0, 2, -2, 0, 3, -3, 0, 4, -4, 1, -4, 3, 1, -3, 2, 1, -2, 1, 1, -1, 0, 1, 0, -1, 1, 1, -2, 1, 2, -3, 1, 3, -4, 1, 4, -5], ctildes: [-0.015701979177762115, 0.014044276419378781, -0.01238588766257846, 0.010726493188641929, -0.009065542025989928, 0.007401984224556649, -0.0057335518766796, 0.004054233572022612, -0.0023407129305672075, 0.007022138209689391, -0.00936285172226883, 0.010726493188641929, -0.0114671037533592, 0.011703563682815651, -0.0114671037533592, 0.010726493188641929, -0.00936285172226883, 0.007022138209689391, -0.0023407129305672075, 0.004054233572022612, -0.0057335518766796, 0.007401984224556649, -0.009065542025989928, 0.010726493188641929, -0.01238588766257846, 0.014044276419378781, -0.015701979177762115]}
    - {mu0: 0, rank: 3, ndensity: 1, num_ms_combs: 27, mus: [0, 0, 1], ns: [1, 1, 1], ls: [1, 5, 4], ms_combs: [-1, -3, 4, -1, -2, 3, -1, -1, 2, -1, 0, 1, -1, 1, 0, -1, 2, -1, -1, 3, -2, -1, 4, -3, -1, 5, -4, 0, -4, 4, 0, -3, 3, 0, -2, 2, 0, -1, 1, 0, 0, 0, 0, 1, -1, 0, 2, -2, 0, 3, -3, 0, 4, -4, 1, -5, 4, 1, -4, 3, 1, -3, 2, 1, -2, 1, 1, -1, 0, 1, 0, -1, 1, 1, -2, 1, 2, -3, 1, 3, -4], ctildes: [-0.0024793674501349706, 0.004294390591677883, -0.006073185177593566, 0.007840448965012639, -0.00960254863484154, 0.011361889724705039, -0.013119579447717978, 0.014876204700809822, -0.01663210331960804, 0.007438102350404911, -0.009917469800539883, 0.011361889724705039, -0.012146370355187132, 0.012396838072659348, -0.012146370355187132, 0.011361889724705039, -0.009917469800539883, 0.007438102350404911, -0.01663210331960804, 0.014876204700809822, -0.013119579447717978, 0.011361889724705039, -0.00960254863484154, 0.007840448965012639, -0.006073185177593566, 0.004294390591677883, -0.0024793674501349706]}
    - {mu0: 0, rank: 3, ndensity: 1, num_ms_combs: 5, mus: [0, 1, 1], ns: [1, 1, 1], ls: [2, 0, 2], ms_combs: [-2, 0, 2, -1, 0, 1, 0, 0, 0, 1, 0, -1, 2, 0, -2], ctildes: [-0.028636983663335808, 0.028636983663335808, -0.028636983663335808, 0.028636983663335808, -0.028636983663335808]}
    - {mu0: 0, rank: 3, ndensity: 1, num_ms_combs: 9, mus: [0, 1, 1], ns: [1, 1, 1], ls: [2, 1, 1], ms_combs: [-2, 1, 1, -1, 0, 1, -1, 1, 0, 0, -1, 1, 0, 0, 0, 0, 1, -1, 1, -1, 0, 1, 0, -1, 2, -1, -1], ctildes: [0.03438652357131386, -0.02431494250606112, -0.02431494250606112, 0.01403823845826236, 0.02807647691652472, 0.01403823845826236, -0.02431494250606112, -0.02431494250606112, 0.03438652357131386]}
    - {mu0: 0, rank: 3, ndensity: 1, num_ms_combs: 15, mus: [0, 1, 1], ns: [1, 1, 1], ls: [2, 1, 3], ms_combs: [-2, -1, 3, -2, 0, 2, -2, 1, 1, -1, -1, 2, -1, 0, 1, -1, 1, 0, 0, -1, 1, 0, 0, 0, 0, 1, -1, 1, -1, 0, 1, 0, -1, 1, 1, -2, 2, -1, -1, 2, 0, -2, 2, 1, -3], ctildes: [0.03448422440773516, -0.019909475594701485, 0.008903788564772431, -0.028156253071816215, 0.025183716774258867, -0.015421813710954904, 0.021809739071766362, -0.026711366374083556, 0.021809739071766362, -0.015421813710954904, 0.025183716774258867, -0.028156253071816215, 0.008903788564772431, -0.019909475594701485, 0.03448422440773516]}
    - {mu0: 0, rank: 3, ndensity: 1, num_ms_combs: 5, mus: [0, 0, 1], ns: [1, 1, 1], ls: [2, 2, 0], ms_combs: [-2, 2, 0, -1, 1, 0, 0, 0, 0, 1, -1, 0, 2, -2, 0], ctildes: [0.010993000423406356, -0.010993000423406356, 0.010993000423406356, -0.010993000423406356, 0.010993000423406356]}
    - {mu0: 0, rank: 3, ndensity: 1, num_ms_combs: 19, mus: [0, 0, 0], ns: [1, 1, 1], ls: [2, 2, 2], ms_combs: [-2, 0, 2, -2, 1, 1, -2, 2, 0, -1, -1, 2, -1, 0, 1, -1, 1, 0, -1, 2, -1, 0, -2, 2, 0, -1, 1, 0, 0, 0, 0, 1, -1, 0, 2, -2, 1, -2, 1, 1, -1, 0, 1, 0, -1, 1, 1, -2, 2, -2, 0, 2, -1, -1, 2, 0, -2], ctildes: [0.0004830923311869555, -0.0005916648616649308, 0.0004830923311869555, -0.0005916648616649308, 0.00024154616559347774, 0.00024154616559347774, -0.0005916648616649308, 0.0004830923311869555, 0.00024154616559347774, -0.0004830923311869555, 0.00024154616559347774, 0.0004830923311869555, -0.0005916648616649308, 0.00024154616559347774, 0.00024154616559347774, -0.0005916648616649308, 0.0004830923311869555, -0.0005916648616649308, 0.0004830923311869555]}
    - {mu0: 0, rank: 3, ndensity: 1, num_ms_combs: 19, mus: [0, 0, 1], ns: [1, 1, 1], ls: [2, 2, 2], ms_combs: [-2, 0, 2, -2, 1, 1, -2, 2, 0, -1, -1, 2, -1, 0, 1, -1, 1, 0, -1, 2, -1, 0, -2, 2, 0, -1, 1, 0, 0, 0, 0, 1, -1, 0, 2, -2, 1, -2, 1, 1, -1, 0, 1, 0, -1, 1, 1, -2, 2, -2, 0, 2, -1, -1, 2, 0, -2], ctildes: [-0.02618821581622358, 0.03207388337150169, -0.02618821581622358, 0.03207388337150169, -0.01309410790811179, -0.01309410790811179, 0.03207388337150169, -0.02618821581622358, -0.01309410790811179, 0.02618821581622358, -0.01309410790811179, -0.02618821581622358, 0.03207388337150169, -0.01309410790811179, -0.01309410790811179, 0.03207388337150169, -0.02618821581622358, 0.03207388337150169, -0.02618821581622358]}
    - {mu0: 0, rank: 3, ndensity: 1, num_ms_combs: 19, mus: [0, 1, 1], ns: [1, 1, 1], ls: [2, 2, 2], ms_combs: [-2, 0, 2, -2, 1, 1, -2, 2, 0, -1, -1, 2, -1, 0, 1, -1, 1, 0, -1, 2, -1, 0, -2, 2, 0, -1, 1, 0, 0, 0, 0, 1, -1, 0, 2, -2, 1, -2, 1, 1, -1, 0, 1, 0, -1, 1, 1, -2, 2, -2, 0, 2, -1, -1, 2, 0, -2], ctildes: [0.012172913155224561, -0.01490871312394709, 0.012172913155224561, -0.01490871312394709, 0.0060864565776122806, 0.0060864565776122806, -0.01490871312394709, 0.012172913155224561, 0.0060864565776122806, -0.012172913155224561, 0.0060864565776122806, 0.012172913155224561, -0.01490871312394709, 0.0060864565776122806, 0.0060864565776122806, -0.01490871312394709, 0.012172913155224561, -0.01490871312394709, 0.012172913155224561]}
    - {mu0: 0, rank: 3, ndensity: 1, num_ms_combs: 19, mus: [1, 1, 1], ns: [1, 1, 1], ls: [2, 2, 2], ms_combs: [-2, 0, 2, -2, 1, 1, -2, 2, 0, -1, -1, 2, -1, 0, 1, -1, 1, 0, -1, 2, -1, 0, -2, 2, 0, -1, 1, 0, 0, 0, 0, 1, -1, 0, 2, -2, 1, -2, 1, 1, -1, 0, 1, 0, -1, 1, 1, -2, 2, -2, 0, 2, -1, -1, 2, 0, -2], ctildes: [-0.00580049046908223, 0.007104121033231913, -0.00580049046908223, 0.007104121033231913, -0.002900245234541115, -0.002900245234541115, 0.007104121033231913, -0.00580049046908223, -0.002900245234541115, 0.00580049046908223, -0.002900245234541115, -0.00580049046908223, 0.007104121033231913, -0.002900245234541115, -0.002900245234541115, 0.007104121033231913, -0.00580049046908223, 0.007104121033231913, -0.00580049046908223]}
    - {mu0: 0, rank: 3, ndensity: 1, num_ms_combs: 25, mus: [0, 0, 0], ns: [1, 1, 1], ls: [2, 2, 4], ms_combs: [-2, -2, 4, -2, -1, 3, -2, 0, 2, -2, 1, 1, -2, 2, 0, -1, -2, 3, -1, -1, 2, -1, 0, 1, -1, 1, 0, -1, 2, -1, 0, -2, 2, 0, -1, 1, 0, 0, 0, 0, 1, -1, 0, 2, -2, 1, -2, 1, 1, -1, 0, 1, 0, -1, 1, 1, -2, 1, 2, -3, 2, -2, 0, 2, -1, -1, 2, 0, -2, 2, 1, -3, 2, 2, -4], ctildes: [-0.019498441564453593, 0.013787479896482597, -0.009026024700293523, 0.005211177309676339, -0.0023305095461648947, 0.013787479896482597, -0.014739435699808706, 0.012764726208454208, -0.009322038184659579, 0.005211177309676339, -0.009026024700293523, 0.012764726208454208, -0.01398305684116525, 0.012764726208454208, -0.009026024700293523, 0.005211177309676339, -0.009322038184659579, 0.012764726208454208, -0.014739435699808706, 0.013787479896482597, -0.0023305095461648947, 0.005211177309676339, -0.009026024700293523, 0.013787479896482597, -0.019498441564453593]}
    - {mu0: 0, rank: 3, ndensity: 1, num_ms_combs: 25, mus: [0, 0, 1], ns: [1, 1, 1], ls: [2, 2, 4], ms_combs: [-2, -2, 4, -2, -1, 3, -2, 0, 2, -2, 1, 1, -2, 2, 0, -1, -2, 3, -1, -1, 2, -1, 0, 1, -1, 1, 0, -1, 2, -1, 0, -2, 2, 0, -1, 1, 0, 0, 0, 0, 1, -1, 0, 2, -2, 1, -2, 1, 1, -1, 0, 1, 0, -1, 1, 1, -2, 1, 2, -3, 2, -2, 0, 2, -1, -1, 2, 0, -2, 2, 1, -3, 2, 2, -4], ctildes: [0.024618963838379394, -0.017408235826020482, 0.011396365959110562, -0.006579694347274887, 0.002942529024813339, -0.017408235826020482, 0.01861018652655985, -0.016116894875621523, 0.011770116099253356, -0.006579694347274887, 0.011396365959110562, -0.016116894875621523, 0.01765517359860333, -0.016116894875621523, 0.011396365959110562, -0.006579694347274887, 0.011770116099253356, -0.016116894875621523, 0.01861018652655985, -0.017408235826020482, 0.002942529024813339, -0.006579694347274887, 0.011396365959110562, -0.017408235826020482, 0.024618963838379394]}
    - {mu0: 0, rank: 3, ndensity: 1, num_ms_combs: 25, mus: [0, 1, 1], ns: [1, 1, 1], ls: [2, 2, 4], ms_combs: [-2, -2, 4, -2, -1, 3, -2, 0, 2, -2, 1, 1, -2, 2, 0, -1, -2, 3, -1, -1, 2, -1, 0, 1, -1, 1, 0, -1, 2, -1, 0, -2, 2, 0, -1, 1, 0, 0, 0, 0, 1, -1, 0, 2, -2, 1, -2, 1, 1, -1, 0, 1, 0, -1, 1, 1, -2, 1, 2, -3, 2, -2, 0, 2, -1, -1, 2, 0, -2, 2, 1, -3, 2, 2, -4], ctildes: [0.006956290792306297, -0.0049188402640269035, 0.0032201369687024288, -0.0018591467741946623, 0.000831435786484769, -0.0049188402640269035, 0.005258461323867515, -0.004553961253603868, 0.003325743145939076, -0.0018591467741946623, 0.0032201369687024288, -0.004553961253603868, 0.004988614563423403, -0.004553961253603868, 0.0032201369687024288, -0.0018591467741946623, 0.003325743145939076, -0.004553961253603868, 0.005258461323867515, -0.0049188402640269035, 0.000831435786484769, -0.0018591467741946623, 0.0032201369687024288, -0.0049188402640269035, 0.006956290792306297]}
    - {mu0: 0, rank: 3, ndensity: 1, num_ms_combs: 25, mus: [1, 1, 1], ns: [1, 1, 1], ls: [2, 2, 4], ms_combs: [-2, -2, 4, -2, -1, 3, -2, 0, 2, -2, 1, 1, -2, 2, 0, -1, -2, 3, -1, -1, 2, -1, 0, 1, -1, 1, 0, -1, 2, -1, 0, -2, 2, 0, -1, 1, 0, 0, 0, 0, 1, -1, 0, 2, -2, 1, -2, 1, 1, -1, 0, 1, 0, -1, 1, 1, -2, 1, 2, -3, 2, -2, 0, 2, -1, -1, 2, 0, -2, 2, 1, -3, 2, 2, -4], ctildes: [0.02613951384952815, -0.0184834270222507, 0.01210024385177664, -0.006986078400591845, 0.00312426951441552, -0.0184834270222507, 0.01975961424074848, -0.017112328511402954, 0.01249707805766208, -0.006986078400591845, 0.01210024385177664, -0.017112328511402954, 0.018745616502229473, -0.017112328511402954, 0.01210024385177664, -0.006986078400591845, 0.01249707805766208, -0.017112328511402954, 0.01975961424074848, -0.0184834270222507, 0.00312426951441552, -0.006986078400591845, 0.01210024385177664, -0.0184834270222507, 0.02613951384952815]}
    - {mu0: 0, rank: 3, ndensity: 1, num_ms_combs: 15, mus: [0, 0, 1], ns: [1, 1, 1], ls: [2, 3, 1], ms_combs: [-2, 1, 1, -2, 2, 0, -2, 3, -1, -1, 0, 1, -1, 1, 0, -1, 2, -1, 0, -1, 1, 0, 0, 0, 0, 1, -1, 1, -2, 1, 1, -1, 0, 1, 0, -1, 2, -3, 1, 2, -2, 0, 2, -1, -1], ctildes: [-0.018885260364327305, 0.04222872405245258, -0.07314229798521883, 0.03271023236658648, -0.05341558200349195, 0.05972043416424935, -0.04625925221067702, 0.05665577676755479, -0.04625925221067702, 0.05972043416424935, -0.05341558200349195, 0.03271023236658648, -0.07314229798521883, 0.04222872405245258, -0.018885260364327305]}
    - {mu0: 0, rank: 3, ndensity: 1, num_ms_combs: 29, mus: [0, 0, 0], ns: [1, 1, 1], ls: [2, 3, 3], ms_combs: [-2, -1, 3, -2, 0, 2, -2, 1, 1, -2, 2, 0, -2, 3, -1, -1, -2, 3, -1, -1, 2, -1, 0, 1, -1, 1, 0, -1, 2, -1, -1, 3, -2, 0, -3, 3, 0, -2, 2, 0, -1, 1, 0, 0, 0, 0, 1, -1, 0, 2, -2, 0, 3, -3, 1, -3, 2, 1, -2, 1, 1, -1, 0, 1, 0, -1, 1, 1, -2, 1, 2, -3, 2, -3, 1, 2, -2, 0, 2, -1, -1, 2, 0, -2, 2, 1, -3], ctildes: [0.0009525470099869758, -0.0013471047727671424, 0.0014756794299595412, -0.0013471047727671424, 0.0009525470099869758, -0.0015061089669487862, 0.0011666269928575113, -0.0004259919466644385, -0.0004259919466644385, 0.0011666269928575113, -0.0015061089669487862, 0.0015061089669487862, -0.0, -0.00090366541696447, 0.001204887191956628, -0.00090366541696447, -0.0, 0.0015061089669487862, -0.0015061089669487862, 0.0011666269928575113, -0.0004259919466644385, -0.0004259919466644385, 0.0011666269928575113, -0.0015061089669487862, 0.0009525470099869758, -0.0013471047727671424, 0.0014756794299595412, -0.0013471047727671424, 0.0009525470099869758]}
    - {mu0: 0, rank: 3, ndensity: 1, num_ms_combs: 29, mus: [0, 0, 1], ns: [1, 1, 1], ls: [2, 3, 3], ms_combs: [-2, -1, 3, -2, 0, 2, -2, 1, 1, -2, 2, 0, -2, 3, -1, -1, -2, 3, -1, -1, 2, -1, 0, 1, -1, 1, 0, -1, 2, -1, -1, 3, -2, 0, -3, 3, 0, -2, 2, 0, -1, 1, 0, 0, 0, 0, 1, -1, 0, 2, -2, 0, 3, -3, 1, -3, 2, 1, -2, 1, 1, -1, 0, 1, 0, -1, 1, 1, -2, 1, 2, -3, 2, -3, 1, 2, -2, 0, 2, -1, -1, 2, 0, -2, 2, 1, -3], ctildes: [0.013437892604729742, -0.019004048171870524, 0.020817892965803605, -0.019004048171870524, 0.013437892604729742, -0.021247172409007902, 0.016457989028816962, -0.006009607893089451, -0.006009607893089451, 0.016457989028816962, -0.021247172409007902, 0.021247172409007902, -0.0, -0.012748303964486653, 0.016997738186747276, -0.012748303964486653, -0.0, 0.021247172409007902, -0.021247172409007902, 0.016457989028816962, -0.006009607893089451, -0.006009607893089451, 0.016457989028816962, -0.021247172409007902, 0.013437892604729742, -0.019004048171870524, 0.020817892965803605, -0.019004048171870524, 0.013437892604729742]}
    - {mu0: 0, rank: 3, ndensity: 1, num_ms_combs: 29, mus: [0, 1, 1], ns: [1, 1, 1], ls: [2, 3, 3], ms_combs: [-2, -1, 3, -2, 0, 2, -2, 1, 1, -2, 2, 0, -2, 3, -1, -1, -2, 3, -1, -1, 2, -1, 0, 1, -1, 1, 0, -1, 2, -1, -1, 3, -2, 0, -3, 3, 0, -2, 2, 0, -1, 1, 0, 0, 0, 0, 1, -1, 0, 2, -2, 0, 3, -3, 1, -3, 2, 1, -2, 1, 1, -1, 0, 1, 0, -1, 1, 1, -2, 1, 2, -3, 2, -3, 1, 2, -2, 0, 2, -1, -1, 2, 0, -2, 2, 1, -3], ctildes: [0.0024174829950990794, -0.0034188369147533236, 0.0037451484186522945, -0.0034188369147533236, 0.0024174829950990794, -0.0038223759858473706, 0.0029607997162210092, -0.0010811311949050315, -0.0010811311949050315, 0.0029607997162210092, -0.0038223759858473706, 0.0038223759858473706, -0.0, -0.0022934256848914946, 0.0030579008353694326, -0.0022934256848914946, -0.0, 0.0038223759858473706, -0.0038223759858473706, 0.0029607997162210092, -0.0010811311949050315, -0.0010811311949050315, 0.0029607997162210092, -0.0038223759858473706, 0.0024174829950990794, -0.0034188369147533236, 0.0037451484186522945, -0.0034188369147533236, 0.0024174829950990794]}
